0.431294	-0.252796	0.302067	-0.178767	0.142375	-0.110468	0.001336	-0.389504	0.143697	-0.451700	-0.256630	-0.181557	0.007056	-0.326084	-0.011338	0.208254	0.191623	0.289927	0.423980	-0.061123	-0.175339	0.037040	0.114338	0.003342	0.021999	0.100928	-0.235164	-0.040832	-0.116729	0.162655	0.139977	-0.095099	0.395208	-0.112776	-0.069972	0.250506	0.117513	0.362260	0.215100	-0.018351	-0.359761	0.369780	0.185819	0.078844	0.741400	-0.209779	0.086017	0.124946	-0.064586	0.035023	-0.457872	-0.000126	-0.197945	0.101907	-0.352947	0.202406	0.003390	-0.386307	-0.137984	0.201496	0.168265	0.273099	-0.118874	0.332390	-0.254933	-0.023689	0.080129	0.194034	0.197742	0.030644	-0.335483	0.139603	-0.209519	-0.484455	-0.196030	0.146554	-0.318087	0.515859	-0.370487	-0.061834	0.017226	-0.234152	-0.363173	0.260377	0.212279	-0.195642	-0.032167	0.000469	-0.020954	0.115771	-0.150444	-0.147318	0.067400	-0.074050	-0.321238	0.213604	-0.168254	0.176184	-0.048646	0.274871	-0.338428	0.068656	-0.016986	0.167705	0.035103	0.096559	-0.169359	-0.343725	0.216881	-0.003804	-0.047760	-0.185480	-0.058981	-0.032674	-0.313871	-0.279907	0.087779	0.143109	0.050887	0.308612	-0.384647	0.448092	-0.158319	0.318097	0.044066	-0.140889	-0.134265	0.211513	-0.167970	0.465409	0.099781	0.001413	0.042247	-0.391716	-0.236077	-0.236407	0.333234	-0.141183	-0.161848	0.238875	0.092976	0.112187	-0.273713	0.256554	-0.140297	-0.484765	-0.328199	0.096959	0.108540	0.239575	0.264774	0.303654	0.249270	0.323497	0.208373	0.070933	-0.032369	-0.447591	-0.332816	-0.119052	-0.251399	-0.059062	0.127708	-0.079372	0.268543	0.466321	0.183730	0.019176	-0.162498	-0.469310	-0.150205	0.299937	0.287496	0.040561	0.225211	0.247782	0.032606	-0.411085	0.112479	-0.400288	0.219847	-0.238558	0.315411	0.062672	-0.154330	0.034895	0.465022	0.046438	0.041588	-0.319716	-0.457391	0.183982	0.186234	0.273312	-0.108026	-0.051771	0.150499	0.396672	-0.274951	-0.308763	0.422211	0.219801	0.321021	0.168954	-0.043809	0.294905	0.043743	0.163600	0.273938	-0.187162	0.234080	0.269857	0.283945	0.094952	-0.112255	0.383963	-0.141456	-0.220098	0.222381	0.319268	0.055454	0.138276	-0.199913	-0.039489	-0.047902	0.311860	0.332266	-0.407473	0.147120	-0.214249	-0.125057	0.104186	0.212075	-0.281375	-0.013616	-0.191588	-0.300606	-0.156604	-0.451082	-0.338711	0.017960	0.205525	0.237048	-0.499473	-0.077736	-0.117037	-0.326709	0.199042	0.134778	-0.049340	0.107823	-0.185043	-0.371854	-0.144302	0.030488	0.071995	-0.331930	-0.178760	0.288986	-0.406213	0.165821	-0.203392	0.345325	-0.015436	0.038894	0.013694	0.135559	-0.083944	0.070138	0.212464	0.339702	0.095868	0.156261	0.175228	0.295278	-0.316968	0.248417	0.164516	0.078759	0.202058	-0.141860	-0.073615	0.179914	0.110746	0.035709	-0.059163	-0.020175	0.553257	0.067217	-0.146436	-0.321946	-0.188082	-0.138500	0.403895	0.110351	0.463435	-0.284035	-0.150180	0.118147	0.160235	
0.500411	0.115165	-0.185943	0.076753	0.145772	-0.037418	-0.160786	0.488224	-0.322110	-0.294057	-0.174490	0.011676	0.142279	-0.319437	-0.142033	0.494606	0.259755	0.097498	-0.241515	-0.215583	-0.254432	-0.467189	0.288072	0.346805	-0.076352	-0.524860	0.014756	-0.138354	-0.025883	-0.186892	0.184451	-0.213061	0.200473	0.096081	-0.394591	0.261492	-0.479975	0.136048	-0.266897	-0.025740	0.250939	0.077365	-0.464919	0.384567	0.096139	-0.010929	-0.288760	0.811645	0.450529	0.548372	-0.032689	-0.027847	0.250831	-0.394747	-0.104584	0.487364	-0.023265	-0.156501	0.179069	-0.404813	0.359611	0.163368	-0.135466	0.421361	-0.291830	0.427395	0.292515	0.224146	-0.077510	0.036393	-0.574594	-0.073296	-0.111519	-0.221462	-0.662343	-0.214964	0.144277	-0.039506	0.168792	-0.340442	-0.181211	0.606430	-0.005429	0.187993	-1.063998	0.635454	0.181239	-0.053076	0.182493	0.219087	-0.018855	-0.159757	0.026845	-0.285490	-0.503430	-0.152917	0.533625	-0.344023	0.358208	-0.077313	0.488140	-0.259176	0.503833	0.307224	-0.629700	0.262188	-0.552234	-0.458317	-0.392400	0.136698	-0.359566	-0.151143	0.318642	-0.789214	-0.071223	0.169288	0.386392	-0.467596	-0.015763	0.285204	0.143958	0.208116	-0.198081	-0.446701	0.376371	0.006513	-0.152227	0.447786	0.252413	0.382663	-0.477870	0.029867	0.793900	0.528816	-0.513520	-0.248622	0.315972	-0.097609	-0.483505	0.272593	-0.266030	-0.438318	-0.234185	-0.214187	-0.068401	0.543912	0.612302	-0.045537	0.596687	-0.237693	-0.597212	0.059189	0.685024	-0.143023	0.156152	0.488315	-0.669500	0.502226	0.405444	-0.029294	0.056954	-0.731804	-0.412971	0.136936	-0.075170	-0.199197	-0.391960	0.318974	0.773996	0.052709	-0.376731	0.091842	-0.622268	0.079594	-0.664846	0.249918	-0.104083	-0.246281	-0.562440	-0.011046	0.138427	-0.230197	-0.456291	-0.428478	0.441432	0.451515	0.177394	-0.317108	0.488853	0.026340	0.328476	0.352040	0.299072	-0.338384	0.891570	-0.118723	0.373686	-0.512701	-0.236924	0.360313	-0.137828	0.348520	-0.315356	0.120282	0.189777	-0.003676	-0.231115	-0.035889	0.027924	-0.258392	0.010163	-0.074739	-0.005122	0.177039	-0.559759	-0.331453	0.174401	-0.155048	-0.367938	-0.342829	-0.580526	-0.380225	0.084307	-0.020976	-0.120145	-0.132751	-0.109011	-0.199460	-0.097883	0.225487	-0.297685	-0.454490	0.251639	-0.004754	0.001357	-0.212668	0.304295	-0.058786	-0.511423	0.191430	0.578887	0.386047	-0.140504	0.086821	-0.152697	-0.228340	-0.091149	-0.761882	0.508127	0.474888	0.152047	0.442038	-0.861719	-0.271581	-0.071871	-0.102111	-0.020465	-0.608120	0.632963	0.549351	0.073695	-0.304476	0.236319	0.049210	0.327497	-0.392007	0.071481	-0.526698	-0.527257	0.377238	0.764724	-0.327482	0.416442	-0.597911	0.330818	-0.381876	-0.315021	-0.272378	-0.006051	-0.660653	-0.101464	0.327627	-0.191089	-0.256447	0.308765	-1.057961	0.369863	0.070180	-0.643326	0.209407	-0.181956	0.423742	0.514827	-0.050689	-0.405024	-0.391776	-0.322899	0.348894	0.191418	-0.083799	
0.514619	-0.052416	-0.115108	0.267891	0.172379	-0.064084	0.043628	-0.248611	0.240237	0.678264	-0.051092	0.219955	0.158979	0.259309	-0.274592	0.542222	0.290282	0.514505	-0.350301	-0.315036	0.228942	0.287857	0.083216	0.046749	-0.357103	-0.281586	-0.282599	-0.017317	-0.100299	0.166061	0.000861	-0.136314	-0.349111	-0.212626	0.225991	0.150885	0.166911	0.133067	-0.116703	-0.026191	0.308307	0.441964	-0.416119	-0.084624	0.249014	-0.046830	-0.184565	0.072695	-0.229464	0.122044	0.171817	-0.215643	-0.404816	0.276780	-0.545915	-0.205749	-0.413061	-0.104200	-0.073608	-0.102484	0.317619	0.376314	-0.014661	0.302030	-0.277750	-0.123128	-0.087741	0.278177	-0.133074	0.059772	-0.126745	0.028796	0.432714	0.054307	-0.282138	0.103127	0.317150	0.086239	0.112017	-0.329838	-0.224911	-0.341942	-0.108601	-0.145006	-0.012452	-0.320484	0.190364	-0.134685	-0.013053	-0.185336	0.198863	-0.208141	-0.522031	0.322031	-0.247060	-0.146894	0.291355	0.081078	-0.191686	-0.218389	0.194995	-0.214645	0.448282	-0.076648	-0.341314	-0.173606	-0.544390	0.335992	0.202559	0.206391	-0.503371	0.422395	-0.352250	0.050855	-0.253621	0.094654	0.274229	0.344359	0.221792	-0.139159	-0.304439	0.212994	0.099964	-0.333805	-0.458396	0.184201	-0.101887	-0.555091	-0.047418	0.339137	-0.243134	-0.068174	0.001808	-0.285836	-0.335983	-0.312876	-0.192889	-0.178886	-0.192922	-0.205440	0.055257	-0.363841	-0.245750	-0.386573	-0.070860	-0.071864	0.137324	-0.179954	-0.114933	0.026738	0.029974	-0.203420	0.464072	-0.529260	0.038345	-0.062726	0.406993	-0.042769	-0.320100	-0.004631	-0.035954	-0.081569	-0.316024	0.428052	-0.171547	-0.125152	0.167135	0.004822	-0.274250	0.430578	0.419380	0.134217	-0.466303	0.323781	0.004989	-0.012626	-0.175481	0.121290	0.210320	0.037365	-0.153622	-0.195353	-0.309832	-0.492659	-0.023892	0.146585	0.033551	-0.298138	-0.143481	0.035587	0.176434	-0.481150	0.043088	-0.127591	-0.204546	-0.163791	0.161392	-0.136986	-0.056065	-0.118895	-0.105120	0.108271	0.298999	-0.483510	0.049434	-0.141205	0.189606	0.052817	-0.380578	0.184591	0.060539	-0.022337	0.373429	0.247728	-0.079394	0.063840	-0.082828	-0.305659	0.296129	-0.260640	-0.047541	-0.055386	-0.338157	-0.115436	-0.158994	0.170513	-0.034441	0.275933	-0.403418	-0.229858	-0.247138	-0.173072	0.129015	-0.061866	0.191528	-0.211569	0.323180	-0.065090	0.325987	-0.056382	0.160776	0.026096	0.140778	0.330836	-0.141078	-0.395187	-0.125431	-0.351425	-0.365975	-0.403079	-0.060274	0.057175	0.146377	0.032540	0.352803	0.195230	-0.304729	-0.108046	-0.120667	-0.116291	-0.300772	0.096221	0.059785	0.310131	-0.421868	0.498921	-0.516253	0.015473	-0.246041	0.421330	-0.336705	-0.161581	-0.325467	0.098845	0.404541	0.412525	0.092514	-0.244931	-0.380111	-0.119506	0.130090	-0.212743	0.191912	0.219603	0.416165	0.227188	-0.007707	0.335199	-0.317962	0.250277	-0.236410	-0.036664	0.037942	0.008188	-0.161716	0.419941	-0.103322	0.144486	-0.130600	0.284133	
-0.379056	0.068210	-0.039079	0.423718	-0.445310	0.352344	0.278654	-0.388265	0.168277	-0.111178	-0.141882	-0.302477	0.484972	-0.432384	-0.238898	0.398671	0.389892	-0.129245	-0.661889	0.414473	-0.199120	-0.585360	-0.288316	0.643056	-0.273627	-0.175055	0.309236	0.040279	-0.762941	-0.428211	0.322728	-0.282798	0.227691	-0.295645	-0.511162	0.498151	-0.330807	0.317378	-0.411910	0.510138	0.174378	-0.200999	-0.384525	0.388351	0.436761	-0.349012	-0.469413	0.387734	0.252630	0.260349	-0.040208	-0.388215	-0.263675	0.562252	-0.065475	-0.214456	0.289008	-0.830541	0.338357	0.267624	-0.182412	-0.211530	0.260327	0.429014	0.310377	-0.234747	0.042005	0.327357	-0.487150	0.281501	0.194791	0.178786	-0.071459	0.315749	-0.259229	-0.669713	0.162094	0.404394	0.226342	0.248470	-0.095362	-0.105123	-0.025187	-0.365744	-0.556191	0.713315	0.113932	0.100112	0.513612	0.521193	-0.088857	0.352191	-0.318545	-0.332023	0.009995	0.605940	0.315391	-0.322840	0.209672	0.043962	0.498709	0.170477	0.076899	-0.042313	-0.561033	0.231888	-0.412493	-0.228393	-0.009724	0.310452	0.136618	-0.479277	-0.178666	-0.087565	-0.009117	-0.520770	-0.054556	-0.288746	0.429446	0.113133	0.298468	-0.328147	-0.380522	-0.301833	-0.117274	0.450811	0.368771	-0.509102	0.026872	-0.004981	-0.098938	-0.358051	0.779316	0.409018	-0.271030	0.541946	0.003944	0.168402	-0.586002	-0.161708	-0.091694	-0.112743	-0.170938	0.189116	-0.265908	0.700467	0.552046	0.004870	-0.283256	0.057188	-0.498023	-0.188356	0.489756	-0.064755	-0.448225	-0.011034	-0.028725	-0.282706	-0.229396	-0.122042	-0.117947	0.163243	-0.020440	-0.560428	0.686160	-0.298626	-0.487781	-0.026254	0.480132	-0.468218	0.026665	0.161855	0.253828	0.391216	-0.708730	-0.213324	0.386634	0.119781	0.547122	0.461045	0.108388	-0.440807	-0.541781	-0.145210	0.124829	-0.320713	-0.371179	0.390625	-0.202007	0.194942	-0.131432	0.205705	0.243674	-0.182781	0.357766	-0.216952	0.051086	-0.432597	0.163772	0.115217	-0.416394	0.222120	0.255754	-0.495845	0.569844	-0.251371	-0.278906	0.056561	-0.633595	-0.153464	-0.036278	0.221081	-0.152740	0.248903	-0.096769	0.201547	0.429555	-0.287156	0.116257	-0.536778	0.208498	-0.226085	0.576880	0.115742	-0.004727	0.089199	0.237527	-0.073077	0.443556	0.033101	0.488792	-0.365501	0.048535	0.472680	-0.302648	0.233564	0.452699	-0.146526	-0.787025	0.216509	0.658595	0.083988	0.147130	0.566803	-0.453158	-0.709983	0.414697	0.208699	0.114599	0.243625	-0.758497	-0.083360	-0.968126	0.490491	0.162986	-0.664073	0.065697	-0.292589	-0.363966	0.113983	-0.524193	-0.264788	-0.256238	-0.160001	-0.074886	-0.035247	-0.357538	-0.712400	-0.631925	-0.212498	0.833197	-0.026882	-0.496193	0.065581	0.295852	-0.325702	-0.338923	0.069240	-0.175055	-0.766510	-0.155755	0.004619	0.134531	0.133418	-0.365087	-0.541153	0.207823	0.155217	-0.000995	-0.380106	-0.089094	0.698819	0.039656	0.614194	-0.091330	-0.214931	0.251812	-0.266014	0.072364	0.341137	
0.313295	-0.058241	-0.107279	0.312401	0.001705	0.066050	0.278692	-0.469965	-0.221284	0.107654	-0.174753	-0.139357	-0.084577	0.136200	-0.471021	-0.007484	-0.606228	0.421152	-0.332206	0.220253	0.080690	0.108497	0.519377	-0.458788	0.140961	0.090502	0.182878	0.103968	-0.161161	-0.019068	-0.309999	0.351280	0.241058	0.244014	0.129178	-0.596169	0.188127	0.201627	-0.228407	0.039318	0.287344	-0.137674	0.311491	-0.375119	-0.108907	0.429426	0.341678	-0.358422	0.109212	-0.530334	-0.053328	-0.091663	0.325765	0.202292	-0.099989	-0.044542	0.170967	-0.070844	0.145009	-0.432900	0.230993	0.428831	-0.536764	0.376577	0.004844	0.084625	0.049715	-0.083037	-0.111076	0.166484	0.017749	-0.304536	-0.055827	-0.186862	-0.191464	-0.264859	-0.400323	-0.466996	0.592971	0.260706	-0.110679	0.243085	-0.144057	0.299582	0.486708	0.276306	-0.211070	0.249692	-0.017183	-0.059428	0.191143	-0.044700	0.272333	0.097385	0.015834	-0.022961	0.004733	-0.316189	-0.065827	0.229304	-0.102193	-0.012134	-0.137384	-0.287846	0.393572	-0.090242	-0.085077	0.271951	0.054169	-0.533007	0.127995	0.244766	-0.169268	0.527904	0.278318	0.294109	0.230406	-0.392119	0.021280	0.063300	-0.243494	0.021661	-0.318915	-0.397064	-0.072910	0.263800	0.214647	-0.273377	-0.446557	-0.003306	-0.043413	-0.095256	0.374894	-0.153995	-0.124278	0.049228	0.079278	-0.414461	-0.046856	-0.316447	-0.290900	-0.615912	-0.540921	-0.100968	0.172869	0.344964	-0.208959	0.263897	-0.243987	0.145833	-0.230365	-0.180377	-0.337804	-0.103490	-0.115839	-0.122879	-0.006291	0.165868	0.195921	0.500125	-0.301947	0.397106	0.245682	0.715570	0.369188	-0.192620	-0.277790	-0.106996	-0.011957	0.352264	0.399439	0.085825	0.143124	0.483548	-0.074211	0.073228	0.353814	0.027910	-0.004177	0.111849	0.030581	0.184765	-0.192094	0.162153	-0.227323	-0.077153	0.426034	-0.011158	0.167100	-0.063009	-0.041515	-0.047647	0.093520	-0.118169	-0.279352	-0.243692	0.201875	0.153476	0.045486	-0.223858	-0.148035	0.247581	-0.079556	0.407484	-0.082172	-0.143640	0.143101	0.056749	-0.319080	-0.402741	0.155184	0.202212	0.233669	0.118296	-0.121162	0.005871	-0.233222	0.094860	0.117642	0.185310	-0.469271	0.104471	0.311570	-0.116807	0.344212	-0.008808	0.043782	0.252440	0.162529	0.004749	0.271758	-0.469188	-0.019668	0.289769	0.697721	-0.328828	-0.206273	0.027693	0.114370	0.405955	-0.007695	-0.082797	-0.017866	-0.431112	0.444172	0.346677	0.275709	-0.587158	0.011271	-0.248040	0.129692	0.077818	0.538163	-0.065771	0.255324	0.227658	0.329594	0.021559	-0.090713	0.160329	-0.302143	0.029426	0.152900	-0.073957	-0.208883	0.205374	-0.130402	0.202421	-0.300517	-0.228042	-0.466556	0.081334	-0.220306	-0.157925	0.071367	0.159585	0.100940	0.251720	-0.014409	-0.425581	0.288519	-0.237185	-0.020154	-0.131423	0.142056	0.154910	0.312148	-0.117389	-0.368346	-0.266355	0.059333	-0.110044	0.074004	-0.389685	-0.040504	0.606186	0.242518	-0.237337	0.037681	0.482060	
-0.423754	-0.350812	0.040763	0.253367	-0.553760	0.430743	0.035858	-0.132373	0.086038	-0.529890	-0.153213	0.712923	0.072292	-0.362055	-0.432942	0.119466	0.286785	-0.617508	-0.488513	0.257481	-0.340369	-0.207032	-0.832206	0.561637	0.140493	-0.306121	-0.101980	-0.481605	-0.189055	-0.440972	0.266128	0.186215	0.302801	-0.679568	0.079852	0.151829	0.058785	-0.336330	-0.399961	-0.011056	0.002308	-0.084315	-0.235433	-0.264980	0.449285	-0.062146	-0.192063	0.363908	-0.118808	0.099076	-0.283442	0.195502	-0.447843	0.124066	0.484366	0.197660	0.403949	-0.483945	0.486137	0.165796	-0.278162	-0.184747	-0.393925	0.402664	-0.036142	-0.346494	0.254134	0.587435	-0.256900	0.403493	-0.374840	0.304627	0.020392	0.225082	0.158187	-0.331396	-0.383419	0.008165	-0.192528	0.143942	0.447395	0.181110	-0.257639	-0.147776	0.429305	-0.400412	-0.197698	0.438358	0.117506	0.221000	-0.025620	0.243422	0.101460	0.125754	0.171909	0.404321	0.539825	0.043229	0.068418	-0.254170	-0.192014	0.727002	-0.201341	0.124071	-0.349604	0.383480	-0.390228	0.179115	-0.353111	-0.344968	-0.026208	0.353005	0.300215	-0.456837	0.101105	0.098668	-0.365538	-0.382748	-0.111093	0.212310	-0.524411	0.180163	-0.536998	0.306619	0.157469	-0.471056	-0.348120	-0.152663	-0.045095	0.091974	0.078173	0.220962	0.234833	0.251854	-0.423483	0.276383	-0.114128	-0.160723	-0.213457	0.104099	-0.089597	-0.882647	-0.081860	-0.310643	-0.350367	0.266898	0.081264	-0.082548	-0.200362	0.287337	0.228681	-0.115169	0.149825	0.352432	-0.381691	-0.099016	0.261302	0.338211	-0.023345	-0.200461	0.051954	-0.712011	0.266196	-0.833789	0.559926	-0.369490	0.284536	-0.285277	0.132565	-0.507385	0.299247	-0.214852	-0.367448	0.078124	-0.433814	-0.209356	0.302971	-0.234680	0.118527	-0.366549	0.016977	-0.369491	0.213106	-0.332909	-0.243785	0.104012	-0.150259	-0.413260	-0.078352	0.368293	-0.054590	0.219761	0.588855	-0.356451	0.883032	-0.105684	0.190529	0.115425	-0.181515	-0.162346	0.287211	-0.337493	-0.302144	-0.305533	0.269837	0.160979	0.042755	-0.078175	-0.628534	0.612481	-0.219558	0.144579	-0.336241	0.530379	0.206984	-0.418562	0.219139	0.382245	-0.068934	0.176930	0.137111	0.163632	0.649700	0.325793	-0.143242	0.170689	0.074744	-0.287401	-0.031756	-0.100114	-0.020265	-0.429427	0.081752	0.621369	-0.315082	-0.423013	-0.100377	0.256725	-0.672104	-0.183827	0.482489	0.315798	-0.307752	0.291888	-0.132484	-0.355743	-0.161800	-0.374191	0.313214	0.160754	-0.454856	-0.121222	-0.276877	0.511995	-0.327256	-0.210501	-0.110251	0.004065	0.287228	0.189386	-0.306176	-0.141200	-0.652388	0.543315	0.016341	-0.056476	-0.380243	-0.244701	-0.585623	-0.220155	0.538238	-0.641630	-0.458005	-0.679182	-0.383596	0.073255	-0.229245	-0.382995	0.712423	-0.063361	0.439669	-0.121227	0.330369	-0.079304	0.286048	-0.286324	-0.134860	-0.014347	-0.845852	-0.236773	-0.122111	0.279265	0.347763	-0.244086	-0.026760	0.310229	0.202863	-0.012039	-0.209542	0.446070	
0.443813	-0.236699	0.224420	-0.138382	0.105113	-0.308639	0.221458	-0.151019	-0.361455	0.254008	0.151413	-0.047756	0.138769	0.180383	0.152904	-0.122528	-0.706565	-0.402779	-0.531910	-0.398192	-0.296620	-0.169870	0.327971	-0.582651	0.159809	-0.568453	0.458452	0.157803	-0.094443	0.055073	-0.073501	0.209584	0.272221	-0.255722	0.088329	-0.193825	-0.005179	-0.087660	0.101784	0.141053	0.020150	-0.139276	0.400189	0.116581	-0.403797	0.210012	0.002292	-0.214662	0.301133	0.174134	-0.448096	0.377830	-0.318150	0.089965	-0.323739	0.209479	0.294546	-0.425551	-0.528188	-0.112515	0.086605	-0.065140	0.113935	0.077240	-0.202509	0.108833	0.030358	0.326453	0.123182	-0.336634	-0.134067	-0.356485	0.091616	0.028982	0.271303	-0.203934	0.442474	0.017650	0.126309	0.084190	-0.146151	0.167949	0.094899	-0.148016	-0.163082	0.036171	0.351855	0.179765	0.112839	-0.072712	-0.219921	-0.051416	-0.221779	-0.030892	-0.399964	0.332759	0.063705	0.148920	0.403130	-0.156835	0.568561	-0.070464	-0.103861	0.014425	0.443384	-0.463374	-0.124472	0.389025	0.295995	-0.361307	-0.181143	0.434137	0.399096	0.366036	-0.239052	-0.492151	-0.209057	-0.296721	-0.408210	0.397620	-0.220268	-0.139059	-0.154921	0.053393	-0.509286	0.015852	-0.391100	-0.317635	0.014637	0.337162	-0.097959	-0.071199	0.729180	-0.003074	0.003183	0.480256	0.050920	0.233348	0.431838	-0.182648	0.106939	-0.282401	-0.403204	0.093642	-0.226988	0.126185	0.408544	-0.111309	0.214733	0.198327	0.084804	0.157128	-0.539988	0.170813	-0.232669	-0.053888	-0.045198	0.314570	0.154956	-0.253214	0.079891	0.323022	-0.150794	-0.036300	0.074246	-0.180208	-0.146636	-0.374367	0.064766	-0.100956	0.027704	0.188367	-0.000309	0.153171	0.004908	0.241644	-0.227015	0.013763	-0.191577	0.135617	-0.085886	-0.166250	-0.112212	0.109073	-0.290620	0.406249	0.308884	-0.086549	-0.080330	-0.147718	0.056709	0.387367	-0.232824	-0.261443	-0.330131	0.327969	0.164794	0.066954	-0.067665	-0.139637	0.125009	0.229645	-0.136196	-0.520266	0.151056	0.404457	0.110877	-0.063722	-0.069484	0.251335	-0.079654	0.259756	-0.193848	0.489611	-0.019634	-0.194238	0.197398	-0.183656	0.408982	-0.263151	0.122507	0.073476	-0.190115	0.148991	-0.250259	-0.148025	-0.418852	-0.402506	0.093146	0.061919	-0.057584	0.086232	-0.040224	0.043566	0.217956	0.282998	-0.317619	-0.312349	-0.164765	0.311461	-0.119141	0.403475	0.154608	-0.254551	0.106359	-0.395236	-0.177489	-0.123536	0.071171	-0.505785	0.130912	-0.068070	0.266236	0.229865	0.415837	0.127676	-0.037951	-0.264544	0.318963	-0.246736	0.114820	-0.015727	0.163583	-0.342945	0.240658	0.088046	0.362453	-0.398421	-0.361985	-0.224090	-0.014718	-0.152672	-0.178529	-0.268888	-0.050744	0.278061	-0.303704	0.200390	0.054058	0.407070	-0.082167	0.262206	0.349300	-0.052091	0.202316	0.492093	-0.410384	-0.346736	-0.458840	0.104908	0.078548	0.370278	-0.240334	-0.400735	0.321457	-0.206901	0.095720	0.164905	-0.301268	0.377864	
-0.655902	0.086885	-0.482733	-0.147907	-0.663546	0.431596	-0.536084	-0.431693	0.112697	-0.444591	0.129560	-0.398983	-0.321384	0.098753	-0.114548	0.020378	0.313234	-0.256152	-0.759135	0.405636	-0.292643	0.119767	-0.241457	0.277935	-0.256728	-0.225030	-0.021917	0.205994	-0.506577	0.207558	0.356286	-0.210351	0.168160	0.004581	-0.126874	0.167500	-0.726822	0.039481	0.516161	0.353334	0.411368	-0.127014	0.182343	-0.261336	0.103794	-0.261528	-0.482846	0.036750	0.169533	0.034532	-0.175308	0.296358	-0.091079	0.527960	0.017421	0.168609	0.208014	0.002186	-0.362570	0.395954	0.276924	0.087225	-0.282603	-0.076074	-0.249199	0.117018	0.254155	0.145977	-0.160997	0.072680	-0.417665	-0.493002	-0.553133	-0.166881	-0.520979	-0.041715	0.024735	-0.046068	-0.192053	-0.215939	0.383212	0.155283	-0.361778	-0.650337	-0.082906	0.348234	-0.049132	0.195870	0.095557	0.563706	0.134232	-0.069684	0.025919	0.289308	-0.280876	0.323402	0.025497	0.714613	0.330265	0.175022	0.032382	0.039079	0.347216	-0.183040	-0.146510	0.309679	-0.339724	-0.350365	-0.441654	0.175583	-0.120973	0.303651	0.261930	0.187453	-0.430186	-0.081242	-0.002732	-0.096426	-0.300248	-0.049239	-0.316485	0.136822	-0.360688	0.290781	0.045465	0.154991	-0.139642	0.144052	0.164113	-0.248243	-0.134869	-0.310271	0.240647	-0.268597	-0.234396	0.062835	0.117880	0.248922	-0.084234	-0.379321	-0.490625	-0.758938	-0.374485	0.301894	0.207248	0.054940	-0.346165	-0.146490	0.273165	-0.025085	0.160372	-0.230300	0.366447	0.277850	-0.486113	0.149874	0.185957	-0.133119	-0.205889	-0.534824	0.163407	-0.572739	-0.476277	-0.263549	-0.022308	0.273443	0.079838	-0.414046	-0.163349	-0.517449	-0.294661	0.367336	-0.301520	-0.232010	-0.197486	-0.228898	-0.021596	-0.200148	-0.123872	-0.031936	-0.430596	-0.456409	-0.146340	-0.457677	0.328968	-0.050894	0.072100	-0.128102	0.277003	0.010198	0.111574	-0.115652	0.456857	0.120124	0.528581	-0.470206	0.122240	-0.412224	-0.036732	-0.132369	-0.174863	0.169287	-0.258889	0.078806	-0.078725	0.293086	0.228606	0.286408	-0.411184	-0.156293	0.280636	0.184794	-0.038135	0.025673	-0.155089	-0.193768	0.482787	-0.399135	0.080385	-0.197854	-0.166071	-0.265887	0.425662	-0.122356	-0.172036	0.080958	0.152821	0.395186	0.045960	-0.444690	-0.099682	0.549808	0.464320	0.156924	-0.300845	-0.390249	0.410400	-0.358480	-0.135324	0.071721	0.294499	0.289512	0.277806	-0.555795	-0.613904	-0.281346	-0.046765	0.240435	0.128597	-0.193140	-0.240108	-0.410141	-0.177499	-0.064782	-0.019240	0.050902	0.128370	0.245454	0.393477	0.099402	0.159203	-0.126890	-0.379303	0.237003	0.345127	0.264436	0.390297	-0.150892	-0.785731	0.118473	0.508711	-0.034833	-0.005168	0.368306	0.051730	-0.016234	-0.397937	-0.244492	0.187285	0.395686	0.175241	0.306936	-0.465546	-0.506165	0.471905	0.008100	-0.402144	-0.049171	-0.515042	-0.577305	0.274703	0.131380	-0.021309	-0.413005	-0.063977	0.174153	-0.263213	-0.360512	-0.099311	-0.189964	
-0.450332	-0.009368	0.162038	0.068862	-0.178251	0.133191	-0.028025	0.209054	0.004045	-0.157843	0.172224	0.031463	-0.184357	0.092779	-0.006571	-0.447599	-0.459048	-0.086750	0.282660	0.005113	-0.169870	0.046131	0.393242	-0.011325	0.278269	-0.578091	-0.190429	-0.110844	-0.268060	0.194061	-0.301375	-0.021922	-0.450809	0.267055	0.349306	-0.427700	0.312039	-0.361792	0.026597	-0.036672	0.377498	-0.223591	-0.246003	0.284370	-0.418169	0.071433	-0.378444	-0.351788	0.065500	0.189414	0.028785	0.067890	0.060815	0.023011	-0.353885	-0.022513	0.187485	-0.081108	-0.295209	-0.287173	-0.235570	0.169730	-0.411185	0.398624	0.326011	0.299905	0.124467	-0.235059	-0.021869	0.035775	-0.075673	-0.318478	-0.277591	0.545592	-0.409182	-0.254733	0.439196	-0.027880	-0.075731	0.445418	-0.405313	-0.043996	-0.040332	-0.061122	0.142827	-0.046939	0.429154	0.178660	0.245855	0.036355	0.424636	-0.407461	0.362260	-0.378870	0.020481	0.332520	0.304669	-0.089864	0.117113	-0.009518	0.035133	-0.501424	0.039746	-0.573744	-0.336149	0.236906	-0.551456	0.194608	-0.219092	-0.424910	0.342341	-0.068130	-0.204638	0.117185	0.270018	-0.316393	-0.441864	0.233134	-0.266988	0.197204	-0.194897	-0.212672	-0.011683	-0.373329	0.060696	-0.414379	0.114699	-0.263538	0.048211	-0.019904	-0.226312	-0.046046	0.288129	0.278907	0.046307	0.034119	-0.019191	0.371060	0.058481	-0.468556	-0.499868	-0.318597	-0.342003	-0.460576	-0.018280	0.050560	-0.131355	0.238851	-0.005866	-0.120796	0.059346	-0.115028	0.130044	0.325799	0.049802	0.288877	-0.315598	-0.249377	0.383803	0.231515	0.167411	0.716820	-0.174153	0.002371	0.176834	-0.529356	0.199739	-0.142340	-0.086723	-0.274810	0.080924	0.121961	-0.266191	0.431722	0.310934	0.278246	-0.214378	-0.228728	-0.120642	-0.549935	0.192818	0.081503	-0.042640	0.182847	-0.128495	0.359733	-0.386522	-0.228140	-0.001931	-0.235797	-0.136111	0.164178	0.490984	0.135318	0.023349	0.527338	0.300886	0.111680	-0.439512	-0.098333	0.154722	0.229390	-0.175493	0.028168	0.062611	-0.363043	-0.053486	0.056383	0.198810	0.153615	-0.040944	-0.115765	0.098983	0.490741	-0.364790	0.122686	0.213845	-0.295098	-0.110602	0.349160	-0.486652	0.048344	-0.047311	-0.232800	-0.365695	-0.089800	0.358645	0.195912	0.208595	-0.235811	0.472050	-0.051497	0.271183	-0.399927	-0.088146	-0.326345	-0.135909	0.203020	0.268237	0.196965	0.050549	0.012922	-0.301571	-0.371061	-0.214118	-0.099148	0.360993	-0.522716	0.021389	-0.354270	0.477288	0.021291	0.307697	-0.305123	0.418005	0.172499	0.246552	0.406528	-0.352464	0.185960	-0.392245	0.140217	-0.488486	0.319535	0.242766	0.108711	-0.297857	-0.512467	0.068506	-0.365103	0.403328	0.174525	0.083346	-0.201296	-0.067768	-0.322592	-0.014183	0.028985	-0.286531	-0.064674	0.103658	-0.276743	-0.309031	0.124686	0.153356	0.410122	-0.099084	-0.322510	0.156478	0.300168	0.380391	0.398761	-0.035368	0.090521	0.322793	0.484896	-0.213905	0.444433	0.342210	-0.110183	
-0.411298	0.155764	-0.172077	0.328907	-0.581888	-0.050855	0.050133	-0.135816	0.062661	0.270302	-0.511843	0.150052	-0.345445	-0.263846	-0.366040	0.402494	-0.343914	-0.272989	-0.224281	0.266178	-0.225942	-0.079642	-0.135157	0.255673	-0.023644	-0.083360	-0.314220	-0.130154	-0.250463	-0.445603	0.729046	-0.087658	0.697335	-0.102893	-0.401328	-0.342559	-0.375181	0.521575	0.281423	-0.028091	0.403293	0.101773	-0.404484	0.522732	-0.184474	-0.319785	-0.100723	-0.353053	0.117079	-0.121714	-0.106927	0.280830	0.315027	0.635114	-0.130318	-0.016570	0.135772	-0.305213	-0.270306	0.368067	0.112739	-0.547534	-0.147293	0.134463	-0.025165	0.301908	0.188576	-0.118482	0.210916	0.075006	0.016253	-0.295445	-0.131489	0.376675	-0.332151	-0.172100	0.140336	0.535978	0.125711	-0.188238	-0.212596	0.293119	-0.415952	-0.567119	-0.037463	0.145109	-0.248014	-0.220267	0.008772	0.503179	-0.523146	-0.238954	0.364284	-0.116940	0.155754	-0.083114	-0.247486	0.219176	-0.164046	0.426499	0.533014	0.153638	-0.233704	0.232875	-0.438021	0.128859	0.398882	-0.237897	-0.050043	0.449032	0.106708	-0.476099	0.174400	0.190142	-0.432107	-0.175672	-0.217688	-0.150297	-0.062682	0.422168	-0.282243	0.076006	-0.607337	-0.123086	0.410078	0.255744	-0.038730	0.233719	-0.032593	-0.361923	0.088681	0.108012	0.344025	0.602261	-0.252107	-0.131392	-0.056849	-0.021287	-0.287430	-0.185187	-0.295227	-0.649357	0.093332	0.170439	0.348589	0.546162	0.316556	-0.302254	0.183968	-0.020220	0.478063	-0.431277	0.138916	0.360234	-0.253873	0.295953	0.332054	0.503145	-0.164631	-0.542578	-0.177445	-0.686645	-0.367659	0.148213	-0.290054	0.264554	0.386826	-0.478275	-0.284325	-0.306389	-0.014717	0.083229	-0.080547	-0.577554	-0.265098	-0.134497	0.375797	-0.589763	-0.137564	0.282983	0.148431	-0.254819	-0.102114	0.145526	-0.261081	0.271565	-0.101277	-0.711019	0.108725	0.513679	0.024765	0.417259	-0.121163	0.177522	0.552906	0.089367	0.008465	0.079844	-0.020078	-0.415357	0.213226	-0.687154	0.183297	-0.023541	-0.006196	0.496389	0.168968	-0.086056	-0.552908	-0.252816	0.010523	-0.341860	-0.056355	-0.371559	-0.269908	0.137711	0.495314	0.351280	0.215315	0.015418	0.126253	-0.310915	0.366660	0.213843	0.258142	0.041587	-0.116660	-0.032399	-0.590753	0.113431	0.259549	-0.393839	0.233810	0.034791	-0.162679	-0.361209	-0.234335	-0.218756	-0.766363	-0.158644	0.078219	0.342403	-0.031967	0.166749	0.204349	-0.156285	0.016653	0.055386	0.549815	-0.227337	-0.025653	0.217269	-0.229376	-0.099298	0.133157	0.164740	0.019456	0.154519	-0.174219	0.166646	-0.087417	0.346397	0.072886	-0.114435	-0.189891	-0.158771	0.089562	-0.350790	-0.599172	-0.071233	0.500935	0.173899	-0.184401	0.105401	-0.136558	-0.507016	-0.146394	0.270756	0.420868	-0.024584	-0.010146	0.181203	-0.456242	0.182889	0.119345	0.077702	0.036647	-0.209143	-0.510500	0.072465	0.231678	-0.186948	-0.091905	0.001086	-0.228724	-0.362478	0.215946	0.353581	0.400123	-0.266080	
0.335054	0.080697	0.159667	0.407073	0.093613	-0.197406	-0.379692	-0.058995	-0.365824	-0.462794	0.195178	0.046608	0.027380	-0.253048	0.014999	-0.089465	0.078366	-0.063900	0.329713	-0.235283	-0.111603	0.077076	0.235216	0.148665	-0.235894	0.054480	-0.091052	0.576512	0.082663	0.029772	0.459849	-0.177854	-0.208139	0.149704	-0.066609	0.090538	0.335106	0.037756	0.121081	0.310872	-0.028900	0.037593	-0.483623	-0.513510	0.067540	-0.103531	-0.111983	-0.066360	-0.061079	0.344485	0.117086	0.212192	-0.106734	0.079622	0.112745	0.315932	0.326374	-0.497736	0.275451	-0.188516	0.111048	-0.093579	0.142896	0.593979	-0.087295	-0.123022	-0.231369	0.335444	0.014929	-0.217232	0.228807	-0.240098	0.039719	0.467527	-0.505391	-0.132555	-0.147174	0.005691	0.114840	0.011065	-0.172185	0.082988	-0.044132	0.102396	0.395377	-0.273899	-0.200539	-0.089836	0.213803	0.611309	0.245564	0.323154	-0.088330	0.348274	0.102953	0.130775	0.293362	-0.151374	0.067233	0.026759	-0.132246	-0.391562	0.156423	-0.338372	-0.148085	0.062488	-0.430352	-0.217494	-0.207776	0.205789	-0.370998	0.163214	0.216423	0.267491	-0.290412	-0.025284	0.164932	0.046953	0.441729	0.047352	0.072499	0.138386	-0.377663	0.192584	-0.044673	-0.065113	-0.088563	-0.133282	-0.255338	0.260997	0.372083	0.007218	0.570916	0.314591	-0.003444	0.545186	-0.283779	0.435151	-0.093334	-0.169795	-0.062793	-0.103616	0.127728	0.006944	0.431482	0.393322	-0.026371	-0.006788	0.148235	-0.313759	0.305371	0.390701	-0.342723	-0.521732	0.397792	0.093177	0.274645	-0.280314	-0.227765	-0.009456	0.109128	-0.056855	0.083600	0.225873	0.023265	-0.308904	0.187853	0.340372	-0.411561	-0.479205	-0.219302	-0.464466	-0.024426	-0.465451	0.301204	-0.102210	0.590406	-0.112595	-0.259812	-0.141766	0.235830	-0.340916	-0.367550	0.190731	-0.352543	-0.253112	0.175025	-0.384855	-0.147248	0.287775	-0.273676	-0.464301	0.350361	0.315240	0.020943	-0.247778	0.627207	0.067299	-0.287587	-0.250495	-0.169385	0.228868	-0.286777	0.032544	0.277154	-0.261246	-0.193807	0.215143	-0.203774	0.082407	0.340001	-0.446441	-0.099529	-0.215236	0.354321	-0.032269	0.056618	-0.000087	0.166477	0.160792	-0.575046	-0.002626	0.127291	0.240381	0.192501	-0.133133	-0.465571	0.243808	0.120782	-0.135245	0.327744	-0.093080	0.131686	-0.423460	-0.059054	-0.283372	-0.457480	0.220210	-0.004751	0.406548	-0.175043	-0.056257	-0.016892	0.114838	0.080365	-0.146974	-0.079509	-0.399312	0.065250	-0.349488	0.370221	0.194119	0.015171	-0.015710	0.081676	0.091690	0.426891	0.046105	-0.005177	0.325358	0.000029	0.032652	-0.209969	-0.259172	-0.025699	0.273012	-0.168494	-0.006070	-0.461674	0.401285	0.134435	0.177623	-0.275790	-0.061893	-0.349213	-0.222159	0.253253	0.176603	0.120764	0.098365	-0.153469	-0.339122	-0.218385	-0.254544	-0.027260	0.216110	0.422936	0.059578	-0.001319	-0.184483	0.088332	-0.249696	0.204628	0.065570	0.355906	0.401883	-0.004762	0.444876	-0.296261	0.428976	
0.428600	-0.366597	-0.176579	-0.220953	-0.018152	0.595027	-0.396054	-0.161474	-0.223257	0.149856	-0.180446	0.250926	0.363037	0.278193	0.224813	-0.058274	0.086063	0.392069	-0.046117	-0.106404	-0.320654	-0.381157	-0.360574	0.396757	0.262357	-0.387298	-0.059727	-0.439648	0.003011	0.120054	0.045052	0.148343	0.559180	-0.171636	-0.311319	-0.190027	-0.585846	0.054939	-0.126249	0.358150	-0.145710	-0.042081	-0.080914	-0.272134	-0.050011	-0.016550	-0.307349	-0.159846	-0.166922	-0.497735	0.051316	-0.084096	-0.249047	0.332694	-0.359288	-0.094680	0.890552	-0.034242	0.223066	0.471876	0.106087	0.026082	-0.060013	0.157478	0.416203	0.464621	-0.381411	-0.107174	-0.277658	0.171125	0.258869	0.252121	0.187899	-0.119302	-0.515991	0.006964	0.273311	-0.044114	0.030867	-0.336931	-0.024567	-0.177127	-0.187364	0.123139	-0.486425	0.411948	-0.408058	-0.433695	0.077201	0.353812	0.358063	-0.171976	-0.115246	0.013565	-0.288803	0.028281	0.391690	0.266494	-0.328869	-0.214216	0.245585	-0.466438	-0.235986	-0.146275	-0.263115	-0.381575	-0.445029	-0.104522	0.023900	0.030924	0.033875	-0.437847	0.189328	-0.087533	-0.251515	-0.301495	0.570917	-0.278629	-0.001476	0.250516	-0.258360	0.013636	-0.155830	0.338428	0.213123	-0.310753	0.459296	-0.085598	0.376302	-0.236706	0.237013	0.242537	0.185551	0.293651	-0.027629	-0.069103	-0.563885	-0.436658	-0.238086	0.023651	-0.281379	-0.442383	-0.028145	-0.278476	-0.072476	0.020141	-0.065675	0.197574	-0.183372	0.377430	0.401001	-0.252774	0.432620	-0.131054	0.277410	0.421690	0.084860	0.267704	-0.064326	-0.617733	-0.504530	-0.537446	-0.137978	0.029030	-0.435231	-0.513092	-0.102123	-0.303637	-0.160491	-0.359650	0.072931	0.248551	-0.150963	0.233355	-0.964347	-0.015161	0.491827	-0.150247	0.275704	-0.351757	-0.327226	0.224674	-0.056342	0.519379	-0.166913	-0.054184	0.363044	0.177569	0.001187	-0.109008	0.110483	-0.159836	-0.263875	-0.276205	0.044305	0.122901	0.124019	-0.214492	0.099529	0.312201	-0.297665	-0.013258	0.109747	-0.209307	0.221600	0.206942	-0.460658	0.166793	-0.520297	-0.125679	0.271608	-0.224595	0.307377	-0.037914	-0.607775	-0.179516	0.004031	0.433548	-0.553887	-0.044755	-0.465406	-0.469490	0.402123	0.364296	-0.240284	0.179443	-0.396437	0.448146	0.154119	0.187632	0.373172	-0.049420	-0.067512	0.030716	0.439573	0.410715	0.372380	-0.256769	-0.426885	0.466199	-0.103183	-0.188547	-0.611330	-0.437017	-0.265874	-0.281964	0.024819	-0.184249	-0.336527	0.028793	-0.534523	-0.274129	-0.404118	0.437846	0.453993	-0.400384	0.001988	-0.060884	-0.408656	-0.020289	-0.067057	0.506260	-0.073317	-0.386131	-0.339534	0.261635	0.462615	-0.406651	-0.282342	-0.153378	0.488741	0.180499	0.065168	0.259598	-0.497026	0.146600	-0.359843	0.146429	-0.089168	-0.352924	0.062027	0.002069	-0.261434	0.223131	-0.014257	-0.472444	0.390302	-0.060098	0.032576	0.338661	-0.452361	0.144145	0.402426	0.318160	0.034299	-0.285044	0.134550	0.084933	-0.220162	0.700261	
0.411513	-0.182147	-0.026437	0.022123	0.402440	0.355011	-0.121719	-0.227370	-0.029750	0.545230	-0.184918	0.231167	0.017084	0.043839	-0.190698	-0.014972	-0.082803	-0.208462	0.124033	0.044761	-0.316962	0.222770	-0.287027	-0.017478	0.127907	0.130749	-0.658445	0.567751	-0.299916	-0.166009	0.318505	-0.309522	-0.110666	0.221597	0.058016	-0.054475	-0.081602	-0.520225	-0.157735	-0.017110	0.481823	0.101282	0.055843	-0.470268	0.175260	0.286811	0.460152	-0.139557	-0.174049	-0.029516	0.659672	0.063868	0.409071	-0.116495	0.125068	-0.105154	0.064781	-0.136174	-0.190070	0.102466	0.432697	-0.273374	0.098794	0.685266	0.182800	0.121988	0.268421	0.070433	0.021534	-0.327746	-0.217304	-0.269975	-0.321831	-0.431935	0.166834	-0.175393	-0.446830	0.087005	0.069896	-0.128355	-0.066455	-0.228448	0.303814	0.407089	0.295640	-0.019720	0.291360	-0.106662	0.415561	-0.077353	0.318937	-0.004312	-0.023734	0.050949	-0.083057	-0.131667	-0.636983	0.044582	0.172154	0.147888	-0.031502	-0.150800	0.172761	-0.097160	-0.049246	-0.166957	-0.133027	-0.006165	0.035167	-0.394224	0.503602	0.258834	0.256430	0.098278	-0.332903	-0.177944	0.018728	-0.033835	-0.081802	0.271961	0.036874	0.204328	-0.255345	0.087825	-0.124851	-0.010352	-0.345125	-0.295878	0.446395	0.416155	0.509046	0.065513	0.113893	0.574210	0.093533	0.149649	-0.424680	-0.388865	-0.190559	-0.553202	0.075348	-0.348681	-0.115467	-0.334184	0.041233	0.071407	0.058041	-0.032006	0.046021	-0.512311	-0.019371	0.136429	0.079904	-0.224823	0.264410	0.105033	0.233495	0.310991	-0.309465	0.434548	0.068909	-0.166655	-0.050396	0.481040	0.439724	-0.126555	0.033090	-0.568006	0.353343	0.123893	-0.036296	-0.410458	0.286049	0.135486	-0.300104	0.145893	-0.229800	-0.201490	-0.142001	0.101214	-0.289750	-0.146354	-0.126242	0.372162	0.197374	-0.335784	0.217204	0.305511	0.344782	-0.524095	0.276723	-0.085667	0.172486	-0.175476	0.012575	-0.168715	0.138819	0.566133	-0.307328	-0.231128	0.260398	-0.093124	-0.189187	0.069604	-0.204731	0.256292	-0.385637	-0.418130	0.378173	-0.079929	0.486567	0.556269	-0.076444	-0.105721	0.260749	-0.134765	0.156246	0.208358	-0.016960	-0.053874	-0.282458	-0.328735	-0.202661	0.343392	0.336200	-0.126982	0.346201	-0.156971	-0.021976	-0.452782	-0.136853	-0.291200	-0.289200	-0.050683	0.222449	0.044094	-0.542071	-0.365409	0.183942	0.447027	-0.032860	0.466258	0.210848	-0.176889	-0.488802	-0.176748	0.247663	0.496637	0.610022	-0.371021	-0.023699	0.021270	0.166457	0.063879	0.200058	-0.121926	-0.167552	-0.354475	-0.243192	0.470568	-0.337285	0.170428	-0.279324	0.145848	-0.160072	-0.198806	-0.105971	-0.033169	-0.289935	0.173417	-0.431196	0.054633	-0.179510	0.460522	0.039079	-0.354443	-0.168209	0.086124	-0.098018	-0.244621	0.076176	-0.078141	0.110728	-0.040657	0.006324	-0.407775	0.028855	0.201867	0.002713	0.358076	0.165783	0.375812	0.028339	-0.087093	0.539070	-0.081100	0.203330	0.544555	-0.014785	0.368603	
0.280732	0.236461	0.080429	0.223377	0.100677	-0.019324	-0.442704	0.114239	0.038644	-0.106357	-0.457868	-0.099741	-0.034049	-0.212385	-0.390180	0.445818	-0.347366	0.008080	0.009584	0.094165	-0.315154	0.021151	-0.267648	-0.243735	0.259825	0.130172	-0.382228	-0.537350	-0.067122	0.306876	0.057712	-0.620925	0.337561	0.283479	-0.288644	0.297450	0.162583	-0.204683	-0.036975	0.134680	0.014729	-0.004368	-0.221096	0.001804	0.031082	-0.112701	0.144117	-0.321801	0.511080	-0.364604	0.135972	0.006184	-0.075357	-0.086866	-0.233796	0.581701	0.517278	-0.126122	-0.212800	-0.260267	0.084771	-0.157107	-0.313579	-0.136936	-0.423698	0.386708	-0.076346	-0.450458	0.038421	0.050189	0.197369	-0.406494	0.477215	0.236277	-0.244751	-0.095046	-0.228056	-0.275004	0.929390	-0.258751	0.389858	-0.203797	-0.404716	-0.164528	-0.291441	-0.214543	-0.088538	0.301457	0.069536	0.477639	0.434776	-0.134434	-0.008259	0.109719	-0.221340	0.266068	0.428778	-0.229898	-0.099894	0.494005	0.165066	-0.081368	-0.339778	-0.219428	-0.644138	-0.256480	-0.130563	-0.539903	-0.304622	0.226384	-0.219445	-0.060773	-0.307579	0.161155	-0.404016	0.176089	-0.183021	-0.149043	0.174465	0.302653	0.024488	0.495601	-0.438790	0.393129	0.083303	0.167307	-0.217966	-0.285057	0.126509	0.187115	-0.387584	0.325516	0.355456	-0.439327	0.246635	-0.247948	0.020061	0.459716	-0.119131	0.261723	0.363142	-0.156571	0.417316	0.125261	-0.239515	0.387233	-0.358381	0.120216	-0.099018	0.780859	-0.025308	0.032346	0.038443	0.052094	-0.391329	-0.107181	0.405006	0.373057	0.324024	-0.398123	0.054773	0.080800	-0.331064	-0.104223	0.115859	-0.490527	0.188355	-0.269199	-0.293582	0.361000	-0.001517	0.428295	-0.322878	0.017406	-0.294147	0.119850	0.019456	-0.337794	0.212755	-0.350526	0.129945	-0.422845	0.101948	-0.373532	-0.012531	0.308897	0.341034	-0.202133	0.075917	-0.119817	0.215454	-0.435836	0.187663	-0.482187	0.104299	0.125605	0.080213	-0.387500	0.230426	0.014404	-0.482016	-0.468681	0.046954	-0.058593	0.261409	0.456425	-0.569622	-0.012024	-0.323467	0.520991	-0.164237	0.274198	-0.412735	0.333265	-0.535568	-0.022724	0.065239	0.478046	-0.520375	0.402871	0.187945	-0.368398	0.169387	-0.323194	-0.665414	-0.023555	-0.380758	0.170390	0.145596	0.224788	-0.254292	0.321199	-0.438923	0.034930	-0.185698	0.156773	0.517875	-0.311210	-0.046857	-0.276983	-0.032212	-0.129503	-0.151342	0.024841	0.651484	0.002847	-0.372020	-0.229748	0.560780	-0.030790	0.010882	0.016897	-0.382027	0.079641	0.052606	0.107247	-0.442802	-0.204966	-0.186130	0.405647	0.080311	0.416346	0.165553	-0.061889	0.518728	-0.058469	-0.160000	0.238428	-0.055991	-0.454579	-0.315465	0.644525	-0.564057	-0.577517	-0.311788	-0.183839	-0.242126	-0.187148	0.374586	-0.352981	0.374200	-0.127561	-0.565020	0.405970	0.228988	-0.185570	0.083773	-0.295792	0.004744	0.347596	-0.143825	-0.437319	0.004375	0.083224	-0.264625	-0.044772	0.268450	0.104137	-0.168126	0.214004	
0.099792	0.184281	0.034228	0.339490	-0.183739	0.217057	-0.255246	0.074947	-0.453184	0.293536	0.296491	0.266606	-0.329664	-0.002910	-0.063584	-0.193634	-0.312564	-0.048572	-0.028450	0.403115	-0.031714	-0.074839	0.039953	0.595392	0.312387	-0.209796	0.267661	0.318702	0.227602	0.521438	-0.212765	-0.007752	-0.256403	0.124714	-0.142238	-0.128539	-0.250991	-0.015974	0.077857	0.163758	-0.144653	0.079035	0.208390	-0.260197	0.063662	0.027664	-0.441909	0.123404	0.213758	0.321295	0.058560	-0.563188	0.338007	0.222326	0.065533	0.002946	-0.197232	0.142654	-0.022036	-0.161315	-0.280103	0.156406	-0.234750	0.319190	-0.075752	0.133531	0.145461	0.389517	-0.266900	0.331507	0.030785	0.190667	-0.027698	0.004362	0.363067	0.012095	0.163007	-0.078407	0.070781	0.080949	-0.312854	-0.163181	0.040252	-0.133302	0.359090	-0.267791	0.404932	-0.649053	0.419496	-0.011156	0.292809	0.105746	0.085610	0.353729	-0.015998	0.002698	-0.306258	-0.043351	-0.018857	0.108399	0.005469	0.069730	-0.207984	0.148367	-0.423649	-0.244034	-0.083446	0.257473	-0.112143	-0.179630	-0.074064	0.274288	0.127157	0.499162	-0.274668	-0.110208	-0.221026	-0.087627	-0.131146	-0.162816	-0.214646	-0.038591	0.001106	0.233981	-0.049960	-0.201187	0.419897	0.170259	0.018323	0.320624	-0.013542	-0.301323	0.382156	0.291688	0.075592	0.452617	-0.227947	-0.115757	0.140172	0.149485	-0.167402	-0.377760	0.175614	-0.392684	-0.358287	0.222378	0.334995	-0.046977	0.167668	-0.293523	-0.135443	-0.626813	0.167202	-0.374824	0.472385	-0.144737	-0.253999	0.064236	0.038504	0.250573	-0.064401	0.424246	0.215682	-0.155682	-0.066572	0.036778	0.420603	0.194791	-0.183503	0.171377	0.318270	-0.220672	0.518008	-0.322126	-0.232634	-0.541855	-0.281687	-0.184307	-0.091675	-0.456288	-0.112277	0.038931	-0.425256	-0.099624	0.070356	0.009761	0.062661	0.278077	0.492475	-0.351183	0.066190	0.426067	-0.411464	-0.303927	0.026771	0.040779	0.263570	-0.386836	0.106563	-0.393878	0.521766	-0.038950	-0.423169	0.049061	-0.193049	-0.115277	0.137744	0.122819	0.156734	-0.410396	0.389842	0.071017	0.309778	-0.264057	0.201665	0.014317	0.367380	0.170398	-0.390295	-0.120313	0.321247	-0.012061	0.136411	0.134957	0.110041	0.052005	0.064775	0.147838	-0.030013	-0.082968	0.453073	0.159846	0.271417	-0.306643	0.065794	-0.150884	-0.202166	-0.022456	-0.153576	-0.057583	-0.102214	0.133112	0.091044	-0.124568	0.011339	-0.216174	0.224168	-0.149289	-0.012723	0.216410	0.014331	0.370170	0.200896	-0.432974	0.425092	-0.064732	0.125417	-0.112914	-0.226181	0.007735	0.243957	-0.237306	0.002786	0.389941	-0.213956	0.178595	-0.101373	0.103760	-0.180183	0.328702	0.426907	-0.129601	-0.003207	0.189712	0.139465	-0.157568	-0.435871	-0.079771	0.533661	-0.242434	-0.122561	-0.121257	-0.234711	0.247375	0.001582	-0.184978	-0.031359	-0.145840	0.307897	0.249564	0.203685	0.291485	0.242675	0.335246	0.101774	0.098938	0.412979	0.201365	0.038694	-0.331986	
0.665954	0.524077	0.298792	-0.279536	0.029854	0.255491	0.176151	0.317114	-0.233422	-0.006079	-0.252258	0.101697	-0.333855	0.443846	-0.158933	0.271913	-0.422415	0.504116	0.202130	0.420682	-0.042243	-0.701574	-0.431538	-0.330867	-0.197042	-0.045236	-0.374187	-0.027550	-0.685169	-0.039773	-0.104523	0.328206	-0.408046	0.295886	-0.564824	0.397700	-0.268283	0.155767	0.255570	0.010879	-0.487951	0.009873	0.011513	0.158850	0.151281	0.357332	0.134218	-0.345421	0.017849	-0.322289	-0.410324	-0.034577	0.072326	0.196754	0.316015	0.435525	0.365826	-0.213150	0.028594	-0.276411	0.388685	0.321849	-0.418460	-0.222213	-0.085666	-0.442272	-0.006748	-0.271947	0.144393	0.108365	0.123797	0.128109	-0.279603	0.259035	-0.869024	-0.509532	0.436019	-0.694987	-0.117304	-0.023619	0.521406	-0.288778	-0.034909	-0.350030	-0.466936	0.046576	-0.499372	0.206816	-0.014291	0.489470	0.353227	0.364670	0.143941	0.384911	0.154403	0.157680	0.363646	0.130177	-0.309134	0.153456	0.365219	0.374792	-0.002823	-0.198037	0.015966	0.310421	-0.874572	0.191906	0.252563	-0.410679	0.275314	-0.015665	-0.148627	0.177698	-0.202965	-0.032428	-0.044409	-0.072220	-0.145346	-0.472808	-0.046340	-0.026609	0.097910	-0.089426	-0.571523	0.038099	-0.055971	-0.328984	-0.030562	-0.030173	-0.251751	-0.197767	0.007099	-0.274382	-0.242469	0.068514	0.037682	0.098818	-0.037114	-0.187758	0.348861	-0.081267	0.120340	-0.787307	-0.548801	-0.039831	0.195583	0.039353	0.013127	-0.161908	0.253131	0.154052	0.084246	0.331316	0.109510	0.549710	-0.299786	-0.297196	0.199302	-0.340039	0.085867	-0.272314	-0.124267	-0.285864	0.002391	-0.053742	0.373696	-0.091375	-0.017849	0.282503	0.069279	0.123773	-0.635760	0.354894	-0.035653	-0.033442	-0.233470	-0.007625	0.327761	-0.207889	-0.357210	-0.459685	0.304985	-0.070087	0.088048	-0.088354	0.267459	-0.036801	0.165990	0.456792	-0.398116	0.327785	0.077208	-0.281965	-0.229640	-0.466766	-0.028162	0.246139	-0.112358	0.433285	0.066647	0.290141	-0.127401	-0.075717	0.316874	0.388214	0.070349	0.544843	-0.075364	0.066082	-0.374863	0.184557	-0.025652	0.511001	-0.438245	-0.204622	0.138215	0.382670	-0.449476	0.160737	-0.442875	0.131023	0.089692	-0.124173	-0.324238	-0.127275	0.022656	0.221093	-0.046537	0.236523	-0.034453	0.533629	0.353034	0.187147	-0.075796	0.079298	-0.189953	-0.418484	-0.211694	-0.146982	0.001344	0.047720	-0.427430	-0.210022	0.330328	0.226918	-0.058902	-0.418757	0.402676	-0.256056	0.033336	-0.246674	-0.036096	0.234508	0.301125	-0.190570	-0.238002	-0.317659	0.146594	0.238023	-0.155934	-0.168957	-0.185464	-0.291806	0.253414	0.104393	0.096258	-0.206003	-0.248514	-0.252012	0.302511	0.586815	-0.607805	0.105600	-0.305192	0.159980	-0.515949	0.307842	0.032715	0.112808	0.584965	0.022380	-0.428366	0.210350	0.159643	0.429965	-0.377292	-0.138516	-0.536532	0.271350	-0.211250	-0.321315	-0.320470	0.177703	0.151592	-0.047597	0.324131	0.082720	-0.273911	-0.337894	
0.359879	-0.023852	-0.481264	0.280758	-0.233352	-0.403171	-0.171125	-0.132682	0.288213	0.355904	-0.082636	0.122171	-0.108211	-0.062654	-0.081974	0.114536	-0.115201	0.393430	0.031084	0.170773	-0.154949	0.258784	0.318524	0.213740	0.410307	-0.315703	-0.457985	0.556814	-0.057269	-0.249900	0.026185	-0.247738	0.458314	0.404595	0.051298	-0.625312	-0.408272	0.023536	0.035945	-0.242561	0.325928	0.408311	0.257469	0.383257	-0.088470	-0.087448	0.231226	0.291761	-0.087585	0.076451	0.251465	-0.554711	-0.113955	0.013154	-0.547048	-0.036407	0.048444	-0.606070	0.338664	-0.334202	0.098718	0.137455	-0.275469	0.594943	0.053653	0.438595	-0.084225	0.081959	0.267527	-0.008682	-0.187832	0.081533	0.083999	0.275578	-0.077669	-0.047239	-0.313004	-0.145553	0.377890	-0.146740	-0.191630	-0.034470	0.189547	-0.183096	0.483141	-0.447716	0.392963	0.520039	0.155169	0.424923	0.088760	0.354698	0.238692	-0.467813	-0.090434	-0.074935	-0.270034	-0.025845	0.515168	0.604652	-0.483140	-0.064076	-0.218953	-0.184920	-0.046128	-0.075225	-0.131219	0.182923	0.255234	-0.064060	-0.276859	-0.087344	-0.389425	0.305137	-0.491583	-0.601239	-0.097264	-0.289499	0.200857	0.475953	0.175135	-0.159124	0.052742	-0.164030	-0.030204	-0.137460	0.302835	0.220626	0.149344	0.116911	0.146595	0.172245	0.045216	0.182722	0.025482	0.157241	-0.335181	-0.304130	-0.347048	-0.338180	-0.460425	-0.225084	-0.331044	-0.149630	-0.252691	-0.016672	-0.003985	0.204370	-0.096956	-0.142641	0.155657	-0.333075	-0.221268	-0.589875	0.411064	0.135558	-0.122256	-0.259644	-0.112528	-0.192762	0.157972	0.341514	-0.231709	-0.048419	-0.250412	0.164322	0.183398	-0.286443	0.117528	0.219945	0.228724	-0.097184	-0.043757	0.295559	0.223261	-0.122284	-0.207965	0.034682	0.113010	0.012879	0.131229	0.243898	-0.357202	-0.194807	0.106504	-0.431216	-0.348815	0.151371	-0.023880	-0.090086	0.008976	-0.260693	0.551941	-0.176383	-0.023706	-0.340914	-0.121307	-0.389293	0.077332	0.054055	-0.153846	-0.110551	-0.205504	-0.283319	0.076296	-0.242119	-0.499069	-0.495327	0.136993	-0.288384	-0.184323	0.201639	-0.082734	-0.252346	0.263492	0.288596	0.165901	0.384138	-0.035635	0.130230	-0.446443	-0.025917	-0.360207	0.218600	-0.272286	0.080818	-0.427377	0.139905	-0.066192	0.122773	0.015105	0.085011	0.403939	0.143933	-0.404890	0.285796	0.288317	-0.172624	-0.492233	0.474709	0.021119	-0.044295	-0.186385	0.177129	-0.113584	0.125686	0.093587	0.190754	0.248253	0.242928	-0.176403	-0.004020	0.199142	-0.140423	0.084018	0.247145	0.329832	0.375576	-0.337196	0.150784	0.257130	0.275836	-0.315107	0.032744	0.189473	-0.177941	-0.071196	0.128418	-0.097344	-0.009194	-0.343727	0.323828	0.078135	0.190339	-0.303687	0.079377	-0.097793	-0.387530	0.061872	-0.237916	-0.227881	0.146232	0.380108	0.053774	-0.366355	0.029048	-0.280014	-0.128018	0.375907	0.263450	0.328090	0.254793	0.190268	0.015336	0.036449	-0.306245	0.460286	-0.375322	0.128199	-0.053958	
-0.063628	0.070956	-0.142388	-0.180613	0.190257	-0.121104	-0.825715	0.017149	-0.226655	-0.183163	-0.635311	-0.020915	-0.081180	-0.329191	-0.413785	0.089289	-0.107618	-0.058043	-0.136678	0.002821	-0.540164	-0.513782	-0.430611	0.311785	0.509371	0.201496	0.003187	-0.143650	-0.176604	-0.263077	-0.008012	-0.126234	0.358552	0.065939	0.105724	-0.384808	-0.132504	0.070044	-0.256189	-0.451268	-0.432863	-0.175046	0.200587	-0.123169	0.024618	0.074911	0.201279	0.417860	0.365650	-0.613632	-0.322818	0.157806	-0.127308	0.020180	0.308033	0.273709	0.681467	-0.182776	-0.463077	0.402809	-0.017750	0.228624	-0.150588	0.262531	-0.272519	0.286056	-0.205227	-0.002811	0.084910	-0.087307	-0.277696	0.042561	0.059342	-0.074911	-0.405185	-0.400256	-0.239419	0.104589	0.801351	-0.201766	-0.012470	-0.663818	-0.537501	-0.079751	-0.515884	-0.090230	-0.462148	-0.270485	0.301672	0.183174	-0.339030	-0.021659	-0.311621	-0.224297	-0.417274	-0.180231	0.035557	-0.058272	-0.151910	0.477840	0.124358	-0.021911	0.095140	-0.430415	0.104991	-0.036398	-0.525771	-0.382476	-0.291230	-0.257153	-0.461761	0.270113	-0.426454	-0.104366	0.117856	-0.091918	0.130870	-0.036922	-0.234137	-0.047301	0.297164	0.192503	-0.014604	0.598224	0.081768	-0.199848	-0.128305	-0.295120	0.047225	0.196584	-0.072102	0.683377	-0.301601	-0.161734	-0.536784	0.031418	0.059845	-0.483138	-0.145684	-0.246105	-0.362479	-0.404689	0.304078	-0.607567	-0.046964	-0.129183	0.016168	-0.031193	-0.309699	0.220192	-0.466611	0.172308	-0.143214	-0.212681	-0.197781	-0.051605	0.021969	0.475265	0.516710	-0.541137	0.367193	0.392948	-0.341448	0.150598	-0.262017	0.195858	0.434172	0.171679	0.118063	0.518504	-0.137146	0.270399	-0.275123	-0.199639	0.207243	0.413976	-0.215250	-0.154409	0.332915	0.679245	-0.474714	-0.053264	-0.133633	0.093449	-0.302851	0.118647	0.464797	0.338520	0.080064	0.265208	0.173733	-0.159464	-0.057708	0.158147	-0.335809	-0.211199	0.031922	0.150234	0.358005	-0.139386	0.143796	0.015245	0.004271	0.215011	0.369669	0.382199	-0.310708	0.589058	-0.008463	-0.093126	0.007488	0.454094	-0.529408	-0.087695	-0.099419	-0.192496	-0.201391	-0.062706	-0.806526	0.276847	-0.475770	-0.012272	-0.132158	0.035893	-0.106364	-0.369902	-0.307359	0.161325	-0.334665	-0.287411	0.473405	0.821350	0.274211	0.234328	0.458857	-0.234706	-0.188682	-0.015402	-0.211037	-0.408909	0.508486	0.061608	-0.154306	0.633996	-0.452615	-0.363956	-0.399012	-0.515963	0.441957	-0.405788	0.250540	0.269799	0.036905	-0.233790	0.385653	-0.153176	-0.116333	-0.202269	-0.430725	-0.092667	0.025202	-0.267832	-0.422121	-0.229984	0.467835	-0.410120	0.112384	-0.534347	0.249822	-0.124679	-0.312357	0.318915	-0.349151	-0.409490	-0.039769	0.102537	0.181429	0.139208	0.129658	-0.298274	0.708199	0.059445	-0.185881	0.138958	0.141057	0.194353	0.225761	-0.389509	0.069681	-0.189958	-0.236127	0.029525	-0.168001	-0.565831	-0.246387	-0.229432	-0.157165	0.351969	0.098540	-0.067207	
-0.024465	0.170264	-0.274924	0.365216	0.140248	0.255167	-0.018666	-0.042079	0.025817	0.036618	0.278814	0.066734	-0.133822	-0.313670	-0.475214	0.167981	0.437778	-0.163808	-0.252847	-0.035179	-0.435418	-0.262434	0.175122	0.496661	-0.310927	-0.067830	0.118285	0.113332	-0.225038	0.045076	0.389086	0.196317	0.417122	0.040367	-0.193876	-0.196312	-0.010054	-0.209817	-0.362559	-0.071640	-0.022475	0.278674	0.001058	0.010115	0.340142	-0.420467	0.258909	-0.028834	0.296414	-0.161376	0.106718	0.218571	-0.141552	-0.118621	-0.092796	0.011776	-0.226973	-0.135297	0.488023	-0.051807	0.223335	-0.121663	0.174423	0.797763	-0.435880	-0.225387	-0.017584	-0.313661	0.348504	0.282770	-0.181679	0.173860	0.021303	0.078090	-0.219095	-0.424961	0.130267	0.071611	-0.401786	-0.464095	0.053272	0.025604	0.373153	-0.111724	0.542629	-0.333966	-0.518342	-0.114577	0.184092	0.306239	0.167142	0.186632	-0.011584	-0.128677	0.100625	0.195407	-0.113219	-0.162697	0.280412	-0.241374	-0.145803	-0.257456	0.304486	-0.005206	-0.170642	0.008959	-0.602240	-0.156789	0.026096	-0.399066	-0.084572	-0.365628	0.013180	-0.387651	-0.130899	-0.432773	-0.090749	-0.381700	0.169735	0.285589	0.167718	-0.081066	-0.072739	-0.249339	0.252584	-0.041975	-0.057763	0.161915	-0.063720	-0.231390	0.211547	-0.031448	0.224945	0.544471	-0.145321	-0.170288	-0.617546	-0.142070	0.007164	0.324764	0.065883	0.192503	0.035640	-0.023083	0.290594	0.189703	-0.231510	0.313943	0.267371	0.233565	0.351499	0.132895	-0.218420	-0.459782	-0.071902	-0.033241	0.148659	0.024044	0.222696	0.156054	0.017888	-0.185667	0.015236	-0.013740	0.346176	-0.140273	-0.262935	0.497085	0.055786	0.272515	0.147828	-0.401984	0.285618	0.149399	0.171320	0.359259	0.119505	-0.044800	-0.091982	0.138666	-0.319211	-0.287830	0.052001	-0.327725	-0.221181	0.192947	-0.101669	0.248038	-0.235810	0.375886	0.108435	0.341197	-0.108216	-0.265759	-0.225237	-0.426107	0.170480	-0.101306	-0.346635	0.007933	0.122018	-0.083537	-0.343315	-0.386256	0.206984	0.533438	0.183697	0.001884	-0.216594	-0.537387	-0.191474	-0.332184	-0.469458	0.001989	-0.040271	-0.188048	0.234819	0.588799	-0.199969	-0.058288	0.175680	-0.010898	-0.131715	-0.313018	0.326681	0.148240	-0.281171	-0.374763	0.004057	0.179022	0.352755	-0.335033	0.340250	0.296982	-0.289762	0.128886	0.544231	-0.466051	-0.346235	-0.239103	-0.291483	-0.084811	-0.109291	0.343032	0.030223	0.323321	0.299939	0.406223	0.080005	0.035867	-0.021394	0.016198	0.120253	0.277162	0.039959	0.081563	-0.041904	0.449102	-0.174690	0.049659	0.021760	-0.089840	0.227525	0.420391	-0.174555	-0.115577	0.159322	0.043605	-0.214800	0.472271	-0.127246	0.049356	-0.217559	-0.115460	0.048560	0.237709	-0.455924	0.006892	0.113909	0.379987	-0.074596	-0.204475	-0.310666	-0.046128	0.086826	-0.131785	0.029333	0.142616	0.257348	-0.220772	-0.278788	0.603579	0.251810	0.174115	0.305281	0.370058	0.424349	-0.071547	0.281671	-0.250086	
-0.190794	-0.393937	-0.185018	0.257719	0.167756	0.145248	-0.344917	0.147120	0.005220	-0.085676	0.029298	-0.046261	-0.340566	-0.448054	0.438891	0.107824	0.154225	-0.457078	-0.460061	-0.245205	0.162455	-0.277798	-0.230760	-0.093275	-0.158750	0.132904	0.001879	-0.629838	-0.522011	0.493081	-0.148446	0.048950	-0.426027	0.381762	0.016394	-0.022384	-0.188538	0.037896	0.317518	-0.443490	-0.544549	-0.218653	0.313297	-0.022060	0.461277	-0.285549	0.006359	0.009077	-0.025036	-0.319039	0.304778	0.599164	-0.446584	0.046999	-0.447572	0.131129	0.386890	-0.014477	-0.228019	-0.163348	0.153436	0.248680	-0.104998	-0.170098	0.076934	0.096835	-0.366311	-0.109036	-0.435867	-0.175299	-0.593284	-0.282561	0.007738	-0.066993	0.163420	-0.058351	0.064742	0.094127	0.176842	0.480461	0.098999	-0.186158	0.094645	0.037202	-0.415613	0.303185	-0.155745	0.088409	0.044243	0.497543	0.104046	-0.342323	0.148794	-0.142201	0.022659	0.428576	-0.415491	-0.306100	0.147800	-0.184708	-0.073483	-0.316598	0.216756	0.091628	-0.218948	-0.370455	-0.047271	0.285664	-0.435590	0.005023	0.107275	0.202141	0.400440	0.041064	-0.109627	-0.324640	-0.252100	-0.057410	-0.356514	0.300581	-0.200164	0.470290	-0.175225	0.447148	-0.258591	0.044472	0.175478	-0.127137	0.305689	0.225147	0.199659	0.560826	0.221736	-0.465959	-0.176698	-0.162345	-0.001337	-0.077547	-0.329804	-0.061298	0.104969	0.244180	-0.166146	-0.092769	-0.346953	0.028434	-0.499100	0.111013	-0.319080	0.084543	0.111384	0.078349	-0.105602	0.186574	0.161147	0.261738	0.235696	-0.138210	0.401816	-0.221631	0.252627	-0.009694	-0.300971	-0.406607	0.346321	-0.139696	0.291657	-0.040874	0.367266	0.266349	0.227553	0.068232	0.097075	0.523642	-0.294682	-0.101787	0.104569	0.066024	-0.001325	0.450006	0.018645	-0.653113	0.066639	-0.125086	0.559912	-0.324471	0.116375	-0.006168	-0.191423	0.043719	-0.093937	-0.382205	-0.373078	0.343425	-0.050539	-0.484904	0.111073	0.381492	0.196618	0.339752	0.116729	-0.204381	-0.537230	0.167968	0.161803	0.224743	0.043566	-0.117357	0.151023	-0.017135	-0.545619	0.156485	-0.339510	0.369714	0.388923	-0.555943	0.209840	0.129034	0.028938	0.126348	-0.338626	-0.373868	0.175375	-0.143446	0.211404	-0.396881	-0.106722	0.255173	-0.568637	-0.165605	-0.002728	0.481455	-0.110707	0.221576	0.004196	-0.400816	-0.196034	-0.177615	-0.279973	-0.378483	0.236316	-0.036822	-0.636730	0.193393	0.401342	-0.510844	-0.463728	0.138569	0.132110	0.196899	-0.053769	0.239516	-0.037198	-0.139898	0.372479	0.300476	0.045850	-0.376099	0.143547	0.125596	-0.126304	-0.247852	-0.027547	0.010987	-0.337418	-0.008007	-0.061069	-0.154746	-0.312308	0.242758	0.292160	0.133139	-0.288746	0.161289	0.236114	0.383064	0.396697	0.055711	0.329172	-0.071867	0.234261	0.043557	-0.560915	0.078869	-0.205189	-0.601869	-0.188790	0.378985	-0.386453	-0.290351	-0.180782	0.211726	-0.187074	0.076494	-0.303880	-0.169966	0.394427	0.487102	0.268611	-0.429524	
0.068775	-0.096392	-0.224649	0.119096	-0.096964	0.458109	0.323759	0.188355	0.004612	0.073289	0.356519	0.077762	-0.365087	0.274150	0.268537	-0.390954	-0.579381	0.102151	-0.134962	0.366679	-0.040903	-0.106169	-0.213536	0.405674	-0.299994	0.254520	-0.274100	0.519150	-0.244793	-0.264142	-0.530408	0.359509	0.393094	-0.123897	-0.009729	-0.471955	-0.382499	0.237023	0.288107	0.265133	0.129116	-0.118937	-0.248186	-0.269525	-0.292693	-0.319568	-0.161071	-0.012018	0.070644	-0.294932	-0.250450	-0.374826	-0.255600	-0.053755	-0.475840	-0.279320	0.363322	-0.122411	-0.145454	-0.214001	0.394791	-0.074272	-0.409722	0.433511	0.174637	-0.031499	-0.221647	0.333100	-0.307333	0.319780	0.378567	0.111437	-0.197382	-0.071034	-0.329092	-0.234857	-0.158235	0.101447	-0.002891	0.311715	0.092856	-0.227696	-0.267773	-0.674482	-0.225105	-0.199224	-0.171679	0.253805	0.297597	0.119659	-0.198521	0.187321	0.686940	-0.530318	0.004025	0.022023	0.148002	0.030731	0.159223	-0.144025	-0.281777	-0.027769	0.114902	0.128484	-0.053235	-0.221367	0.053008	-0.153346	0.287477	-0.029106	0.264799	0.004533	0.092265	0.275217	-0.209673	-0.276160	0.015265	0.046217	0.038458	-0.122230	0.058028	0.121257	-0.105110	-0.102959	0.050953	-0.310947	-0.501657	0.062384	-0.178380	0.106377	0.476216	0.168178	0.099240	0.389268	-0.065993	-0.095306	0.056335	-0.032425	-0.212836	0.167673	0.100206	0.226675	0.213978	-0.263967	0.221563	-0.054703	0.020834	-0.345817	-0.324996	-0.425832	-0.075008	0.068781	0.079069	0.155947	0.654185	0.000187	-0.178383	0.365428	0.116407	0.207630	0.185212	0.158165	0.014107	0.084307	-0.099651	0.107274	0.166991	-0.295285	-0.451161	0.289564	0.591846	-0.515406	-0.030864	-0.118563	-0.297111	-0.180990	0.352479	-0.073084	0.089477	-0.621660	-0.217641	0.416734	0.100077	-0.439506	0.173216	0.181657	0.262337	0.332197	0.076094	-0.001410	-0.073538	-0.326911	-0.008818	0.022269	-0.106338	-0.212246	0.238664	-0.100479	0.063877	-0.018365	-0.028127	0.478419	0.145418	0.212959	0.181688	-0.265070	-0.237413	0.040114	-0.202941	0.138723	0.473196	-0.099512	0.215185	0.215950	-0.082989	-0.480877	0.131535	-0.256000	0.148754	-0.303153	-0.302558	0.432964	0.027850	0.482559	0.093895	0.006992	0.043904	0.106670	-0.679473	-0.290060	0.088299	-0.545577	0.072810	-0.251194	0.093109	-0.092809	-0.313265	0.358890	-0.253603	0.252284	-0.023625	-0.104437	-0.215635	-0.130040	-0.338967	0.489050	-0.222509	-0.010109	-0.215991	-0.542791	0.131646	0.016000	-0.314323	0.097334	-0.099464	0.242479	0.011991	0.313654	-0.188325	0.387461	-0.033004	-0.319777	0.349540	0.387470	-0.326200	0.352794	-0.042030	-0.131457	-0.039170	0.298660	0.217459	-0.014762	-0.134650	-0.176552	0.097582	-0.303375	-0.278938	0.122433	0.285407	-0.248268	0.276976	-0.158416	0.163827	0.277569	-0.211267	-0.480281	-0.185005	0.117534	-0.256867	0.567217	0.303849	0.157407	0.424292	-0.369414	-0.329902	-0.059410	0.303875	0.158998	0.144806	0.093421	
0.083918	-0.150932	0.253953	0.234802	0.125806	-0.110529	-0.526145	-0.674790	-0.390344	0.305673	-0.376046	-0.184397	-0.413095	-0.233342	0.730050	0.429085	-0.134992	0.021704	0.007666	-0.216285	0.055776	-0.424592	0.246377	-0.236286	-0.194121	-0.440090	-0.193044	-0.521737	0.352524	-0.093287	0.435622	-0.082014	0.021710	0.360583	-0.184879	-0.649465	-0.135654	0.297658	-0.025376	0.007429	-0.047347	0.034660	0.255686	0.408407	0.055834	0.061524	0.097156	-0.142115	0.084137	-0.326470	0.097496	-0.172962	0.314187	-0.075379	0.253724	-0.076728	0.084335	-0.503131	0.035064	-0.360458	-0.066257	-0.139186	-0.586801	-0.547733	-0.028448	-0.039166	-0.180001	0.385600	-0.147224	-0.310627	-0.471890	0.296775	-0.369540	0.409883	0.046488	-0.352050	0.235113	-0.156277	0.372761	0.276749	-0.297252	-0.417446	-0.012533	-0.208726	0.247254	0.215358	-0.224366	-0.078435	0.088820	0.508399	0.440456	-0.239683	0.123201	-0.447635	0.004343	0.322900	0.027058	-0.254445	-0.121418	-0.048026	-0.283589	0.087635	-0.420691	-0.345825	0.237597	0.022312	-0.672347	-0.111243	-0.020283	0.299596	-0.146625	0.360034	-0.321403	-0.156979	0.392612	-0.161140	0.215766	-0.482571	-0.190569	0.109096	-0.305599	-0.089079	0.244181	0.240868	0.112590	-0.179273	-0.385958	-0.766662	0.130929	0.238657	-0.339568	0.800379	0.045364	-0.517359	0.405137	-0.219767	-0.150618	-0.308948	-0.146557	-0.082266	-0.165419	-0.010769	-0.396428	-0.201761	-0.404402	0.175676	-0.275067	0.364200	-0.846945	0.464907	0.011000	-0.311755	-0.590519	-0.150076	0.144346	-0.105600	0.108660	-0.427514	0.129795	-0.115727	0.270956	0.229241	0.084961	-0.167205	-0.246730	0.369062	0.439797	-0.256021	-0.125743	0.543099	0.441468	-0.111663	0.024105	0.289716	0.392302	-0.137702	0.353234	0.017352	0.077807	0.253402	-0.384287	-0.583488	0.409056	-0.005095	-0.159991	0.151389	0.138742	-0.533362	0.003263	-0.267626	-0.217471	0.207502	0.357741	-0.250029	-0.316455	0.092216	0.217543	0.442203	0.049318	-0.279466	0.048295	0.273628	0.214321	0.480236	0.247520	0.429014	-0.098670	0.045284	-0.380742	-0.160363	0.166533	-0.295603	-0.204170	0.507281	-0.046226	-0.052869	-0.226156	-0.137686	-0.208068	-0.359412	0.036230	0.250641	0.353581	0.118349	0.344039	-0.440041	0.191381	0.072871	-0.624291	0.150685	0.498527	-0.237107	0.028631	0.290595	0.365887	-0.662624	-0.085500	-0.287537	-0.320405	-0.286290	-0.179019	0.052641	-0.355842	-0.115647	-0.387397	-0.451528	-0.557334	0.103511	-0.032339	0.017409	-0.417469	0.108190	-0.302976	-0.561398	0.007124	0.320069	-0.272856	0.437691	0.040910	-0.023451	0.151328	0.181118	0.086314	-0.202422	-0.220171	-0.661353	-0.328612	0.044595	-0.158369	0.122955	-0.057189	0.049776	0.365886	-0.362419	0.063747	-0.273106	-0.281662	0.008705	0.447103	-0.114828	-0.173861	0.377370	-0.415519	-0.164034	0.127318	0.233184	-0.348578	-0.071506	-0.082707	0.319020	0.066963	-0.183553	0.101119	-0.537813	-0.430830	0.127072	0.087383	0.349045	0.179152	-0.404645	
-0.357010	-0.367086	-0.019313	0.086107	-0.397534	0.255901	0.290856	0.006788	-0.332765	-0.015527	0.361008	-0.017398	0.154140	-0.089338	0.158605	0.326830	0.080557	-0.022517	0.026268	0.055216	-0.204628	-0.073282	0.546989	0.208339	-0.165907	-0.199634	-0.002363	0.689440	-0.024459	-0.010973	0.276704	-0.497935	0.138405	-0.365864	0.137760	-0.143715	-0.112804	-0.292060	0.223282	0.093820	0.381429	-0.204204	0.207457	-0.048123	-0.148726	-0.338472	0.185050	-0.225829	0.293103	-0.122169	0.337578	-0.229634	-0.040354	0.214264	-0.356522	-0.229991	-0.143360	0.408282	0.199583	0.268820	0.077697	0.280206	-0.217818	-0.139410	0.068394	-0.176408	-0.106084	-0.022021	-0.352969	-0.184558	-0.302492	-0.334374	0.219900	0.471300	0.082211	0.057137	-0.311773	0.003615	-0.488830	0.246625	0.480760	0.301580	-0.361483	-0.090943	0.187132	-0.309108	0.226992	0.009875	-0.085713	0.102031	-0.133903	0.222803	-0.102546	0.728107	0.206727	0.585091	-0.107722	0.052152	-0.124693	0.198743	0.322189	-0.257162	-0.041441	-0.037655	-0.083663	0.088352	-0.274783	-0.293545	0.423927	-0.362166	-0.292558	0.349963	-0.210831	-0.259290	-0.052663	0.078888	0.092768	0.258591	0.229859	0.074781	0.060569	-0.385098	-0.251218	0.202619	-0.203234	-0.111404	0.106937	-0.370045	0.068282	0.395231	0.246669	0.009195	0.015764	0.074814	0.236552	0.080900	-0.109898	-0.257268	0.148865	0.226553	-0.182877	-0.095284	0.020999	-0.068994	-0.411089	-0.176605	-0.263798	0.126325	-0.253067	-0.388138	-0.074284	0.193038	-0.345209	0.301711	-0.090337	-0.263947	0.059695	0.036248	-0.034840	0.239958	-0.178833	-0.005805	-0.061610	0.141692	0.185975	0.226489	0.163547	0.094434	-0.325336	-0.226725	-0.040376	-0.145233	-0.355128	0.076661	-0.292279	-0.220828	0.136352	0.179125	0.351904	-0.633290	-0.132227	-0.149253	-0.032361	0.087283	-0.250158	0.090438	0.174521	0.164299	0.103437	-0.165291	-0.298642	0.053964	0.082404	0.169930	-0.166218	-0.035180	-0.149946	-0.350739	0.513246	0.056031	0.391612	0.013899	-0.232799	0.055887	-0.013569	-0.176758	-0.184086	-0.001199	0.638328	-0.734221	-0.475375	0.086087	0.049995	0.285598	-0.174245	-0.258119	0.182315	0.464995	0.041802	0.057270	-0.505802	0.219595	0.131308	0.172521	-0.057965	0.083344	-0.072039	-0.089956	0.149117	-0.327723	0.483039	0.112729	0.265000	-0.079256	-0.018242	0.091829	0.223717	-0.014063	0.227258	0.188300	-0.089559	0.328827	-0.402029	0.373200	0.122023	-0.046128	-0.364076	-0.008052	-0.171259	0.037636	0.085783	0.092919	-0.337100	0.092573	0.672407	-0.008257	-0.464109	-0.181978	0.254361	-0.060122	0.051938	0.092546	-0.044277	-0.141440	-0.246293	0.400944	-0.149318	0.455750	-0.346112	-0.341532	0.120375	-0.034623	-0.085200	-0.486444	-0.423782	0.173826	-0.188761	0.043901	0.440306	-0.030572	0.112754	0.023682	0.048135	0.348081	-0.550541	0.206223	0.149240	0.218012	-0.035256	-0.001348	0.027946	0.538352	0.018611	-0.215113	0.235207	0.229970	-0.312032	0.422613	0.042815	-0.287630	
-0.704937	-0.249175	0.147399	-0.005822	-0.248320	0.512095	0.164299	-0.116300	-0.330204	0.139540	-0.258960	0.463108	0.102095	-0.161817	0.498872	0.564651	-0.008058	-0.317290	0.009874	0.245597	0.229181	0.409486	0.226313	-0.227541	-0.543857	-0.384105	0.257236	-0.435669	-0.090497	0.013570	0.000413	0.099477	-0.158673	-0.281488	-0.494799	0.068564	-0.216004	-0.491546	-0.007093	0.120790	-0.404875	-0.408530	0.195612	0.152707	0.516813	-0.057209	-0.555197	-0.292102	0.052728	-0.314660	-0.205970	-0.037508	0.438691	-0.607153	-0.126066	-0.063920	-0.293419	0.287086	0.123472	-0.551893	-0.190442	-0.269598	0.119780	0.084038	0.061505	-0.695664	0.049720	0.093796	-0.378333	0.024896	-0.632239	0.023789	0.140206	0.306703	-0.064925	-0.223914	-0.261246	0.272689	0.579550	-0.259079	0.167103	-0.356708	0.163307	0.229470	-0.443841	0.642798	-0.200760	-0.170443	-0.074714	0.378215	0.051589	-0.499488	0.721973	-0.190879	0.208326	0.142946	-0.033697	0.118813	0.282290	0.293827	-0.501876	-0.229001	0.233400	0.240809	0.004424	0.107512	-0.391104	0.169621	0.028503	-0.182840	-0.636095	0.023756	-0.161230	0.209660	-0.185210	-0.183806	0.400345	-0.164742	-0.443898	-0.010903	-0.359730	0.151631	0.114268	-0.042188	0.171409	0.071349	-0.307880	0.018678	-0.160651	0.173849	-0.197794	0.263345	0.126248	-0.189164	-0.261923	0.130066	0.077315	0.143041	0.348526	-0.131056	-0.431226	-0.093281	0.028462	-0.000596	0.245284	-0.059557	-0.173484	-0.388578	-0.148716	0.121893	0.475401	-0.477199	-0.745612	-0.121018	-0.251207	-0.313590	-0.205854	-0.335351	0.290044	-0.146367	0.141228	0.255161	0.039973	0.093585	-0.277281	-0.073404	-0.004461	0.211671	0.348322	-0.435216	0.549106	0.488952	0.065322	0.179773	-0.201055	-0.340364	0.576442	-0.039572	0.138767	0.014442	-0.378175	-0.163104	0.521569	-0.089987	-0.311034	-0.045410	-0.191351	-0.437558	-0.164845	-0.053221	0.093703	-0.469060	-0.195124	0.234914	-0.031164	0.168550	0.006132	0.470208	0.251630	0.051895	0.067460	0.169020	0.000591	0.153383	0.063940	0.671198	0.348619	0.118512	0.019898	0.301691	-0.191241	0.283964	-0.184367	0.448585	-0.513764	-0.129035	-0.179717	0.197541	-0.297369	-0.318895	0.226961	0.025601	0.208888	0.161275	-0.114113	0.122092	0.386909	-0.380958	0.141994	0.254380	0.161219	0.412261	-0.091217	-0.150087	-0.095491	-0.280437	-0.403474	-0.100254	0.022583	0.043111	-0.376295	-0.363640	-0.642754	-0.447614	0.259067	-0.114037	0.124287	-0.433719	0.575398	-0.498971	0.005042	0.210782	-0.199125	-0.054955	0.113452	0.010348	0.403192	-0.259140	-0.030492	0.245203	-0.044441	0.125136	-0.311821	0.170559	-0.248125	0.085431	-0.375546	-0.286056	-0.464254	0.432361	-0.161971	-0.191778	0.505705	0.023662	0.016512	0.240228	-0.184104	-0.467954	-0.129257	-0.555171	-0.052397	-0.018320	0.519485	-0.504131	-0.003314	-0.211635	-0.120617	-0.359906	-0.072613	-0.266593	-0.243719	0.210939	-0.064100	-0.142222	-0.104872	-0.043928	-0.005560	0.182166	-0.368596	0.104450	
-0.054870	0.017714	0.374000	0.314573	-0.378769	-0.111076	0.154137	-0.097095	0.133191	0.066537	0.119906	-0.095152	0.191247	0.006942	-0.230097	-0.098690	0.038496	0.158517	-0.069384	0.067694	-0.061732	0.023612	-0.049232	-0.537012	-0.239395	0.110713	-0.458593	0.653948	0.245870	-0.186548	-0.482762	-0.368997	-0.015034	-0.130906	-0.080104	0.356778	-0.014915	-0.493633	0.362904	0.476021	0.237447	-0.039476	-0.223794	0.098307	0.138405	0.104627	-0.040112	0.054869	-0.247680	0.336140	-0.280424	0.299717	-0.184992	-0.214747	-0.461969	0.291664	-0.283047	-0.109082	-0.062922	0.082399	-0.101689	0.289376	-0.330848	0.218003	0.250784	-0.172317	0.126290	-0.129376	-0.123473	0.387819	-0.259417	-0.323029	-0.122300	0.066718	0.251716	0.016978	-0.097335	-0.184043	0.033215	0.081524	-0.356548	0.121233	0.305644	-0.128425	0.008721	-0.448593	-0.070149	-0.252539	-0.055090	0.463569	0.086752	0.229159	0.305150	0.352182	-0.384868	-0.042991	-0.198233	-0.319769	-0.206710	0.109273	0.119096	0.026692	0.004931	0.097408	0.398744	-0.317594	0.132165	-0.073913	-0.015117	0.007835	-0.001383	0.078949	-0.202781	-0.375540	-0.465766	-0.197893	-0.126143	-0.216989	-0.277431	0.029681	0.112402	0.088009	-0.395345	0.414489	-0.000955	0.127390	0.174587	0.759729	0.056576	0.052202	-0.056490	-0.084198	-0.236075	0.574856	0.176966	0.223096	-0.348331	-0.370859	0.180958	0.051075	0.122070	0.084225	-0.653490	-0.058887	0.248783	-0.195026	-0.051401	-0.186601	0.016537	-0.309541	0.299819	0.320556	-0.580420	-0.546416	0.259842	0.094148	0.160328	-0.517016	-0.036207	0.372355	0.063656	0.015119	-0.072155	0.100983	0.076154	0.373066	0.382375	-0.324439	-0.665678	0.059070	0.221709	-0.215049	-0.349258	0.370911	0.039005	-0.505007	-0.732739	0.148407	0.020180	-0.001143	-0.495332	-0.642394	-0.239499	-0.482838	-0.313070	-0.254264	0.116466	-0.062725	-0.099483	0.032257	-0.251550	-0.270220	0.012357	0.050865	-0.327282	-0.210532	0.217111	-0.450966	0.107468	0.166549	0.196438	-0.557084	-0.270487	0.050494	0.255470	0.072895	0.356889	-0.501608	-0.133755	-0.267028	-0.202534	0.116366	-0.034415	-0.111244	0.129543	-0.397324	0.077560	0.042062	0.022932	0.677108	0.056959	-0.162400	-0.191058	-0.172627	0.167928	0.052370	-0.124545	0.138577	-0.062214	0.014752	0.399770	0.171033	-0.176892	-0.181345	0.244052	-0.413808	0.138945	-0.223985	-0.020606	0.558305	0.120659	0.260827	-0.743552	-0.385637	-0.380833	-0.165128	-0.206922	0.049232	-0.458440	-0.383045	0.015406	0.442254	0.006975	0.475718	-0.441223	0.427180	-0.199930	-0.107735	0.104992	0.141621	0.026179	0.021871	0.107830	-0.379847	0.158944	-0.074871	-0.080275	0.366681	-0.532483	-0.316804	-0.219889	0.119458	0.386556	-0.249031	0.310758	-0.317063	0.249519	-0.284162	0.688062	0.099752	-0.138711	-0.319218	0.429240	0.200756	-0.085279	-0.169893	-0.010337	0.339526	-0.069407	0.298399	0.406612	0.120335	-0.184316	-0.363987	0.308187	0.198613	0.337951	-0.079771	0.175766	0.330663	
-0.026705	-0.377163	0.449193	0.154051	-0.162412	0.013293	-0.089106	-0.543473	-0.113278	-0.123012	-0.494526	-0.028659	0.461971	0.254684	0.263019	0.110725	-0.014880	0.507832	-0.619229	0.412723	0.190497	0.372809	-0.134496	0.037300	-0.748728	-0.426416	-0.004084	-0.001365	0.043612	0.650245	0.306359	-0.010618	-0.208702	-0.124244	0.276163	-0.282287	-0.429339	0.114393	0.070269	0.355537	-0.406816	-0.389003	0.102748	-0.332614	0.620372	-0.112360	-0.131107	0.068896	-0.099946	-0.068679	-0.116691	-0.401632	0.075200	0.221495	0.639533	0.105115	-0.146663	0.186634	-0.011528	-0.105541	-0.127922	-0.242420	-0.403383	-0.130806	0.050677	-0.650556	0.066708	-0.066632	0.357207	-0.150117	-0.530546	0.425764	-0.218855	-0.233778	0.149048	-0.178597	-0.135066	-0.292837	-0.096504	0.358080	-0.554665	-0.018554	0.162395	-0.110883	-0.300420	0.701587	-0.670855	-0.634344	-0.311175	0.043447	-0.178486	-0.071421	0.176364	-0.659195	0.006571	0.712926	-0.269442	0.049428	-0.057560	-0.038646	-0.555938	0.350849	-0.120066	-0.096994	-0.408710	0.679851	-0.340167	0.693462	0.023243	-0.001331	-0.027654	0.089764	0.143833	0.061378	-0.319907	-0.818378	0.167872	-0.351510	-0.230664	0.339174	0.034348	-0.031789	0.527616	0.439149	0.773098	0.203138	-0.112417	-0.147014	0.176048	0.119403	-0.062702	0.676634	0.025800	-0.025506	-0.249459	-0.219616	-0.027431	0.150887	0.375034	0.320684	-0.391092	-0.098134	-0.107361	0.049182	0.310370	0.165745	0.408303	-0.518843	0.192187	-0.190576	-0.152610	-0.315401	-0.763519	-0.140762	-0.532487	-0.386036	0.093680	-0.655751	-0.036465	-0.015881	0.069052	0.372921	0.033654	0.412311	-0.031018	0.362051	-0.349923	0.331128	-0.381367	0.770308	-0.096957	-0.004849	-0.289182	-0.430596	-0.696004	-0.358247	0.392356	0.247120	0.348846	0.095741	-0.219401	0.106492	0.835340	-0.084534	-0.345508	0.462766	-0.235115	0.280811	0.323882	0.023283	0.434322	-0.207532	-0.321175	0.497439	-0.398795	0.329606	-0.147880	-0.409767	-0.235025	0.325705	0.213431	-0.019487	0.113247	-0.019642	0.075886	0.764228	0.053320	-0.138930	-0.158709	-0.152065	0.255165	0.366344	0.476051	-0.062444	-0.217279	-0.287261	0.251944	0.147225	-0.625554	-0.409228	-0.258288	-0.359496	0.061089	0.328043	0.113912	-0.113997	0.139799	-0.531006	-0.199439	-0.208827	0.260354	0.588902	0.045942	-0.222797	0.238505	0.143280	-0.245450	0.106274	-0.296032	0.338587	0.276431	0.399746	0.061038	0.211716	-0.136434	-0.355052	0.622572	0.376869	0.258806	-0.586757	-0.512638	0.167547	-0.953115	-0.220561	0.057353	0.010219	-0.301888	-0.369979	-0.682365	0.149457	0.294421	0.405092	-0.134060	-0.441242	-0.384690	-0.157630	0.178458	-0.456795	-0.206419	-0.416613	-0.169513	-0.105926	-0.039883	-0.196068	-0.278607	0.161895	-0.351164	-0.423652	-0.027400	0.070290	-0.079573	-0.096331	-0.000568	-0.218201	-0.470545	0.093625	-0.459513	-0.472987	0.261729	-0.236229	0.144085	-0.061105	0.290220	-0.572901	0.038550	-0.236708	-0.222270	-0.093084	0.044496	0.373683	
0.133504	0.100864	0.022848	0.745163	-0.297716	-0.079907	-0.063170	-0.051967	0.091954	0.281471	-0.183067	0.122142	-0.069093	-0.092276	0.311049	-0.080762	0.003837	0.246501	0.000513	0.257207	-0.113250	-0.230232	-0.052212	-0.212868	-0.375830	0.157325	-0.283085	0.303388	-0.071121	0.300585	-0.353769	-0.089841	0.123421	0.288223	0.040273	0.326779	0.341961	0.519626	-0.152637	0.089912	0.319657	-0.030259	0.051092	-0.219824	0.078659	0.426795	-0.211816	-0.269362	0.158130	0.215563	0.051144	0.141643	0.212062	0.039682	-0.610027	-0.052581	0.000587	-0.130141	0.011729	-0.371447	-0.112076	0.572720	0.366453	0.322561	0.082772	0.240182	-0.166106	-0.119586	-0.155113	-0.014961	0.127208	-0.358916	0.122376	0.425396	-0.259322	-0.039158	0.179425	0.333336	-0.176290	-0.308492	-0.209485	0.126910	0.083813	-0.405318	0.519211	-0.033451	-0.478142	0.183107	0.237437	0.563780	-0.373295	0.424235	0.509191	-0.411244	0.388064	0.269492	0.140721	0.036979	-0.346906	0.141749	-0.214424	-0.464515	-0.070506	0.457030	0.156750	-0.119919	-0.108131	0.071913	0.342454	-0.115284	-0.167462	0.326124	0.059437	0.008953	-0.416044	0.318141	-0.352932	0.102775	0.641190	0.189477	0.155720	-0.422045	-0.084477	-0.197685	-0.359499	0.174716	0.276242	-0.169198	-0.220266	0.393136	-0.079904	-0.176897	0.071152	0.182056	-0.299713	-0.528283	0.276962	-0.108842	0.082353	-0.040735	0.129979	0.229325	-0.194859	-0.147868	-0.069116	0.224127	-0.499208	0.408101	-0.185976	-0.606774	0.312949	0.057440	-0.413257	-0.280949	0.272492	0.204046	0.271355	-0.438993	-0.142238	-0.044428	-0.355872	-0.052656	0.148137	-0.009027	-0.043636	0.226217	0.028742	0.150856	-0.437270	0.115744	-0.317467	-0.281449	-0.230304	0.186589	-0.018828	0.119473	-0.486818	-0.085678	0.172775	-0.486949	0.126701	-0.224282	-0.075284	0.148316	0.379263	-0.214884	0.121273	0.357165	0.348727	0.046411	-0.264545	-0.116761	-0.357016	0.045353	-0.042485	0.193598	0.123821	0.022441	-0.074782	0.176034	0.086076	-0.021940	-0.022770	-0.197044	-0.284151	0.086513	0.350155	-0.433262	-0.315279	-0.412349	-0.007154	0.022047	0.044779	0.398223	0.136746	-0.019233	-0.145662	0.407840	0.011010	-0.103848	0.142250	0.212944	-0.107347	0.549031	-0.029414	-0.132066	0.141310	0.229588	0.148943	-0.233359	-0.467651	0.131185	0.430624	-0.158009	0.290060	0.043413	-0.077325	0.207149	0.012048	0.359897	0.480371	-0.083922	-0.327277	0.180260	-0.233724	-0.249126	-0.101036	-0.144860	-0.371962	0.026916	0.225663	0.197689	0.078749	0.319846	0.102823	0.459135	0.001147	0.104137	0.012444	-0.282145	0.162359	0.060347	-0.284152	-0.261682	-0.105838	0.060042	0.156879	-0.081195	0.385854	0.191567	-0.323701	0.318800	-0.191903	0.034622	0.147663	-0.134204	0.473425	-0.277074	0.409756	0.359365	0.088302	-0.089017	0.264482	0.312995	-0.330301	-0.497430	0.046610	0.604757	0.169882	-0.431400	-0.242431	-0.162732	0.125831	-0.248270	-0.078575	0.148584	0.303240	-0.157342	0.231478	0.147835	
-0.011478	-0.200272	0.318365	0.013935	-0.602282	-0.096105	0.067228	0.171217	-0.330412	-0.143762	0.099954	-0.022536	0.154862	-0.111378	0.727715	0.080773	-0.093900	0.253942	-0.048044	-0.187862	0.354371	-0.081580	-0.437755	0.114499	-0.093798	-0.145520	-0.040634	-0.289423	0.124590	-0.238225	-0.493553	0.268087	-0.206718	-0.054869	-0.230512	-0.370316	-0.096228	0.058304	-0.335037	-0.254748	0.557119	0.124288	-0.367238	0.109956	0.096335	-0.444705	0.218556	-0.215801	0.329801	0.137840	0.014195	-0.272346	0.101370	-0.020082	-0.176128	-0.036644	0.075613	0.281906	0.347334	-0.212984	0.200098	-0.217421	-0.339668	0.584605	0.260717	-0.315667	-0.047974	0.227038	0.344771	0.107699	-0.102057	0.573380	-0.262911	0.205561	0.030000	0.128813	0.173019	-0.648868	0.155517	0.077673	-0.028645	-0.467391	-0.372901	-0.324736	0.405388	0.131326	0.537897	-0.783338	-0.446232	0.692967	0.225405	0.182699	-0.165161	-0.098264	0.393081	0.307206	0.105840	-0.559820	-0.104740	0.354720	0.266722	0.335492	0.027625	-0.005394	-0.033198	-0.295638	-0.392935	0.925436	-0.279743	0.006231	-0.086073	0.204911	0.067083	-0.028193	-0.110258	-0.351463	-0.191712	-0.294297	0.163666	-0.101225	-0.029062	-0.425581	0.413324	-0.156430	0.565463	-0.243480	-0.587439	-0.099301	0.161456	0.129404	0.289169	-0.019657	0.119461	-0.339982	-0.225949	-0.481287	-0.350934	0.267066	0.327786	-0.192183	-0.630563	-0.045418	-0.442835	0.031163	-0.204997	-0.172848	-0.143352	-0.602616	0.200956	0.286864	-0.231086	-0.067934	-0.674159	-0.272061	-0.465282	0.313098	0.408567	-0.294292	0.095220	0.018776	0.489161	0.555126	0.155060	0.764590	0.024816	0.484732	0.349302	-0.248250	-0.224182	0.376717	-0.256935	0.271988	0.201240	-0.231288	-0.361358	0.498338	0.312646	0.124457	-0.086643	-0.465683	-0.158017	-0.036894	0.779979	-0.226335	0.157432	0.791300	-0.479594	0.233563	-0.141100	-0.059787	-0.149676	0.223895	0.014318	0.262022	-0.002879	0.060709	-0.073549	-0.079823	0.187706	-0.027211	-0.222679	0.147328	-0.463483	-0.086049	0.018790	0.648566	0.208687	0.377517	-0.482299	0.333165	-0.424108	0.117402	0.071081	0.632544	0.191549	0.037419	0.668285	-0.108256	-0.470749	-0.528212	0.120099	-0.168338	-0.047898	-0.003624	-0.314513	-0.498198	0.304650	-0.119494	-0.250486	-0.144538	-0.174553	0.415345	-0.022963	-0.224986	0.443478	-0.027869	-0.026027	0.080548	-0.029399	0.243065	-0.141192	0.169023	-0.601267	-0.259749	-0.041044	-0.553702	0.338427	-0.248820	-0.030285	-0.596983	-0.085997	-0.438837	-0.662198	0.142819	-0.131874	-0.109831	0.396938	-0.420385	-0.375245	-0.145692	0.365389	0.269336	-0.093398	-0.387195	0.414102	-0.027829	-0.158827	-0.548345	0.411349	-0.279037	0.645205	0.119209	0.775222	0.361283	0.213719	0.429197	0.341773	0.007578	0.004619	-0.484417	0.246632	0.366206	-0.382367	-0.006492	-0.098628	-0.356820	-0.165217	-0.381744	0.099768	-0.069116	-0.332586	0.182127	-0.370601	-0.200018	-0.025570	0.527552	-0.287172	0.148423	-0.263531	-0.057010	
-0.143043	0.375662	0.274363	-0.048011	-0.193611	0.254660	0.298266	-0.109347	-0.280065	-0.364613	-0.163944	0.072122	-0.404582	0.083817	0.253860	0.630937	0.342280	-0.470952	-0.225743	-0.192557	0.489239	-0.734786	0.358660	0.042941	-0.336474	-0.651193	0.266859	0.088280	-0.455060	0.470160	0.728219	-0.313847	0.378725	0.122859	0.268420	-0.075596	-0.097573	0.040179	-0.068955	0.227003	0.012310	0.121655	-0.188122	0.354050	0.272047	-0.164218	-0.318312	0.257904	0.096384	0.215902	-0.235082	-0.311951	0.564494	0.278582	0.599595	-0.250000	-0.470513	0.091915	0.401112	-0.409743	0.157460	0.195573	-0.073510	0.071437	-0.296995	-0.084498	-0.074149	-0.360325	0.314320	-0.414798	-0.041924	-0.021188	-0.300797	-0.165901	-0.355335	0.057680	-0.132375	-0.029434	-0.461157	0.477042	-0.284813	-0.464049	-0.525548	-0.557071	0.052437	-0.476797	-0.235237	0.541767	0.238416	-0.116707	-0.469577	-0.172755	-0.234520	0.212470	-0.493873	0.281796	0.485883	0.243910	-0.121876	0.368678	0.460352	0.166008	0.022646	-0.034621	-0.016168	0.087177	-0.204338	-0.182455	-0.411985	0.262218	-0.373625	-0.192600	0.625911	-0.297528	-0.060211	0.311438	-0.326470	0.330689	0.239753	-0.329631	-0.554526	0.105309	-0.017878	-0.377723	-0.030712	0.284599	0.190529	-0.370761	-0.032980	-0.119774	0.342307	-0.026260	0.274369	-0.164015	-0.164244	0.060648	0.302758	-0.306567	0.112009	0.600903	-0.379832	-0.572002	-0.028202	0.353582	-0.130105	0.494116	0.091026	0.113082	0.118753	-0.330403	-0.163747	0.164582	0.367507	-0.442106	0.351584	0.689069	0.098948	0.504084	-0.457511	-0.614350	-0.644951	-0.612572	-0.089819	0.427946	0.279554	-0.451560	-0.004695	-0.028659	0.039766	0.040491	-0.471848	0.177758	-0.036349	0.326648	-0.506582	0.549693	-0.247092	0.045028	-0.049702	-0.175630	0.192501	0.557186	0.184476	-0.314770	-0.384624	0.195282	-0.013182	-0.287125	0.143311	0.146267	-0.158544	0.060646	0.253825	-0.423661	0.213059	-0.288082	-0.332587	-0.368884	0.143464	0.338805	-0.004686	-0.613361	-0.138813	-0.079997	0.438107	0.027274	-0.322586	0.293526	-0.455747	0.086984	0.017942	-0.531583	0.343443	-0.285159	-0.161103	0.097289	-0.400752	0.383891	0.067600	0.156816	0.005789	-0.511302	-0.041706	-0.228448	-0.679719	0.375754	0.271114	-0.169792	-0.299557	-0.088661	0.007761	0.046150	0.026557	0.475510	0.414452	-0.307146	-0.248808	-0.646451	-0.229103	0.393975	0.181745	0.541708	0.242587	-0.037877	-0.297233	-0.479822	-0.491261	-0.243751	-0.387316	0.337982	-0.253291	0.095684	0.047892	0.342972	0.325392	-0.462091	0.031584	0.091153	0.392680	0.220562	-0.420539	-0.300759	-0.247564	0.358922	0.697084	-0.422520	-0.251338	0.347430	-0.445900	0.074970	0.470445	-0.064966	0.276946	-0.390937	0.099259	0.219358	0.040595	-0.158689	0.100019	-0.833861	-0.068122	0.032435	0.404566	-0.292276	-0.208181	-0.340934	0.004963	0.431131	-0.117569	-0.573940	0.012759	0.442048	-0.386186	0.351618	-0.004605	0.140238	-0.443354	0.161194	0.649956	0.120684	
0.130333	0.244850	0.292810	0.632088	0.023971	0.022995	0.226154	0.465614	0.180840	-0.427983	-0.334051	0.324141	0.071022	-1.229955	-0.310578	1.105909	0.306855	0.184793	-0.162224	-0.229544	0.143374	-0.689685	-0.087618	0.122052	-0.567703	-1.080034	0.113969	-0.076705	0.055864	-0.035643	0.726334	-0.718470	0.268422	0.065977	-0.573424	-0.681296	0.686257	0.320014	-0.467511	0.258314	0.502264	-0.228709	-0.125725	-0.112452	0.182053	0.344497	0.003224	0.228457	0.282938	0.268328	0.194862	0.386930	0.131304	-0.114816	0.053708	-0.132575	-0.555763	-0.737782	0.227498	0.721826	-0.153230	-0.060661	0.331790	0.089047	-0.607332	0.595915	-0.098440	0.008799	0.055718	-0.348927	0.173494	0.269525	0.622964	-0.130708	-0.509801	-0.434123	-0.263394	0.248128	0.384097	-0.136181	-0.289207	-0.014414	-0.389629	0.193431	-0.283541	0.216799	-0.279428	-0.207306	0.261779	-0.127578	-0.084216	-0.238409	0.099219	-0.123430	-0.370883	0.587350	0.130776	0.284494	-0.288573	-0.235037	0.624900	-0.530349	0.717777	-0.093110	0.300829	-0.166924	-0.093202	0.029701	-0.255308	-0.485027	-0.553591	0.029610	0.636967	0.067209	-0.057871	-0.274783	0.472412	0.521980	0.465642	0.568154	0.079524	-0.318994	0.336040	-0.120411	0.149957	-0.338091	-0.274536	-0.580055	-0.519394	0.098026	-0.214840	-0.061041	0.703866	-0.091740	-0.512779	0.322556	0.402819	-0.436490	-0.095630	-0.360930	-0.712277	-0.421589	0.278865	-0.537194	0.389548	0.182205	0.026722	0.406318	0.526070	0.198395	-0.367627	-0.342992	-0.104391	-0.667411	0.306423	0.463771	0.112213	-0.308849	0.709278	-0.020558	-0.228108	0.136065	-0.072158	-0.265952	0.425477	0.038715	-0.272979	-0.009995	0.319568	0.389886	-0.280991	-0.461920	-0.114616	-0.226583	-0.797356	0.011407	-0.268139	-0.300243	-0.810162	0.290879	-0.446790	0.302934	0.167595	-0.721645	-0.244882	-0.072334	-0.348184	0.177164	0.556781	0.545903	0.507231	-0.205693	0.002066	-0.223181	-0.208790	-0.281490	-0.358622	0.449066	0.208515	0.532808	0.698462	-0.149472	-0.259316	-0.197810	0.053104	0.025127	0.320285	0.683577	0.177054	0.238804	0.218264	0.352181	0.245431	-0.343762	-0.380012	-0.036495	0.189581	-0.667265	-0.097082	-0.614072	-0.417625	0.449230	-0.187942	0.260931	-0.249559	-0.371699	-0.037268	0.215099	-0.354697	-0.495810	0.125832	0.269749	0.046653	0.098405	0.887695	0.396287	-0.490976	-0.024996	0.071028	0.992644	-0.304197	-0.126597	0.219614	0.203483	-0.181553	0.147829	-0.486798	-0.779916	0.579802	-0.131058	-0.278632	-0.476840	-0.650853	0.484316	0.219294	-0.137947	0.518840	-0.373340	-0.553869	-0.476463	-0.291824	0.014011	0.164847	0.326522	0.207229	0.206497	0.197767	-0.356864	-0.554550	-0.098950	0.773792	-0.062224	0.646917	-0.148848	-0.222376	-0.160716	-0.343980	-0.468258	0.312851	-1.000392	0.086879	0.290038	0.258107	0.047754	0.075845	-1.048082	-0.107673	-0.034371	-0.067832	-0.069285	-0.022443	-0.376023	-0.467817	-0.251120	0.843919	-0.207923	-0.636202	0.371959	0.282349	-0.251012	
-0.264683	0.061716	0.088232	-0.213347	-0.282464	0.352871	-0.153715	0.110679	0.305152	0.226983	0.449334	-0.271069	0.049525	-0.596317	-0.330412	0.116023	0.040896	0.128847	-0.377901	-0.650407	-0.295178	-0.666062	-0.530513	0.100178	-0.205405	-0.937816	0.532863	0.008555	0.188046	0.029827	0.383681	-0.341453	-0.475655	-0.392210	-0.349347	-0.325766	-0.512788	0.222657	0.083648	0.477133	0.195869	-0.165455	-0.199858	-0.386854	0.557257	0.016227	-0.311971	0.223086	-0.024940	0.667760	-0.053943	0.004385	0.507090	0.318151	0.320704	-0.413495	0.331522	0.042466	0.024755	0.186107	-0.134292	-0.380937	0.080551	0.013893	-0.130824	0.492013	-0.231401	0.366477	-0.110226	0.104819	0.089523	-0.591836	-0.078748	0.403423	-0.498294	-0.378823	-0.185512	-0.100423	0.542658	-0.042100	-0.003742	-0.291497	0.439305	-0.215131	0.050397	0.546376	0.054520	-0.456575	-0.062128	0.036074	0.434194	0.228822	-0.032239	0.023679	-0.005914	0.709076	0.218181	0.329647	0.162343	0.289752	0.576080	-0.042546	-0.113507	-0.141052	-0.295190	-0.180293	-0.212500	0.032317	0.383600	-0.416785	-0.433302	-0.020472	0.190693	-0.438962	0.347025	0.277234	0.308287	-0.066125	-0.092585	-0.007103	-0.240219	-0.333613	-0.043276	-0.441602	0.430029	-0.463113	0.420830	-0.358532	-0.336212	0.227782	-0.668025	-0.586301	1.059351	-0.508155	-0.547150	-0.336729	-0.127495	0.170877	0.304507	-0.139452	-0.111490	-1.015901	0.022031	0.416694	-0.537018	0.529544	0.227612	0.475597	0.616962	0.377408	0.316093	-0.157378	-0.287657	-0.328739	-0.036085	0.349547	0.548510	-0.007909	0.365966	-0.693493	-0.754194	0.219480	-0.700989	-0.767773	0.705170	-0.418259	-0.211216	-0.010004	0.413741	-0.647344	-0.151474	0.077474	-0.521275	-0.075236	-0.115372	-0.342426	0.433569	-0.461074	0.051192	0.134448	-0.608939	0.518801	-0.373280	-0.701203	-0.036902	0.364142	0.518281	-0.380215	-0.013240	0.406439	0.226491	-0.071465	0.234896	-0.029636	-0.072327	0.101319	0.395197	0.222412	0.339699	0.259710	0.424433	0.062181	-0.336453	0.305194	0.856916	0.546407	0.586719	0.740102	0.073377	0.217109	0.027828	0.354989	0.471448	0.539303	0.416882	-0.470107	0.359487	0.258447	-0.013157	-0.610145	-0.248169	-0.016403	0.294793	-0.246491	0.373534	-0.149940	0.019727	0.080284	0.617445	-0.220850	-0.234498	0.264438	0.693900	-0.031868	0.160104	0.333697	-0.318593	-0.114452	0.041684	0.840358	0.179380	-0.264656	0.423018	0.322406	-0.315713	0.185074	0.311875	-0.404689	0.310498	-0.558825	-0.188100	-0.328364	-0.269058	-0.182841	-0.212148	-0.146460	-0.129477	0.028083	-0.580016	-0.155490	-0.721903	-0.515505	-0.563215	-0.456308	0.450951	0.073185	-0.567603	-0.017544	-0.788743	0.216634	0.276703	-0.454888	0.119565	-0.017048	-0.213746	0.207045	-0.409806	-0.614266	0.550534	-1.074566	-0.380996	0.073998	-0.048772	0.199030	0.026176	-0.779316	-0.298987	0.452650	-0.508421	-0.261640	-0.294448	-0.093022	-0.072721	-0.210899	0.200294	-0.684968	0.259147	-0.103469	0.571515	0.236849	
-0.092465	0.067570	-0.576666	0.232790	-0.168813	-0.004446	-0.428958	0.054425	-0.142632	-0.520581	-0.032126	-0.086125	0.007936	-0.129860	-0.283874	0.068519	-0.677604	-0.059360	0.259469	-0.449403	0.258309	-0.563029	-0.380024	-0.195321	-0.060500	-0.333383	0.096089	-0.221237	-0.343040	0.043912	0.740181	-0.224662	0.504948	-0.710913	0.269932	-0.424125	-0.312028	0.575015	0.141743	0.291394	-0.241123	-0.465680	0.545789	0.062911	0.569218	-0.126648	0.126727	-0.476210	0.680875	0.333678	-0.464266	0.202489	0.366308	0.032285	-0.485962	-0.319708	-0.317820	-0.086372	-0.056796	-0.007646	0.304825	-0.038276	-0.049103	0.868307	-0.085924	-0.094329	0.353070	0.417234	-0.216500	-0.105908	0.081530	-0.291510	0.633781	-0.006407	-0.614134	0.228177	0.083117	0.063522	0.987098	-0.268608	0.120280	-0.475880	-0.510335	-0.311203	-0.209873	-0.341334	0.164771	-0.055427	0.410773	0.125005	0.388214	0.421405	0.301223	0.019292	-0.281067	-0.048039	0.600926	-0.190316	-0.397838	-0.431035	-0.078819	0.146731	0.205951	0.724620	0.367770	0.335146	-0.062129	-0.095655	0.113151	0.330467	0.425792	-0.205525	0.792024	-0.396263	0.087986	-0.234383	-0.367617	0.043508	0.505660	0.752257	-0.342147	0.127364	-0.461232	-0.042364	-0.548193	-0.080508	0.229359	0.221254	-0.439388	0.095933	-0.515809	-0.274800	0.282789	0.229676	-0.725785	-0.206968	0.115612	-0.432585	0.276178	-0.077527	0.257118	-0.319719	-0.259276	0.353948	0.080627	0.166239	-0.129296	0.602913	0.288119	-0.472104	0.233947	-0.481495	0.485490	-0.595372	-0.114300	0.530701	0.275144	-0.452469	0.329762	0.409793	-0.030495	0.260258	0.175714	0.399639	0.217927	-0.537866	-0.371258	-0.448226	-0.378019	0.356451	-0.290546	-0.660670	0.104408	0.532686	0.227320	0.077743	-0.344146	-0.626379	-0.564689	-0.031097	-0.443964	-0.254228	0.190397	-0.595449	-0.241144	-0.113599	0.724539	0.359382	0.085225	0.509934	0.581768	-0.516617	0.474058	0.280511	0.251116	-0.386852	0.705133	-0.524369	-0.158365	0.557108	-0.445848	0.173431	-0.430651	-0.052862	0.502803	0.763893	-0.258323	0.574180	-0.639471	-0.048357	0.004448	-0.368512	0.009510	0.160706	-0.132968	0.186826	0.338908	-0.278389	0.456060	-0.599909	-0.666340	0.010630	-0.221084	0.453854	-0.248261	-0.359037	0.220845	-0.160745	-0.178194	-0.488808	-0.225807	-0.335265	0.576169	-0.166752	0.427209	-0.098946	-0.512805	0.460983	-0.411621	-0.016796	0.253434	-0.492859	0.339963	-0.617064	-0.271795	0.316204	0.242518	-0.290363	-0.206532	-0.010942	-0.243057	0.008209	-0.502555	0.007947	-0.372012	-0.341609	0.127355	0.223360	0.254257	0.291264	-0.048773	0.298067	-0.389101	0.057282	0.760182	0.393667	-0.488089	-0.738638	0.091460	-0.004266	-0.318085	-0.304250	0.282518	0.029476	-0.080941	-0.130887	-0.452471	-0.366163	0.285056	-0.389895	0.556678	-0.217779	0.544871	-0.359564	0.079624	-0.757405	0.018247	-0.419518	0.066219	-0.598793	-0.384999	0.347568	0.503118	-0.302496	-0.179621	0.449546	-0.212747	0.160933	0.414782	0.484731	
-0.187708	-0.542280	-0.342048	0.476517	0.454923	0.500723	-0.599056	-0.464253	-0.247974	0.310058	0.238315	0.521725	0.309959	0.076403	0.406213	0.237190	0.197603	-0.106233	-0.028877	0.099778	0.037499	0.130817	-0.304685	0.116324	0.247969	-0.101065	0.165036	0.468378	-0.152366	-0.005776	0.574971	0.267910	0.105279	-0.756417	0.051865	-0.533397	0.217168	0.228360	-0.043980	0.591590	-0.055917	-0.313439	0.300610	-0.348812	-0.405142	0.534799	0.009785	0.532269	0.001590	-0.252960	-0.009122	0.474367	0.253533	-0.279679	0.091864	0.151103	0.419831	-0.565996	0.131125	-0.041864	-0.286024	-0.114109	0.233350	0.894322	0.091557	-0.053576	-0.305508	-0.108777	-0.555438	-0.167585	-0.247107	-0.209162	0.347820	0.604408	-0.049238	-0.730381	0.213252	-0.402119	1.115587	-0.663458	0.138041	0.261501	0.351852	-0.326909	0.195787	-0.023471	-0.522349	0.026202	0.379037	0.571178	0.383318	1.043434	-0.216186	0.312461	0.242525	0.300651	-0.217880	-0.396810	-0.524328	-0.724972	0.437054	-0.094572	0.337139	-0.013031	-0.372556	-0.095602	-0.189232	-0.816723	0.082928	-0.124702	-0.503210	-0.233151	-0.120961	-0.385968	-0.042247	0.344757	-0.058184	0.214226	-0.074659	0.196110	-0.743758	-0.311696	-0.792363	0.032404	0.424133	-0.891380	-0.290491	-0.539427	-0.598847	-0.439350	-0.331723	0.455434	0.455157	-0.436650	-0.405652	0.320192	0.000832	-0.611464	0.205122	-0.256505	0.103118	-0.261888	-0.523871	0.341035	0.153039	0.692333	0.206298	0.295750	0.198385	-0.507227	0.107930	0.059850	-0.070159	-0.134512	-0.454108	-0.095252	0.033979	-0.412360	-0.035596	0.404164	0.006942	0.036648	0.001476	0.044362	0.496129	-0.489519	0.015461	-0.441705	-0.536159	-0.268259	-0.106717	0.220610	-0.578266	0.262829	0.072605	0.529677	0.183342	-0.483339	-0.691387	-0.660694	-0.317085	0.231964	0.116793	0.236653	-0.312120	0.367843	-0.118427	0.307922	-0.250339	0.123813	0.454133	-0.160691	-0.100112	-0.440866	-0.698893	0.452444	0.078629	0.017200	-0.251314	-0.010118	0.515299	0.098666	-0.409384	0.498717	-0.034721	0.342337	0.465539	-0.414870	0.321465	0.630465	-0.639648	-0.304524	-0.123826	0.445056	-0.351936	0.343167	0.406714	-0.338124	0.468238	-0.166461	0.089708	0.020832	0.728648	-0.105077	0.291624	-0.453931	-0.555273	-0.286870	0.465869	-0.440530	0.066232	0.290523	0.596269	0.200448	0.081219	-0.440405	-0.384080	-0.161973	-0.473317	-0.055408	0.120366	-0.109017	0.281458	-0.689887	-0.657416	0.187608	-0.600419	0.150212	0.453333	0.236446	-0.251903	0.485497	-0.105516	-0.174974	0.391446	-0.480659	0.044846	0.384556	-0.221560	-0.230600	-0.647887	0.453883	0.530836	0.343834	-0.107555	0.378661	-0.471229	-0.280908	-0.097985	-0.160047	-0.300367	-0.465455	0.246798	0.369795	0.004966	0.434293	-0.316381	-0.246996	0.383687	-0.142977	0.073503	0.057014	-0.112253	0.181701	0.021705	-0.129661	0.216795	-0.685768	-0.395315	-0.657834	-0.200712	-0.112179	0.426934	-0.398069	-0.293345	-0.248508	0.581615	-0.035996	0.090269	0.404770	
0.461833	-0.664460	-0.362715	0.207981	0.584896	0.355563	-0.256749	0.057272	-0.378617	-0.472910	0.467305	0.151157	-0.226609	-0.290427	-0.584221	0.472207	0.001234	-0.694269	-0.094560	0.163571	-0.554298	-0.497227	-0.657438	-0.282300	-0.261338	-0.708868	0.058357	-0.045619	0.250589	0.425795	-0.236066	0.194047	-0.512074	-0.318305	-0.307437	0.442826	0.064351	0.379121	-0.058627	0.626933	0.460132	-0.281589	-0.145064	-0.385954	0.201903	0.125557	0.341246	0.054430	0.106013	0.243753	-0.526520	0.014833	-0.035520	0.130349	0.402286	0.426763	0.451615	-0.329553	-0.317126	0.300772	-0.647044	-0.316812	-0.097274	-0.023886	-0.095899	0.071444	-0.548851	0.055204	-0.448749	-0.274791	-0.230388	-0.334985	0.453759	-0.014512	-0.311102	0.071623	0.384382	-0.345107	-0.143676	-0.385772	0.517703	0.190335	-0.574944	-0.175378	0.471686	0.331778	-0.125594	-0.114302	0.677157	0.494524	-0.388760	0.045496	0.482169	-0.079079	-0.449269	0.083452	0.766873	-0.289167	0.083716	-0.735483	0.436182	0.390610	-0.099682	0.060034	-0.438074	0.220210	-0.366283	-0.692789	0.394367	0.155450	-0.054736	0.516038	0.666680	0.062095	-0.236446	0.159170	-0.170385	0.474251	-0.241204	0.389394	-0.442070	-0.356684	-0.392409	0.102690	0.263048	-0.112735	0.240754	-0.015022	0.444711	-0.137327	-0.202540	0.158856	0.178850	0.381570	-0.530221	0.012473	0.168823	0.267702	0.003111	0.052884	-0.121698	-0.819805	-0.644668	-0.401401	0.143914	0.695715	0.446638	0.109931	0.251538	-0.510240	0.007142	-0.358861	-0.066022	0.206815	0.025339	0.539101	-0.020275	-0.153846	0.047447	-0.001827	0.392277	-0.602506	0.179315	-0.059701	0.860992	-0.142820	-0.205352	-0.034716	-0.380945	0.246709	-0.607204	-0.206801	-0.547120	-0.013121	0.358563	0.343283	-0.322874	-0.052866	-0.038460	0.096375	-0.125597	-0.407911	0.044745	0.359102	0.266620	0.113158	0.563740	-0.302646	0.308732	-0.049000	0.312053	-0.150793	0.059442	-0.041996	-0.323441	0.058599	0.530314	-0.137427	0.584914	0.384610	0.005299	0.467358	-0.195850	-0.100006	-0.008032	0.645042	-0.099891	0.128917	-0.066314	0.377986	-0.628001	-0.387496	-0.635682	0.521429	-0.301019	0.237168	0.028725	-0.420182	0.085777	0.177546	-0.522295	0.280029	0.084369	0.423524	-0.136210	0.071859	-0.533960	-0.349329	-0.397572	0.169880	-0.321798	-0.140789	0.792720	-0.063327	0.229924	-0.550650	-0.338081	0.281815	-0.148106	0.449022	0.465128	0.370274	0.647371	0.162564	0.012194	-0.544985	0.223086	-0.376430	-0.350789	0.167696	0.356316	0.082844	0.398988	-0.219854	-0.388211	-0.376299	0.342181	-0.428367	0.086293	0.244266	-0.740022	0.266134	-0.183532	0.302009	0.474423	0.885112	-0.606807	-0.714593	-0.068662	0.191971	0.034034	-0.166825	0.248784	0.193480	0.049152	-0.266093	0.163111	-0.671166	0.025230	0.422489	-0.225359	-0.022301	0.165433	0.263889	0.225627	0.044064	-0.390073	-0.088036	0.059230	-0.078739	-0.035851	0.566746	-0.075415	-0.094514	0.277576	-0.140507	0.270591	0.356813	-0.339068	-0.022246	
0.194732	-0.670667	-0.224787	-0.550711	0.353931	0.314426	-0.040249	0.070405	0.261019	0.093883	-0.022664	0.748509	-0.206270	0.105717	0.234411	0.561279	-0.186065	-0.679653	-0.147795	-0.557973	0.060494	0.383719	-0.702353	-0.535431	-0.132065	-0.334622	-0.231955	-0.097937	-0.336774	-0.120954	0.359353	0.265645	0.035349	0.185774	0.228666	-0.431098	-0.430636	-0.165214	0.423739	-0.275726	-0.205855	-0.050969	0.195778	-0.160373	0.031376	0.185859	-0.104487	0.845947	0.269149	0.402116	-0.614514	-0.295143	0.104245	0.045499	-0.209622	-0.223380	0.480227	0.074013	-0.072012	-0.012314	0.168971	0.303521	-0.163639	0.291864	0.170520	0.690215	0.137262	0.658415	-0.247763	0.079511	-0.594910	0.014338	-0.348023	0.395210	-0.771945	0.241450	0.100741	-0.161765	0.340118	-0.342508	-0.112829	0.575153	0.187101	-0.518323	0.597358	-0.354761	-0.371853	0.106900	0.177096	0.429079	-0.472694	0.438950	0.213287	-0.401528	-0.548577	-0.058767	0.079760	0.446731	-0.148443	-0.155302	-0.046743	-0.226376	-0.381355	0.140495	-0.186309	-0.266031	-0.271381	0.191928	-0.184563	-0.323201	-0.402085	0.323361	0.730987	0.427458	0.315351	0.285671	-0.371809	0.152234	0.364408	0.760218	-1.007852	0.211425	-0.281445	0.126082	0.531088	0.126013	0.531402	-0.396339	0.201923	-0.378508	0.004048	-0.235695	0.536356	0.401306	-0.545101	0.351429	0.222122	0.484980	-0.077244	-0.225930	0.452913	-0.094966	-0.698600	0.066130	0.463098	0.142689	0.265053	0.965009	-0.051561	-0.353394	0.404332	-0.034538	-0.203628	-0.280223	-0.481683	-0.231657	-0.129451	0.463979	-0.346006	0.798128	-0.049095	0.241735	-0.317153	-0.035556	0.113465	0.180179	-0.024778	-0.495126	0.062038	-0.439931	-0.276291	-0.125045	-0.527248	0.196445	-0.000249	0.433534	0.316097	-0.473795	-0.020015	0.393144	-0.207899	0.176370	-0.389673	0.101459	-0.592575	0.217023	0.316266	-0.391274	0.030460	0.431727	-0.178449	-0.104372	0.212013	0.006720	-0.602924	0.534049	-0.093109	-0.044373	-0.148964	0.401515	0.360957	0.149401	-0.085373	0.220847	-0.483182	0.650758	0.471633	0.212992	-0.453475	0.122951	-0.270051	0.040719	-0.390004	0.388400	-0.171354	-0.155648	-0.120262	0.259121	0.438709	-0.376198	-0.360913	0.088905	0.633734	-0.141479	-0.120526	0.560478	-0.375870	0.343973	-0.115619	-0.588002	0.345504	-0.290571	0.472003	-0.308731	-0.369222	-0.007338	-0.557668	0.328524	-0.268731	-0.147739	-0.055313	0.468830	0.289423	-0.026446	-0.004316	-0.000088	0.663006	-0.268691	0.099774	-0.085528	0.123574	-0.294741	-0.001914	-0.100340	-0.188998	-0.552407	-0.045364	-0.340693	0.226020	0.657047	-0.489124	0.524265	-0.295329	-0.432411	0.261791	0.295419	0.241052	-0.099574	0.121248	-0.270566	-0.046785	-0.640737	-0.058567	-0.188035	0.461246	-0.533219	-0.611537	0.082190	-0.175507	0.275413	0.353787	0.464206	0.483844	-0.729701	-0.234209	-0.474839	-0.445791	0.156088	-0.333520	0.199340	0.166619	0.395526	0.320867	0.151035	0.248616	-0.313718	0.572593	0.094467	0.342901	0.596308	
