-0.094164	0.003520	-0.045895	0.563792	0.279265	0.287677	-0.165649	0.111450	0.308343	-0.126171	-0.174163	0.368803	0.545141	-0.368124	-0.067696	-0.141938	0.314462	0.373870	-0.320114	-0.058710	-0.063827	0.119446	0.324164	-0.448045	0.474160	-0.575602	0.055593	0.579399	0.079642	0.402150	-0.090049	0.460639	-0.249280	0.486000	-0.068157	0.483916	0.743412	0.202179	-0.065945	0.348416	-0.313256	0.071353	-0.020246	0.578407	0.229542	0.469104	0.025440	0.167114	-0.126441	-0.342787	0.287503	0.149606	-0.493065	-0.346182	0.070932	0.612793	-0.216166	-0.100889	0.365350	-0.524329	0.163636	-0.305379	0.413170	0.458826	-0.336281	0.211565	0.512126	-0.403351	0.332725	0.287164	0.356977	0.375312	0.263050	-0.284139	0.666436	-0.169147	0.427138	-0.684708	0.367126	0.447312	0.028804	0.196406	-0.283991	0.187063	0.644781	0.274796	0.324185	0.225455	0.334929	-0.275282	0.099367	-0.046064	-0.023711	-0.097507	0.024818	0.324305	0.597335	-0.158173	0.442019	0.371020	-0.581821	0.079956	0.173037	0.084538	0.061246	-0.112475	-0.369811	-0.272260	0.207074	0.771640	-0.050111	-0.506257	0.114667	-0.205019	0.253447	0.121841	-0.395460	-0.233850	0.507324	-0.248204	0.043476	-0.264426	0.133884	-0.600586	0.031800	-0.434039	0.217477	0.088244	-0.433414	0.237561	-0.321023	-0.309469	-0.479949	0.518286	0.362696	0.389790	-0.600273	-0.722200	-0.333355	-0.074854	0.356881	-0.093572	0.040319	0.153972	0.156755	-0.231192	0.688377	-0.320579	-0.008192	0.563769	-0.456709	0.273232	-0.226493	0.365277	-0.705558	0.344553	0.580121	0.269116	-0.017682	0.230352	-0.057061	0.035158	0.467437	0.055803	-0.332690	0.540217	-0.449947	-0.118638	0.422455	-0.214433	0.277799	0.335330	0.144219	-0.109741	-0.247833	0.268042	0.225095	0.176416	0.265169	-0.346877	-0.284915	0.032416	-0.362319	0.055310	-0.498531	-0.424630	-0.670901	0.017440	0.327429	0.032952	-0.048256	-0.262451	0.179090	-0.047082	0.196021	-0.581896	0.098967	0.468329	0.108704	-0.054636	0.561652	-0.473113	-0.476439	-0.032318	-0.122150	0.114160	0.464297	0.343687	0.645899	-0.231493	0.677174	-0.346377	0.439722	0.672647	-0.281789	0.346826	-0.133728	0.082895	0.269525	0.414961	0.206399	-0.635593	0.318407	0.069171	0.200692	-0.010021	-0.017145	0.256359	-0.088573	0.343160	-0.200621	-0.283498	0.150022	-0.244552	0.102123	-0.537412	0.203228	-0.173567	0.629321	0.250174	0.275617	0.418229	0.337850	0.111563	0.412833	0.621310	-0.181081	0.316371	-0.049003	0.191328	0.280176	-0.261821	0.792287	0.129325	-0.135852	-0.331136	-0.184439	0.757172	-0.240607	0.006701	0.154073	-0.166929	-0.433788	-0.111286	-0.082478	-0.168775	0.074132	0.092780	-0.038573	0.089731	0.427758	-0.461353	-0.137634	0.082570	0.106982	-0.163477	-0.280635	0.466266	-0.309125	0.307988	0.043637	0.468944	0.376277	-0.100482	-0.360514	-0.148275	0.801857	-0.153711	-0.206936	0.558001	0.552050	0.213674	-0.126433	-0.238394	-0.212398	0.256008	-0.082436	0.184833	0.781505	0.216587	
-0.361876	0.225688	0.580065	-0.024338	0.491887	0.212150	-0.024325	-0.056728	0.147343	0.586874	0.557425	-0.298105	0.028683	0.293760	0.365923	0.432032	0.498383	0.197616	-0.208063	-0.245161	-0.364836	-0.357013	0.547276	0.025355	0.136513	-0.329556	-0.393842	0.174136	-0.296606	-0.168334	-0.227337	-0.218481	0.026174	-0.378688	0.006255	0.345686	0.495906	-0.201415	0.527122	-0.034780	-0.244205	0.524653	0.160328	0.391168	0.314928	-0.079202	0.424539	0.040350	0.375700	-0.638992	0.054063	-0.645831	-0.564664	0.247593	0.407023	0.300680	-0.441232	0.284018	-0.647598	-0.481179	0.342945	-0.164458	-0.056231	-0.129439	0.191553	-0.250516	-0.131174	0.142237	0.195787	0.283011	-0.255544	0.446996	0.036044	0.506718	0.288403	0.200099	-0.167164	-0.395731	-0.412922	0.571512	0.152173	0.515863	0.375085	0.128478	0.290821	0.119439	-0.164461	0.332279	-0.246249	-0.202633	0.389732	0.563634	0.367052	-0.258456	-0.428313	0.002995	-0.295923	-0.093918	-0.175219	0.656719	-0.360012	-0.335695	0.269838	-0.595369	-0.480035	-0.041802	0.175006	-0.141703	0.378219	0.520623	-0.168772	-0.177674	0.236474	-0.679909	-0.654988	0.289985	-0.085399	-0.338676	0.030204	0.266390	0.221104	-0.259012	0.234455	0.198639	-0.123780	0.480072	-0.482408	0.006097	-0.402294	-0.022128	0.040069	-0.119098	-0.060770	-0.148658	0.089049	0.356846	-0.082270	-0.172403	0.329286	-0.144855	-0.468971	0.540639	0.210578	-0.489513	0.332092	0.132379	0.574487	0.026385	-0.521704	-0.010436	-0.583830	0.051716	0.250194	0.337233	-0.602330	-0.258844	0.642785	-0.285601	0.378857	-0.363908	-0.028067	-0.052829	0.150221	-0.314278	-0.141054	-0.443085	0.334684	-0.364238	0.077830	0.194541	0.127230	0.182186	0.174810	-0.155504	0.576723	0.311246	-0.622794	0.784055	-0.136997	-0.500786	-0.460390	-0.060843	0.214271	0.585060	-0.312998	0.336478	-0.582283	-0.510482	-0.443245	0.352938	-0.395782	0.066394	-0.325319	0.339717	0.478253	0.214428	-0.395310	0.288646	0.534986	0.236921	-0.129305	-0.103995	-0.301071	-0.663587	0.048418	-0.123633	0.326590	0.160132	-0.157642	0.177084	0.319864	-0.033895	-0.225630	0.006042	-0.458443	-0.108316	-0.038644	0.062670	0.321027	-0.124216	-0.217557	0.356420	-0.537114	0.349518	0.148818	0.239819	0.198691	0.438262	0.308989	0.074654	-0.129361	0.548870	0.152089	0.317790	0.825989	-0.087276	-0.474368	-0.007136	-0.335120	0.089583	-0.292023	-0.103045	0.556229	0.502701	-0.448938	-0.260764	-0.802751	-0.153237	-0.041906	0.205371	0.307631	-0.705440	0.501613	-0.000653	0.052261	-0.179371	0.263591	-0.231416	0.667510	-0.425526	-0.051973	-0.130565	-0.679398	-0.127347	0.538604	0.058431	0.260121	-0.270323	0.304700	0.302320	-0.290355	-0.370127	-0.156390	-0.547483	0.250887	0.060751	-0.643222	0.394102	0.197998	0.437963	0.135678	-0.034092	0.400314	-0.288084	-0.569273	0.196765	0.544412	0.159664	0.308732	0.152330	0.710830	-0.449148	0.162434	-0.468627	0.148122	0.125112	-0.056241	-0.008195	0.708961	-0.167856	
-0.028349	-0.145913	0.149454	0.404689	-0.388176	0.148727	-0.403179	-0.189618	0.040979	0.431418	-0.057899	-0.489646	-0.089190	-0.401325	0.243293	-0.296867	0.285583	0.477658	-0.501470	0.059581	0.021249	0.458733	0.448287	0.001176	-0.211666	0.099556	-0.314319	0.246909	-0.062033	0.443778	0.339235	-0.037182	0.474074	0.067794	-0.497449	-0.248217	0.447456	-0.344721	-0.007000	-0.466124	-0.396217	0.000805	-0.256348	0.000817	0.257533	0.187412	0.402997	-0.308836	0.288010	0.045546	0.256368	-0.197961	-0.030030	-0.229975	0.115243	0.406532	-0.163704	0.137270	-0.125960	0.230187	-0.187742	-0.264086	-0.140107	-0.541863	-0.071930	-0.199971	0.049476	-0.226422	0.507207	-0.046452	-0.053483	-0.342096	-0.263640	0.051522	0.024862	0.247198	-0.101798	-0.473899	0.391321	0.449237	0.316082	0.263757	0.391629	-0.287175	-0.182762	0.054613	0.028536	0.347049	0.705356	0.120686	-0.096464	-0.162021	0.210197	-0.049168	0.089399	-0.440596	0.826552	0.411494	-0.249997	0.607246	-0.328457	-0.001342	0.373414	0.016947	-0.578764	-0.330100	-0.018463	-0.422211	0.051509	0.009572	-0.069394	-0.320971	0.371358	-0.644664	-0.101667	-0.392726	0.177922	0.486141	0.396221	0.147248	0.116849	-0.578379	0.290528	-0.389911	-0.032143	-0.291519	-0.136624	-0.162898	0.369507	0.286687	-0.398086	-0.147692	-0.386678	-0.447022	0.459432	0.096980	-0.391873	-0.328667	0.050252	-0.098565	-0.002547	0.390287	0.266580	0.117966	0.305249	-0.478434	0.493090	0.111783	0.650315	0.451491	0.423725	-0.119926	-0.062549	0.346407	0.144528	-0.060180	0.565444	-0.364097	0.285472	-0.070131	0.293456	0.250977	0.677156	-0.158282	0.376191	0.539877	-0.155216	-0.362135	-0.445931	-0.441246	0.138408	0.059461	0.221411	-0.118597	-0.167811	0.392491	-0.171615	0.633131	-0.111906	0.123018	-0.000358	0.446261	0.548294	-0.170321	-0.003489	0.222838	-0.103994	-0.261582	0.093302	0.470365	0.400771	0.172978	0.317245	0.494879	0.308975	0.410527	0.333827	-0.171834	-0.217714	0.766529	-0.242571	0.096671	0.293808	0.518167	0.455177	0.652712	0.287343	0.049113	0.634611	-0.013360	0.226665	-0.112855	0.317762	0.461466	-0.099547	-0.295635	0.229833	0.544473	-0.016072	-0.456957	0.356630	-0.460144	-0.083486	0.361556	-0.111573	-0.382864	0.114469	-0.374180	0.060092	0.427478	-0.491070	0.067085	-0.391462	0.445806	0.161017	-0.191519	0.070098	-0.604819	0.411666	0.371623	0.391973	0.064425	-0.036349	-0.087367	-0.132683	0.284186	0.112794	0.032794	0.106136	0.629823	0.274572	-0.055369	-0.046715	-0.407010	-0.369186	-0.048856	0.196241	0.491592	0.107481	-0.401003	-0.090187	0.165251	0.003897	0.151109	-0.422779	-0.372959	-0.194648	0.574208	-0.337799	0.614371	0.238137	-0.512639	-0.146831	0.340589	0.132715	0.167071	0.031409	-0.259154	-0.486998	0.334821	-0.260861	0.386924	-0.187871	-0.148088	-0.450904	0.352277	0.819447	0.308645	-0.345441	0.123459	0.298439	0.146149	-0.524918	-0.312465	0.034625	-0.128251	0.017129	0.134133	-0.353644	0.274893	
-0.198102	0.459806	0.549524	0.051280	-0.201967	0.401893	-0.353760	0.302731	0.392731	-0.022392	0.113660	-0.536559	-0.444422	0.222053	0.283683	-0.487104	-0.311514	0.214031	0.099622	0.292801	-0.568636	-0.067451	-0.237904	-0.432466	0.467074	0.121848	-0.142942	-0.168190	0.032749	0.326591	0.499588	0.196445	0.044206	0.336564	-0.260879	0.632174	0.111385	0.051073	0.178010	-0.352808	0.307288	-0.138121	0.031410	0.521700	0.547499	0.380292	0.644361	-0.440577	0.051492	0.150132	0.007613	-0.074566	-0.692332	0.031350	0.573443	0.546406	0.064067	0.668862	-0.743203	0.412867	0.155135	0.523214	0.309658	-0.564154	0.348853	0.521150	0.045290	-0.102179	0.226347	0.088120	0.342035	-0.034193	0.064778	0.598984	-0.299971	0.355152	0.697891	-0.554215	0.262956	0.120539	0.372208	0.044482	0.412333	0.406279	-0.226545	0.226824	0.551557	0.315050	0.125113	0.057391	0.021564	-0.187460	0.207978	-0.393332	-0.325638	-0.005228	-0.375477	0.111588	0.219671	0.494203	-0.234986	-0.313918	-0.393768	-0.527488	-0.261201	-0.179911	0.415580	0.300333	0.178696	0.303990	0.646084	-0.201685	-0.278466	0.036492	-0.365676	-0.045067	-0.213172	-0.449233	-0.269223	0.514891	0.394315	0.040173	-0.397721	0.237885	0.182651	0.170590	-0.477769	0.096182	0.312281	0.478546	-0.017488	-0.370746	-0.294392	0.054522	-0.219799	0.228473	0.148191	-0.548955	0.335326	-0.206555	0.205997	0.336480	0.128228	-0.303937	-0.192627	0.546088	0.239613	0.281544	-0.535248	0.470238	0.146677	0.335460	-0.097071	0.370351	-0.311634	-0.520842	-0.065323	-0.025512	0.390729	-0.104911	0.011627	-0.098722	0.012093	0.348927	0.360242	-0.070089	-0.155093	0.316204	0.139448	-0.382487	-0.303955	-0.208738	0.445563	0.321909	0.167803	-0.185268	0.072894	0.620101	-0.228374	0.549876	0.058238	0.211638	0.304386	0.466061	-0.077686	-0.044808	0.586665	0.322959	0.228624	0.567347	-0.557808	-0.077653	-0.272992	-0.165754	-0.456969	-0.340452	0.335410	0.114556	0.675922	0.025017	0.052242	-0.425175	0.261493	-0.268658	0.324497	-0.258332	0.320683	0.388575	-0.190077	-0.008185	0.162336	0.315906	0.065118	0.136732	0.021985	0.476886	0.377587	0.275812	0.555663	0.050114	0.111320	0.267045	0.402041	0.503008	-0.404341	-0.637022	-0.303361	-0.318479	0.038936	-0.200666	-0.108764	-0.248521	-0.396578	0.048806	0.317024	-0.195100	-0.044152	-0.572333	-0.270482	0.395809	0.142496	0.290416	0.415696	0.017183	-0.261742	-0.251091	-0.594587	0.511294	-0.493716	-0.435436	0.281269	0.066018	0.542673	-0.340351	0.174281	-0.447153	0.240467	0.337488	0.000002	-0.596596	0.316402	0.172477	-0.609927	-0.263043	0.364927	0.186883	0.143344	-0.259906	-0.069860	-0.017025	0.414110	-0.254024	-0.192321	-0.170786	0.197752	0.060376	-0.172661	0.173296	-0.103338	0.352073	-0.552810	-0.375619	0.046478	0.292211	-0.209851	-0.140522	1.134424	-0.328795	-0.643647	-0.058064	-0.117580	0.168113	0.120158	-0.452409	-0.385597	-0.164668	0.317710	0.054940	0.547971	-0.077167	
-0.255149	0.116247	0.471029	0.336104	-0.472462	0.377647	-0.400253	0.460394	0.078732	0.409177	0.231026	-0.113428	0.342257	-0.394455	0.150670	-0.456229	-0.091059	0.034622	-0.066238	0.058915	0.151999	0.223696	-0.128422	-0.268120	0.459361	-0.036631	0.254928	0.409986	-0.200078	-0.027429	-0.398419	-0.188999	0.739839	0.364054	-0.603990	-0.374864	0.206948	-0.215078	0.384539	0.300835	0.202865	0.006966	-0.058049	0.107689	0.061158	0.315891	0.408936	0.474588	-0.228382	-0.373958	-0.216535	0.246176	0.176069	-0.580355	0.756376	0.457263	0.519726	0.486414	-0.066049	-0.444034	0.459332	-0.122359	0.352967	0.194548	-0.238226	0.075107	0.504523	0.370353	0.395958	-0.051234	0.122930	0.309054	-0.427504	0.461324	0.345194	0.101198	0.363030	0.077094	-0.076116	0.466975	0.330756	-0.008955	0.075852	0.223945	0.353524	0.001975	0.375383	0.293653	-0.302324	0.274545	0.316710	-0.366569	-0.189979	-0.048916	0.472576	0.065173	-0.043776	0.559400	-0.343319	0.868003	0.004109	0.196457	0.120952	0.112747	-0.299250	0.112686	0.394271	-0.201127	-0.037029	-0.325130	-0.168868	-0.394498	-0.034418	0.082602	-0.575714	-0.068993	-0.257872	0.316466	0.522092	0.233696	0.048300	0.204956	-0.173878	0.233841	-0.200335	-0.108663	-0.091353	-0.128930	-0.271759	-0.082329	-0.014240	0.040841	-0.366201	0.566891	0.229131	0.417968	-0.089098	-0.109195	0.392558	0.338040	0.190178	0.609636	-0.388968	-0.094321	0.286576	-0.359606	0.145599	0.397737	0.131687	0.138843	0.102536	-0.362588	-0.316520	0.512166	0.159949	-0.001843	-0.406337	-0.300394	0.291040	-0.314617	0.395767	-0.397894	-0.097639	0.469695	-0.350619	-0.405148	-0.369885	0.251023	0.446403	-0.378284	-0.132311	-0.163097	-0.375172	0.132747	0.233021	0.221726	-0.009766	-0.323267	0.398227	-0.044665	-0.193007	-0.317989	-0.123846	-0.127891	0.188153	-0.216072	0.447904	0.396845	-0.491846	0.261709	0.335008	0.242509	0.378634	-0.150491	-0.097495	-0.323271	0.047209	0.509262	0.616969	-0.050336	0.278237	-0.191464	0.286563	0.490591	0.329517	0.235241	0.282972	0.058585	0.414160	-0.361387	0.243446	-0.353077	0.092138	-0.225207	-0.000163	-0.162925	-0.211827	-0.058882	-0.337939	-0.303971	-0.398727	0.166565	0.543704	0.563569	-0.204468	-0.110540	-0.330451	0.144123	-0.291902	0.595159	0.398326	0.498562	-0.508323	0.300474	0.661343	-0.165320	-0.354048	-0.146892	0.748045	0.469728	0.294791	0.443812	-0.175149	-0.285758	0.052758	0.016493	-0.279722	0.130995	-0.399038	0.099487	0.403234	-0.125884	-0.202512	0.035584	-0.221020	-0.199510	-0.178596	-0.125065	0.455754	0.021991	-0.348487	0.476027	-0.296408	-0.084350	0.137143	0.345372	0.703722	0.492399	-0.397043	0.115129	0.570649	-0.716222	-0.228887	0.498872	-0.341355	0.394583	0.240345	-0.275878	-0.037436	0.086466	0.213038	-0.017002	0.365829	0.071763	-0.677250	-0.285369	0.020612	0.168978	-0.244347	-0.276725	0.226471	-0.250940	0.207492	0.265331	0.398174	0.132548	0.385265	0.087809	-0.304669	-0.273784	
-0.587491	-0.073244	-0.109703	-0.290928	-0.198698	0.100792	0.236951	0.392118	0.299856	0.151446	0.140162	-0.216885	0.191426	-0.135313	-0.351158	0.153710	-0.105300	-0.179994	-0.380708	0.533770	-0.476429	0.365633	-0.164246	-0.470731	0.479360	-0.598275	0.238919	0.408977	0.377079	0.087346	0.417696	0.263179	0.070514	-0.453458	-0.443291	0.361362	-0.007594	-0.223197	-0.040134	-0.535613	-0.076094	-0.246600	0.212278	-0.293115	0.144385	-0.141314	0.563479	0.433830	0.167811	-0.394884	0.283886	0.217432	0.174594	0.164329	0.493980	0.459695	-0.293664	0.299464	-0.280308	0.319481	0.238741	-0.127355	0.348770	-0.535273	0.170962	0.252414	0.664152	0.585219	0.567400	-0.268052	0.507026	-0.018331	-0.375137	-0.041982	-0.138291	0.533235	0.419291	-0.475547	0.313900	-0.095326	-0.170549	0.205143	-0.453449	-0.333928	0.025510	0.408468	-0.209969	0.082846	-0.055160	-0.239105	-0.305628	-0.385511	0.464068	0.297008	-0.456999	-0.076334	-0.066850	-0.466998	-0.221768	0.268640	0.023972	-0.470728	0.379417	0.267843	-0.068127	-0.215081	0.406111	0.092137	0.236151	0.115470	0.179922	0.367002	-0.294296	-0.056306	-0.464182	0.205001	-0.051399	-0.417939	-0.289934	0.484738	0.289380	-0.315490	0.509412	0.534291	-0.369704	-0.198880	-0.332560	0.012340	-0.337317	-0.153487	-0.322411	0.162608	-0.167974	0.541335	0.012896	0.669562	-0.521025	-0.252650	-0.380608	0.094342	0.023758	0.173829	0.241459	-0.379996	-0.358212	0.354710	0.466270	0.022008	-0.506715	0.571459	-0.207759	0.405335	-0.205532	-0.034995	-0.206110	-0.007012	0.270877	0.057125	-0.479084	0.373403	-0.480686	-0.377229	-0.000621	0.108269	-0.375764	0.231847	-0.175547	-0.279788	-0.262015	-0.189003	-0.486273	-0.561151	0.338391	0.259416	-0.124471	0.513137	-0.165328	0.697749	0.318876	0.248278	0.216266	0.569760	-0.042577	-0.285531	-0.190520	-0.169226	0.042099	-0.476605	0.267277	0.360659	0.270088	0.452851	0.260487	-0.267928	-0.184497	0.298920	-0.306257	0.217408	-0.274134	-0.062057	0.301634	-0.284320	-0.206368	0.034067	0.291213	-0.114088	0.192094	-0.138807	-0.058371	-0.666502	-0.414464	-0.518196	0.651108	0.178299	-0.520425	-0.113901	0.434330	0.104586	0.207588	0.205467	-0.213214	-0.308093	-0.009728	-0.410031	-0.097709	0.460372	0.619814	0.204670	0.149737	-0.254163	0.336522	0.103372	-0.172397	-0.169584	-0.183315	-0.164024	-0.226592	-0.127367	0.407270	0.319294	0.127121	0.426736	0.484815	0.295093	0.146350	0.215528	0.395930	-0.024402	-0.065903	0.085988	-0.166679	0.321555	0.223720	-0.010212	0.372861	-0.469597	0.252485	0.168264	0.477314	-0.594103	0.238547	-0.035796	-0.131802	-0.335841	0.084340	0.264164	0.197186	0.263142	-0.631316	-0.038776	-0.038228	0.078938	-0.227291	-0.329030	-0.278813	0.534900	-0.659633	-0.412092	-0.392001	0.237057	0.181520	0.031109	-0.067949	-0.280504	-0.418083	-0.134312	0.326208	0.240782	0.146939	0.623333	0.513303	-0.249436	-0.341488	-0.321551	0.298763	0.158979	0.365340	-0.215257	0.318087	0.445411	
0.353177	-0.168142	0.372726	0.375188	0.017235	-0.239206	-0.662382	0.158720	0.014553	0.313043	-0.350430	-0.280218	-0.278584	-0.128521	0.083042	-0.340937	0.076934	0.223266	-0.399191	0.117609	0.174951	0.366218	-0.424003	-0.426202	-0.216193	0.341884	-0.539681	-0.197632	0.029922	0.586797	0.713013	-0.318096	0.657829	0.270183	-0.458573	-0.144078	0.573281	0.088515	0.441082	-0.683024	-0.415310	0.564401	-0.075758	-0.034259	0.168141	0.281801	0.002640	0.580562	0.157651	-0.247405	-0.128077	-0.195447	-0.462774	-0.498069	-0.039052	0.370893	-0.177925	0.329140	0.046883	0.432606	-0.099821	0.135437	0.386319	-0.477233	-0.062596	-0.387900	0.126904	0.866445	0.482885	-0.465560	-0.132645	0.550145	-0.302200	-0.045593	0.481898	0.011865	0.717691	-0.283949	0.102259	0.115849	-0.116795	0.427029	0.091388	-0.482325	-0.158994	-0.382615	0.294302	0.105789	0.356399	-0.194215	-0.474472	0.402879	0.444392	0.290775	-0.288817	-0.095084	-0.558126	0.324752	-0.254007	0.698043	0.275149	-0.199694	0.158471	0.510567	-0.104026	-0.101476	-0.108096	0.124766	0.414288	0.678900	-0.077205	-0.233365	0.046222	0.165212	0.026483	0.116726	-0.231777	-0.528401	-0.260305	0.471649	-0.149218	-0.309291	0.281985	-0.146645	-0.268363	0.174040	-0.085409	-0.460231	-0.113493	0.123347	0.225085	0.478227	-0.496298	-0.101133	0.224428	0.516246	-0.082896	-0.416846	-0.170829	-0.195561	0.160516	0.025727	0.644940	0.097773	-0.471845	-0.213989	-0.074406	-0.365416	-0.243483	0.067246	0.360441	0.071783	0.135642	0.274104	0.121823	0.326660	0.141654	0.002078	0.375496	0.261653	0.141469	0.192575	-0.139804	0.048290	0.422236	-0.252435	-0.040300	0.213914	-0.157707	-0.210821	-0.739431	-0.402319	0.118625	0.434716	0.072170	0.181214	0.261321	0.534576	0.484998	-0.261536	-0.231461	0.134467	0.182720	0.263908	-0.263847	0.285327	0.084001	-0.275568	-0.484034	0.034605	0.450248	-0.270201	-0.460362	-0.016456	-0.148051	0.683870	0.170381	0.165117	0.211864	0.806616	0.067907	0.230136	-0.329395	-0.229643	0.184128	0.394170	0.655048	-0.142376	0.387719	-0.185364	0.199238	0.433946	-0.234750	-0.074697	0.129938	-0.164353	0.665771	-0.120990	0.364755	0.438341	0.461265	-0.139278	-0.364586	0.216515	-0.278757	0.181067	0.425055	0.377278	-0.403896	0.083171	0.086847	0.207796	-0.457883	0.349023	-0.075763	0.106322	-0.275222	0.009470	-0.004768	-0.396436	-0.257786	0.434763	-0.234155	0.232892	0.490705	0.381713	0.038487	0.342042	-0.061577	0.126479	0.670821	-0.110248	-0.078451	-0.562807	-0.324544	-0.404084	0.369387	0.409471	0.658029	-0.424312	-0.149197	0.200028	-0.366633	0.127633	-0.468353	-0.372407	0.070751	0.322802	0.021243	0.033330	0.491481	-0.339044	-0.295064	0.382712	-0.165795	-0.266230	0.569117	-0.395986	0.184336	-0.265399	-0.343694	0.592838	-0.215627	-0.233138	-0.491033	0.216086	0.430146	-0.395130	-0.087883	0.291463	-0.160484	0.284570	-0.868843	-0.308832	0.114875	0.026403	-0.051575	0.135622	-0.683959	-0.361433	
-0.671301	0.306852	-0.153176	-0.362671	0.263904	0.315104	-0.766932	0.252055	0.252601	-0.078367	0.391986	0.262932	0.695445	-0.344883	-0.022955	-0.682607	0.306064	0.529422	-0.500020	0.073681	-0.549060	-0.264360	-0.369141	-0.231779	0.056916	-0.075784	0.013573	0.379335	-0.107369	0.761003	0.418171	-0.228105	0.080937	0.320650	-0.368967	-0.099551	0.148498	0.087074	-0.452121	0.292945	-0.077560	0.670467	0.622265	0.196437	-0.115791	-0.424749	0.346388	-0.557645	0.631753	0.068285	-0.088305	-0.292015	0.124507	-0.293630	0.480186	0.034086	0.456603	0.204289	-0.774913	-0.262444	-0.326201	0.084877	-0.010311	0.277309	0.126196	-0.033914	0.133283	0.726489	-0.386488	-0.043478	0.443064	0.217641	-0.230568	0.526244	-0.537314	0.298753	0.621655	-0.400854	0.327363	0.407104	-0.330085	-0.283020	-0.417349	-0.558264	-0.040730	0.430194	0.245191	-0.117267	-0.087714	-0.150070	-0.297692	0.168150	-0.134510	0.126885	-0.114114	0.312535	-0.469396	0.599811	0.114237	0.072270	-0.043825	-0.137209	0.587964	0.251776	-0.406125	0.322962	0.201882	0.611615	0.156188	0.018893	0.339697	0.210125	0.010834	0.356405	0.053807	0.377207	0.210734	-0.560560	-0.393378	-0.246646	0.032329	-0.100721	0.359881	0.504373	-0.475349	-0.100545	0.056140	-0.305859	-0.002813	-0.438655	0.026136	0.308039	-0.114155	-0.149798	0.332648	0.372119	-0.579615	-0.019241	-0.018150	0.025186	-0.163888	-0.179056	-0.185148	-0.252611	-0.665387	0.385021	-0.081304	0.435940	-0.401889	0.027289	-0.516203	0.224463	0.557794	0.471447	-0.106494	-0.510837	0.025378	-0.327462	-0.325126	0.199664	-0.157303	0.134415	0.272693	0.393508	-0.445156	-0.518065	-0.106661	-0.018776	0.133793	0.159184	0.528371	-0.108818	-0.185043	-0.156316	0.411126	-0.295643	-0.515394	-0.168723	-0.146288	-0.182545	-0.082348	-0.479555	-0.301678	0.112553	-0.576069	0.529102	-0.199087	-0.057179	-0.375128	0.442292	-0.219573	-0.251150	-0.109594	0.331979	-0.674034	0.322839	-0.366026	0.037539	-0.333298	0.541580	-0.275932	-0.447810	-0.096527	-0.320917	-0.208257	-0.487496	0.205233	0.008429	-0.286757	-0.167258	0.156390	0.153884	0.304408	-0.522264	-0.748823	0.276377	0.448585	-0.101894	-0.057924	0.413670	-0.216255	-0.327816	-0.282119	0.132168	-0.283209	-0.272725	0.243856	-0.035660	0.095553	0.171022	-0.465107	0.358249	0.172607	0.347506	0.739695	-0.479012	-0.354897	-0.241310	0.217061	0.133043	0.320368	-0.227818	-0.259089	0.066708	-0.116424	-0.461485	0.164064	-0.216337	0.263327	-0.157813	-0.184156	-0.409845	-0.091912	-0.554690	0.379059	0.136020	-0.185130	0.032548	0.740934	0.077843	-0.602416	-0.351285	0.022601	0.149209	-0.049220	0.184751	0.378364	0.529489	0.050137	-0.034613	0.013456	0.024534	0.170853	0.249466	-0.760299	0.541157	0.187692	-0.347787	-0.683777	0.322508	-0.199604	-0.233283	0.106143	-0.146021	-0.356007	0.044232	0.005408	0.246288	0.238928	-0.240440	-0.185510	0.179780	-0.616335	0.243547	0.385829	0.078040	-0.074760	0.057613	0.231439	-0.335637	
-0.484675	-0.205907	0.548766	0.559799	0.494608	0.689902	-0.190020	0.322887	0.806393	0.544246	-0.218538	-0.380467	0.549508	-0.640709	0.295592	-0.612016	0.016053	0.548626	0.389376	0.300816	0.243435	-0.417736	-0.008366	-0.380926	0.540038	-0.302151	0.248643	0.004419	0.501962	0.124938	0.152384	0.301253	0.257448	-0.228556	0.007105	-0.124082	0.131297	-0.186982	-0.206746	-0.442087	0.309086	0.008758	0.014720	0.631205	0.333845	-0.495370	0.578238	-0.412805	0.446280	-0.117702	0.127574	0.330384	-0.000736	0.223617	0.474276	0.109451	-0.161541	0.421627	0.387789	-0.230461	-0.402919	-0.137567	-0.278695	0.243000	0.223092	0.373013	-0.239521	0.738080	0.572204	-0.369434	-0.067478	0.333580	0.178977	0.479482	0.014828	-0.189947	0.562909	-0.492965	-0.209548	0.175613	0.285140	0.327133	-0.153768	-0.208829	0.297773	-0.145641	0.372990	0.149353	-0.360485	0.094819	0.150093	-0.175783	0.332420	0.195052	0.375955	-0.041247	-0.162116	0.479451	0.057656	-0.144345	-0.347138	0.303369	0.472226	0.261767	-0.231517	-0.150460	0.426224	-0.189034	0.325819	-0.371748	0.606635	-0.236247	-0.020022	0.207134	0.381559	-0.514193	0.433561	0.414161	0.354758	0.488330	-0.098123	-0.094029	0.544702	0.184780	-0.200517	0.169087	0.692562	-0.062519	0.349154	-0.206633	0.254394	0.262882	-0.515691	0.209618	0.079371	0.390792	0.334079	-0.128869	0.408721	0.164139	-0.013461	0.289976	-0.221422	-0.385190	-0.326160	0.826459	-0.036281	-0.589392	0.494677	0.347108	0.365986	-0.125759	-0.082342	0.410573	0.155595	0.251716	0.364567	0.559086	-0.247826	0.030753	-0.297460	-0.647737	-0.436759	-0.191763	0.109617	0.024493	0.086553	0.127314	-0.512138	0.111764	-0.425963	0.064053	0.149701	-0.069557	-0.066993	0.196275	-0.442284	0.242886	0.330086	-0.387243	0.100314	0.057926	0.071866	0.266222	-0.338794	-0.043104	0.093172	0.331764	-0.393144	0.413922	-0.200178	-0.236644	0.338791	-0.283021	-0.091082	0.023046	0.416780	-0.218915	-0.354705	0.777578	0.229178	-0.279654	0.068804	-0.210642	0.088521	0.492421	0.418017	0.121212	0.142347	-0.277236	0.079750	0.519688	0.549293	-0.392626	0.224741	-0.297873	-0.066481	-0.048718	0.784789	0.191813	-0.467348	-0.591258	0.355873	0.627829	-0.020773	-0.433469	0.226263	0.035307	0.451170	-0.103967	-0.150840	0.262290	0.096956	0.322557	0.238256	-0.133516	-0.171395	-0.587185	0.474805	0.380355	0.257906	0.281750	0.843994	0.304744	0.329543	0.044036	-0.099008	-0.536974	-0.148082	0.103488	0.309101	-0.135589	0.360897	-0.127791	0.065896	-0.493171	0.291950	0.347753	0.169193	-0.071115	-0.167277	-0.073010	0.123131	-0.352743	-0.062907	-0.264465	0.203263	0.474947	-0.281483	0.002053	0.415390	0.562170	0.471893	0.342512	-0.305739	0.128067	0.440559	0.550957	0.031969	0.538291	-0.016407	0.032056	-0.530068	0.511539	0.108876	0.164289	-0.108815	0.438098	-0.224885	0.189672	-0.366173	-0.108273	-0.514192	0.157065	0.392088	0.338423	0.530488	-0.228678	0.080093	-0.182407	
0.130486	-0.058606	-0.093583	0.395668	-0.311250	0.365887	-0.592593	0.369998	0.306587	0.554897	-0.069613	0.290708	-0.330886	-0.021461	0.613328	0.270613	-0.242872	0.752729	0.122514	0.222088	-0.357018	0.362515	0.637153	0.103325	0.129429	0.114321	0.170980	0.147346	0.670120	0.275414	0.382351	0.071611	0.334893	-0.559130	-0.552343	-0.567644	0.577652	-0.119928	0.512549	-0.462982	0.216507	0.188034	-0.249646	0.714857	-0.128379	0.303277	0.541026	-0.194308	0.474320	0.065951	0.149315	-0.351613	-0.284400	-0.200316	-0.078531	0.585046	-0.285998	0.333155	-0.470572	-0.445661	-0.674655	0.527072	0.337009	0.589759	0.541951	0.608408	0.607000	0.476552	0.420806	0.159124	0.414945	0.366087	-0.318790	0.690302	0.104360	-0.193791	0.597859	-0.496308	0.295912	0.276448	-0.391800	0.066885	-0.523739	0.123816	0.682498	-0.090391	0.147933	-0.347564	-0.498513	-0.100972	-0.365613	-0.273239	0.133758	0.583853	0.356243	0.111585	0.131106	0.544333	-0.218374	0.191604	0.055135	-0.584440	-0.112614	0.472976	0.423972	0.239310	-0.050585	0.191845	0.246946	-0.101810	0.249579	-0.025031	0.127974	-0.080133	0.394042	0.002351	0.391799	-0.394811	0.055359	0.311234	0.232835	0.324110	0.413534	-0.005192	0.238696	0.359492	0.081256	-0.211337	0.101536	0.521652	-0.420138	-0.169014	-0.742654	-0.301859	-0.129616	0.778857	0.113278	0.340163	0.278822	-0.246824	-0.456933	-0.176603	0.383250	0.171217	-0.096158	0.386789	-0.129204	0.022382	-0.251595	0.372235	-0.456385	0.011941	0.494215	-0.264369	-0.334181	0.096981	-0.205072	-0.440573	-0.270902	0.270286	0.407133	-0.517316	-0.358291	-0.287393	-0.137491	-0.296041	0.384638	0.246350	-0.437190	0.239367	0.114966	-0.170638	0.561380	0.059943	0.488940	0.108087	-0.211218	0.086091	-0.170111	-0.023113	-0.246183	-0.326983	-0.067241	-0.488042	-0.217238	0.284993	0.146818	-0.337507	0.086104	-0.171761	-0.267311	0.290856	-0.338198	-0.362478	0.027850	0.323133	0.249983	0.438083	-0.171287	0.276640	-0.235831	0.455809	0.650723	-0.420243	0.148911	0.439783	0.767236	-0.393326	-0.065588	0.366310	-0.169197	-0.093129	0.030504	-0.379963	-0.193326	0.221910	0.288354	0.030903	-0.085015	-0.145626	0.066279	-0.342190	-0.424283	0.350262	0.013978	0.316647	0.076153	-0.305992	0.180692	0.334441	0.363818	0.354615	0.260781	1.061903	0.667431	-0.315305	0.140419	0.144445	0.011539	-0.275995	0.197960	-0.335477	0.008282	0.506563	-0.320804	-0.620360	-0.352661	0.300453	0.247266	0.083211	-0.194442	-0.377842	0.355696	-0.422031	0.575518	-0.154279	0.504521	0.239429	0.102879	-0.362901	-0.118222	-0.013855	-0.545489	-0.248686	-0.238809	-0.298343	0.477242	-0.542078	-0.199116	0.012634	-0.441198	-0.149193	0.161944	0.082097	-0.623667	0.094654	0.233259	0.393004	-0.322497	-0.159249	-0.662331	0.221964	-0.371658	0.366174	0.008894	-0.174654	0.059558	0.224228	0.284004	-0.004058	-0.286504	-0.296196	-0.056356	-0.409916	0.283375	0.406557	-0.360533	-0.027890	0.610720	0.232833	
0.312251	0.438509	-0.133002	0.359046	0.108121	0.304496	-0.634901	-0.150465	-0.013961	0.159936	-0.155296	-0.296162	-0.159641	0.127799	-0.031773	-0.050943	0.423411	0.178131	0.114438	0.235172	0.269545	0.020299	0.470156	-0.081915	0.210021	0.025272	-0.014301	0.408591	-0.110347	0.218563	0.085593	-0.330733	0.070466	0.329524	-0.239564	0.360655	0.352565	0.268798	-0.397768	0.250405	-0.632954	0.118629	-0.317542	-0.151513	0.804590	-0.130204	0.480209	0.084466	0.391954	0.020164	-0.230506	0.173570	-0.502148	-0.787189	-0.025982	0.279023	0.439270	0.535586	-0.080536	0.348218	-0.233473	-0.297974	0.572072	0.190317	0.585826	0.388960	0.391602	0.169750	-0.454994	0.305195	0.165340	-0.203732	-0.222853	0.376755	-0.419771	-0.129849	0.064740	-0.709563	0.597071	-0.323127	0.157797	-0.038519	0.155464	-0.017782	-0.127531	-0.184717	0.100129	0.353264	0.409578	0.199364	0.223193	-0.187417	0.367096	0.120565	0.490398	0.229442	-0.237119	0.240808	-0.185112	0.130641	0.153897	0.402218	-0.031115	0.160622	-0.256761	0.116866	0.579958	0.390672	0.597056	0.251301	0.289876	-0.262487	0.235586	0.306272	-0.347121	-0.333738	0.398107	0.257471	0.521458	0.288503	-0.476831	0.359607	0.581547	-0.395971	-0.175256	0.195515	0.745810	-0.049644	-0.301857	-0.064874	0.238414	0.346615	-0.330672	-0.276190	0.128846	0.430057	0.120678	-0.102912	-0.177792	0.203157	-0.024562	-0.309256	-0.345022	-0.315949	0.162247	0.122324	-0.531031	-0.089827	0.135136	-0.360181	0.088850	0.315251	0.294745	0.108737	-0.541363	-0.178081	-0.123611	-0.294819	0.499540	0.095268	-0.227451	-0.064543	0.245259	0.275131	-0.478060	-0.481733	-0.367847	0.523506	-0.038931	0.088649	-0.110295	0.046448	0.443529	0.299310	0.164692	0.355042	0.244487	0.158798	-0.030732	-0.001513	0.201085	0.184993	0.070536	-0.088411	-0.428417	0.206904	0.253050	-0.029300	-0.212607	0.486783	-0.014216	-0.434778	-0.073238	-0.636706	0.092941	0.310107	-0.260182	0.723582	-0.038029	0.058519	0.005315	-0.194107	-0.425403	-0.069583	0.434694	0.196356	0.484773	0.197679	-0.291177	-0.299045	-0.062291	0.299839	-0.157432	0.408098	-0.301013	-0.250682	-0.107271	-0.223398	0.722678	0.536822	0.298891	-0.145879	0.652763	-0.108706	-0.036316	-0.001926	-0.335318	0.233934	0.466020	0.069546	0.505158	-0.039928	0.245060	1.061888	0.091749	0.168583	0.015307	-0.444250	0.009220	0.055501	0.206767	0.665944	0.125957	0.180616	0.264476	0.496259	0.298955	-0.665095	-0.087471	0.413055	0.597982	-0.420387	-0.182273	0.294324	0.466240	0.107397	0.137312	0.109059	-0.223673	-0.330435	-0.104749	-0.616495	-0.210149	-0.632913	0.439370	0.406694	0.703728	0.169794	0.349610	-0.007284	-0.286810	-0.300653	0.017781	0.246440	0.062273	-0.209964	0.079528	-0.060846	-0.370020	0.409185	-0.308277	-0.055230	0.125922	0.028912	-0.306711	-0.054781	-0.261256	0.598975	0.437623	-0.449337	-0.211855	-0.482235	-0.664432	-0.171322	0.017342	-0.284521	-0.430840	-0.349722	0.187160	0.288594	
-0.000272	-0.142486	-0.231072	-0.085016	-0.400796	0.544603	0.103559	0.217496	-0.023312	-0.309925	-0.163858	0.021791	0.084809	-0.427103	-0.061491	0.076033	0.010008	0.114218	0.003022	-0.028508	-0.275124	0.266191	0.112159	-0.302695	-0.526985	0.057224	0.045530	-0.209301	0.605490	0.111886	0.389919	0.354803	0.232799	-0.681756	-0.718453	0.297638	0.580280	0.625983	0.184637	-0.188075	0.142927	-0.396184	-0.370980	-0.319867	-0.303168	-0.310695	0.161201	-0.051268	0.128112	-0.184972	0.515571	0.195358	-0.773726	-0.519201	-0.093439	-0.385849	0.527237	0.983234	-0.601127	0.715483	-0.654420	0.195115	0.189981	0.110811	0.528192	0.224339	0.509697	0.700874	-0.058832	-0.103663	-0.266296	-0.410727	-0.163339	0.143264	-0.383128	0.021579	0.434951	-0.795965	0.329191	-0.104556	-0.171736	0.205403	-0.489461	-0.069869	0.527135	-0.022575	-0.000779	0.474676	-0.381207	-0.208906	0.152955	-0.250617	0.024065	0.125888	-0.480027	-0.215729	-0.299585	0.366042	-0.118218	0.240542	-0.235809	-0.003597	0.346775	-0.113062	0.391154	0.139109	-0.209085	0.253627	0.700993	-0.444970	0.322145	-0.412966	0.117529	0.300057	0.248887	0.056161	-0.392198	-0.366642	-0.164600	-0.315747	-0.027221	-0.222537	0.037106	-0.330661	0.161654	0.180684	-0.067493	0.028829	-0.319876	0.449910	-0.163858	-0.064229	-0.625052	0.404031	-0.306230	0.145995	-0.129735	-0.071542	0.213320	-0.008339	-0.274905	-0.434673	0.520254	0.335543	-0.749354	0.138236	0.158220	-0.427282	0.362599	0.584766	-0.121320	-0.304772	-0.322598	0.262644	-0.001284	0.038513	0.158180	-0.495741	-0.108123	0.275680	0.141485	-0.175323	0.046435	-0.340669	0.006643	0.221325	-0.081500	0.023331	0.257849	0.295534	0.452203	0.486695	0.083825	0.309914	0.588564	-0.032905	-0.165054	0.069773	0.316981	-0.042244	0.061502	0.273610	-0.519374	-0.005641	0.082559	0.157689	-0.356891	-0.291486	0.012066	0.354465	-0.444164	-0.163430	-0.460794	-0.317885	-0.050451	0.202224	0.419910	0.325775	0.389588	0.118028	-0.092125	0.196504	0.311139	0.055161	0.021231	-0.042208	-0.221488	-0.238041	-0.366918	0.176186	-0.023361	0.023236	0.251380	0.470059	-0.458057	-0.148108	0.196041	-0.223369	0.224288	-0.532003	0.412280	0.164761	0.302971	-0.375077	-0.259571	-0.380315	0.057511	-0.386355	0.602832	0.159069	0.060319	-0.000436	-0.098785	0.155085	-0.397527	-0.310987	0.320520	-0.190213	0.054401	0.365556	-0.354500	0.066340	-0.006924	0.281700	-0.418224	-0.162525	0.298655	0.004433	0.462834	-0.003957	0.518319	0.437931	-0.166226	-0.165244	0.408464	0.129921	-0.148234	-0.021277	0.492461	-0.403450	-0.245452	-0.214081	0.111025	-0.055285	0.433644	0.839685	0.345712	0.098320	-0.516922	-0.028979	0.095402	-0.312606	-0.004723	0.658779	0.155708	0.303088	-0.047294	0.349447	-0.714561	0.000647	-0.375501	0.645862	-0.563825	0.030816	-0.412726	0.349796	-0.015271	0.205084	-0.365288	0.115129	0.724650	-0.483768	-0.044985	0.048674	0.172294	-0.137323	-0.262746	-0.104174	0.598636	0.024717	
0.077599	-0.194236	0.539972	-0.067531	-0.203415	0.412945	0.347854	0.282966	0.305842	-0.188442	-0.071298	-0.635727	-0.101178	-0.061740	0.385116	-0.245398	-0.302730	0.566820	-0.109079	0.021532	-0.093396	-0.104594	0.239209	-0.470500	0.051882	-0.205910	0.151991	-0.283925	0.421854	0.165367	0.108478	0.018141	0.176187	-0.281957	0.179970	-0.334543	0.021399	0.507393	0.511714	-0.050006	0.137454	-0.070208	-0.184197	-0.294912	0.091501	-0.229474	0.399338	-0.153710	-0.106483	0.259634	0.270141	-0.041827	-0.569757	-0.355639	0.484896	0.408973	0.188896	0.158373	-0.001030	0.175444	0.312751	-0.227643	0.398071	-0.047350	0.326659	0.171432	0.237193	0.324158	-0.266686	-0.268341	0.204953	-0.214921	-0.060932	0.011815	-0.041562	0.725086	0.409078	0.291372	-0.316448	0.627117	0.315866	-0.098452	-0.188796	0.155784	0.026260	-0.480003	-0.060949	0.614277	-0.038610	-0.396525	-0.273619	-0.401415	-0.021133	-0.329815	-0.038371	-0.199787	-0.047761	-0.556109	-0.472250	-0.257198	0.194637	0.245537	-0.022159	0.112919	0.177372	0.040730	0.342370	0.032304	0.104768	0.477770	0.013356	-0.505163	0.214911	0.090620	-0.329843	-0.435985	0.259087	0.339372	-0.313253	-0.422620	0.105383	0.067775	-0.105712	-0.181608	0.112423	0.129991	0.477516	-0.444638	0.284836	0.268109	-0.183678	-0.343354	-0.159970	-0.003569	-0.373563	-0.097555	-0.471548	0.177659	0.202044	0.277261	0.358040	-0.520844	-0.342636	0.410683	0.113249	-0.228352	0.217039	-0.286469	0.056360	0.228786	-0.071133	-0.390609	-0.401678	-0.009729	0.299524	0.166461	-0.076651	-0.190764	0.405527	-0.137109	0.421172	-0.811440	0.010463	-0.290125	0.407066	0.475515	-0.275336	0.413175	0.108620	-0.349837	-0.016633	-0.578929	-0.287090	-0.078065	0.455944	0.378491	-0.064588	-0.154753	-0.117113	-0.059049	-0.171524	0.281192	0.137540	-0.399740	0.019080	-0.050521	0.437799	0.397141	-0.008965	0.553169	-0.430390	-0.055138	0.411027	0.409158	0.383495	0.270664	0.109836	0.023465	-0.071274	-0.216152	-0.113667	-0.172765	0.077398	0.051643	-0.103595	-0.197589	0.016690	-0.274393	-0.149880	0.346230	-0.041538	0.245523	0.040477	0.067982	-0.239746	0.426179	0.177334	-0.301308	0.315387	-0.064427	0.296134	0.422453	0.548435	0.062795	0.411497	0.328393	-0.120810	0.312924	-0.280818	0.425056	0.265600	0.039803	-0.523868	-0.268238	-0.127839	0.517199	-0.158801	0.088730	-0.320364	-0.178523	0.030597	0.711648	-0.397848	0.583900	-0.245661	-0.542211	0.338865	0.102849	-0.022812	0.130223	0.179847	-0.400560	-0.058323	-0.464554	0.534873	0.063415	0.333151	0.134198	0.679728	0.200827	-0.153988	0.050818	-0.040814	-0.228461	0.463844	0.227324	0.064222	0.543710	-0.437936	-0.062184	0.007019	0.091278	-0.377621	0.259478	-0.252952	-0.000574	-0.257366	-0.663626	-0.523256	0.008138	-0.080272	0.205657	-0.127223	0.392403	0.081361	-0.120702	-0.113040	0.099425	0.431289	0.376852	0.116380	-0.455788	-0.036787	0.375098	0.285164	-0.261558	-0.128406	0.321338	-0.260210	0.100437	
-0.351666	-0.015834	0.000491	0.138422	-0.170798	0.410420	-0.101293	-0.014698	0.214038	0.334420	-0.372706	-0.516620	-0.345331	-0.009940	0.367251	-0.598374	-0.404666	0.790659	0.461520	0.626836	0.110251	0.224453	-0.146838	-0.469942	-0.191381	0.292135	0.175305	0.427996	0.450764	0.481076	-0.028333	-0.590457	-0.182003	-0.025825	-0.211585	0.177703	-0.040553	0.770595	-0.021130	0.231492	-0.129195	0.183954	-0.510027	0.550064	-0.289021	0.202246	-0.176738	-0.356899	0.420888	0.402171	-0.060480	0.046459	-0.083379	-0.292131	0.569190	0.345681	-0.163116	0.117700	-0.208060	-0.067814	-0.519147	-0.780808	-0.193790	0.181842	0.046376	-0.262766	0.534435	0.851044	-0.485407	-0.490462	0.439454	0.158499	0.194208	0.512681	0.107587	0.443766	0.332938	-0.258185	-0.602759	0.183055	-0.024243	-0.091659	-0.187944	-0.254268	0.185962	-0.278665	0.567698	0.785961	0.088035	-0.111991	-0.581842	-0.378416	0.216607	-0.068349	0.342426	-0.105801	-0.138840	0.035990	-0.169883	0.123034	0.293789	-0.080993	-0.205177	0.316306	-0.309683	0.067637	0.269117	0.371017	0.037881	0.288590	0.132375	-0.541927	-0.536016	0.372244	-0.482784	0.091117	-0.173312	-0.379192	0.082158	-0.809482	-0.066514	0.016965	-0.389903	-0.423344	0.609383	0.554221	-0.083982	-0.378262	-0.349423	0.453873	0.506908	-0.310372	-0.033887	0.653820	0.509007	0.773284	-0.085008	-0.028040	0.185246	-0.359423	-0.687752	0.055724	-0.463943	-0.384487	-0.328898	0.082892	0.378341	0.080256	-0.061865	0.096615	0.288073	-0.523772	-0.083928	-0.486688	-0.151128	-0.485502	0.508326	0.210098	0.000597	0.159689	-0.088580	-0.180318	0.179019	0.000324	-0.088707	0.288983	-0.001677	-0.060448	-0.612396	-0.424105	-0.130684	-0.401061	0.561095	-0.300729	-0.014177	-0.077621	0.103421	-0.042555	-0.199744	-0.114201	-0.406890	-0.664754	-0.137717	-0.514262	-0.418631	0.551334	-0.202566	-0.584328	-0.194538	-0.127069	-0.125591	-0.201231	-0.285036	-0.387407	-0.128533	-0.084087	0.085134	-0.217579	-0.302701	0.059511	-0.191421	-0.203898	0.623435	-0.274330	-0.631561	-0.077085	-0.136860	0.420187	0.434043	0.319722	-0.615998	0.219032	0.716329	0.662380	-0.304319	-0.340945	0.390093	0.287230	-0.366043	-0.307667	0.402686	0.205432	0.613942	-0.078559	0.199516	-0.063513	0.132788	-0.316247	-0.254395	0.690441	-0.560759	0.066085	-0.092323	0.429778	0.254824	0.088507	-0.316172	-0.001936	0.096900	-0.643324	-0.244554	-0.033676	0.166185	0.027376	0.388276	-0.201637	-0.085916	0.314879	0.587353	0.249351	-0.253006	0.619715	-0.326565	0.469805	0.014014	0.482136	-0.450330	-0.192769	-0.122036	-0.351923	-0.377933	-0.233657	-0.462807	0.100957	-0.379023	0.017782	-0.096804	-0.232508	-0.513221	-0.405899	0.059703	0.427064	-0.433257	-0.195417	-0.171765	-0.401465	-0.127255	0.411155	-0.005765	-0.116518	-0.410409	0.339795	-0.212939	-0.326044	0.029549	-0.099614	0.024432	0.104141	0.221821	-0.089213	0.431573	0.206218	-0.122875	-0.522008	0.083889	-0.049138	-0.409705	-0.584484	0.507647	0.073169	
-0.478489	-0.509799	0.321465	-0.296445	0.108603	0.580971	-0.149950	-0.408202	0.342732	-0.276653	0.272931	-0.706420	0.233232	0.432295	-0.084090	-0.494088	-0.085893	0.492011	0.826222	0.173057	-0.487314	0.505948	0.217725	-0.269276	-0.600669	-0.212033	-0.385028	-0.201690	-0.161989	0.623021	0.329458	-0.079804	-0.363748	-0.284031	0.214009	0.294700	0.241462	-0.174051	0.520431	-0.525736	-0.416374	-0.105935	-0.415500	-0.469991	0.028574	-0.136822	0.265201	-0.472005	-0.067578	0.079980	0.588294	-0.153619	-0.152079	-0.204289	0.530258	0.401564	0.523283	0.668838	-0.025235	-0.120772	0.489726	-0.234060	0.122617	-0.423796	0.370722	0.087149	0.684631	-0.181734	-0.067539	0.035559	-0.427890	0.385066	-0.056854	0.058576	-0.483849	0.684333	-0.095595	-0.006167	0.438540	0.284989	-0.530824	0.445540	0.181853	0.019356	-0.203421	0.092080	-0.575966	0.438829	0.080842	0.116156	0.262671	0.050807	-0.170895	-0.106025	0.287477	0.788737	0.054720	-0.058217	-0.422964	0.094476	0.017375	0.074961	0.064706	0.295202	0.350250	-0.045835	0.024198	-0.267728	0.767386	-0.250522	0.195794	0.123477	-0.486418	-0.256137	0.029071	-0.591550	0.197397	0.426731	-0.425268	0.151668	-0.697315	0.522907	-0.360213	0.050734	-0.180986	-0.082843	-0.307821	-0.831833	0.034335	0.060278	0.158699	0.223961	0.070154	0.286026	0.071040	0.563627	-0.513644	0.558472	0.521816	-0.269564	-0.307635	-0.227281	-0.310199	0.270488	0.281476	0.353228	0.271133	0.094282	-0.622023	0.626372	-0.118120	-0.594429	0.397736	-0.390164	0.119576	-0.549536	-0.240043	-0.039564	-0.355768	0.193123	-0.262855	-0.252948	-0.472592	-0.673260	0.563373	-0.163574	0.173402	-0.400170	-0.156104	0.268351	-0.264234	0.222888	-0.076766	-0.347545	-0.266710	-0.342655	-0.771466	-0.133513	0.499445	-0.293689	-0.346940	-0.396896	-0.087900	0.066007	0.060242	-0.297155	0.498041	0.168262	0.117870	-0.128903	-0.408012	-0.694085	0.239834	-0.395436	-0.271432	-0.233479	0.423170	-0.596323	0.163415	-0.351442	0.574547	0.424630	0.699029	-0.588241	-0.580575	0.108688	-0.304870	-0.362515	0.059274	0.079719	-0.303574	0.071885	0.293183	0.551277	-0.017360	-0.288777	-0.423739	0.247653	0.450093	-0.413577	-0.069039	-0.271554	-0.096649	-0.234838	-0.119330	-0.578711	-0.377962	-0.319934	-0.415558	0.268103	-0.082277	-0.264833	-0.058516	-0.227250	0.107171	0.773073	-0.073647	0.151658	-0.493112	0.001291	-0.475781	0.589047	-0.011190	0.353255	0.070221	0.071625	0.597075	-0.046165	-0.177275	0.750554	0.659180	0.465638	-0.573920	0.459829	0.041380	0.044165	-0.054249	-0.109713	0.555257	-0.158526	-0.362713	0.393097	0.298982	0.305598	-0.059690	-0.054862	0.256241	0.254978	-0.704919	-0.099660	0.217124	-0.302868	-0.428009	0.222196	0.504991	0.208829	0.016560	0.031718	-0.210614	0.214751	0.178352	-0.582368	-0.199647	0.433337	-0.414324	0.154475	-0.042733	-0.337107	-0.075445	0.718715	0.521025	-0.370990	0.138225	0.067115	0.503143	0.314459	0.129475	-0.173048	0.385068	0.524201	
-0.657817	-0.847727	-0.402887	-0.416537	0.214910	0.604588	0.628590	0.004283	0.076698	-0.031234	-0.483516	-0.104298	-0.160549	0.196573	-0.022988	-0.104297	0.132843	0.667439	0.236545	0.579200	0.070858	0.252322	-0.304689	-0.309646	-0.230432	0.544135	0.120377	-0.148584	-0.206785	-0.123814	-0.295500	-0.241920	-0.490845	-0.331546	-0.084484	0.303689	-0.102183	0.538867	-0.198207	-0.453273	0.392940	0.008000	0.062757	-0.217586	-0.185230	-0.764005	0.283655	-0.471347	-0.330577	0.185110	0.505702	0.209012	-0.276143	0.240414	-0.147947	0.367173	0.589662	0.395185	-0.738318	0.183764	-0.043159	-0.459360	0.385061	0.302957	0.341733	0.018190	0.594180	0.427584	-0.445960	-0.429148	-0.385459	-0.488182	0.143482	0.453362	-0.166723	-0.329415	-0.108874	-0.457828	-0.456564	-0.352687	-0.127142	0.365535	-0.535219	-0.463420	0.278336	-0.206897	0.329989	0.359648	0.226906	0.327947	0.416890	0.150277	0.053207	0.455710	0.063451	0.619453	-0.269234	-0.535576	0.155052	-0.286430	0.058540	-0.459823	-0.052406	-0.393348	0.480793	0.091754	-0.020394	-0.189467	0.372275	-0.422268	-0.148392	-0.041747	-0.313228	-0.014803	-0.060592	0.359141	0.173304	0.269579	-0.053003	0.089737	-0.173895	-0.076934	-0.003841	0.264448	-0.233182	0.242044	0.354087	-0.277562	-0.311955	0.234705	0.603222	0.035724	-0.273957	-0.275978	0.169054	0.310122	-0.007831	0.342902	0.049897	0.278336	-0.070581	-0.375881	-0.608569	0.304601	-0.294067	0.598472	0.451472	-0.247148	-0.214253	0.144833	-0.376278	0.124418	0.708274	-0.149409	0.228154	-0.582064	-0.131744	-0.420518	0.092582	0.222058	0.069237	-0.284731	-0.161395	-0.133763	0.174680	0.148172	0.608316	0.026687	-0.459710	-0.090360	-0.409814	0.536000	0.581672	0.064240	0.484151	0.218581	-0.250157	0.269453	0.504657	0.546040	-0.249485	-0.441090	0.164003	-0.611591	0.189084	0.278490	-0.352809	-0.719675	-0.003604	0.944706	0.155462	-0.062771	-0.292662	0.057645	-0.440868	-0.315999	-0.140885	0.606603	-0.003420	-0.107341	0.175256	0.125390	-0.020080	-0.448851	-0.743374	-0.452844	-0.590667	0.223774	0.353322	-0.370104	-0.287891	-0.092392	-0.120408	0.095682	-0.250950	0.377940	-0.416494	0.267188	0.464597	0.074834	0.166699	0.322372	0.177466	0.380841	-0.239472	-0.270899	0.438027	0.154720	-0.106931	0.416107	0.098528	0.524552	-0.302004	-0.216292	0.054508	0.079141	-0.485106	-0.045958	-0.277780	-0.414271	0.156825	0.941302	-0.234471	0.108571	-0.119582	-0.030806	-0.047990	0.183535	-0.396026	0.050027	-0.085930	0.273401	-0.436506	0.250406	0.265318	0.001940	0.577397	-0.053423	0.697635	-0.489620	-0.148540	0.401330	-0.216045	0.012869	0.314243	0.934203	0.247506	-0.477218	-0.315490	-0.249847	0.011433	0.348929	-0.310851	0.100695	0.325824	0.174321	-0.521052	-0.317915	-0.140647	-0.518076	-0.828292	0.088441	0.258747	-0.445710	-0.535961	-0.162238	0.333723	-0.232153	-0.438965	0.115094	0.029641	-0.399759	-0.472480	0.016348	-0.081070	0.348485	-0.249256	-0.095867	0.028741	0.192848	
0.247485	-0.142719	0.348016	0.383250	0.188877	0.115590	0.306355	-0.219803	0.285365	0.640934	-0.013714	0.444655	-0.209145	-0.074551	-0.384163	-0.026953	0.205031	0.183308	0.082865	0.603394	-0.365256	0.348192	-0.237401	-0.396015	-0.112042	0.103693	-0.330020	-0.396666	-0.300954	0.022623	0.141307	0.244733	0.127245	0.195537	0.140209	0.410380	-0.071940	0.174743	0.175002	-0.633732	-0.346968	-0.142191	-0.413722	-0.163318	0.277759	-0.584085	-0.114632	-0.059632	0.488745	0.437061	0.054474	-0.546269	0.212063	-0.056351	-0.017368	-0.050118	0.167133	0.342254	-0.394580	0.203811	0.370443	-0.344906	0.126312	0.032598	0.093548	-0.333055	-0.013502	0.285563	-0.235928	-0.515455	0.472442	0.419088	-0.196683	0.221731	-0.066977	-0.355149	-0.220435	0.019033	0.110835	-0.357533	-0.460882	0.666745	-0.460082	0.603761	0.017656	0.010225	-0.242901	0.495291	-0.511633	0.119356	-0.170048	0.610676	0.085010	0.051233	-0.012076	0.029750	0.315993	0.217451	-0.159763	0.173976	0.418959	-0.230185	-0.416426	-0.350881	-0.707455	-0.074910	-0.292455	-0.232667	0.312650	0.171028	-0.345927	-0.844979	0.095982	0.041303	0.539387	-0.390061	0.175343	0.216792	-0.277615	0.316200	0.145836	0.094705	0.516549	-0.009033	-0.112411	-0.222434	-0.558336	-0.503148	-0.037626	-0.060285	0.229443	-0.260548	-0.010937	-0.070663	0.000677	0.325841	0.171845	0.147611	0.381300	0.070980	-0.294036	-0.402844	0.109153	-0.124291	0.256884	0.435776	-0.219759	0.172847	-0.325585	0.343051	0.139120	0.060689	0.083066	-0.097931	0.054328	0.482156	0.663518	0.182952	0.228543	-0.167471	-0.608382	-0.387975	-0.124231	0.117744	0.544318	0.235670	-0.126256	0.513140	-0.049162	-0.042562	0.104439	-0.150139	0.288749	-0.536585	0.369648	-0.208146	-0.474113	-0.306430	-0.547131	-0.219404	0.173132	-0.097427	-0.558276	-0.612175	-0.483464	0.314191	0.219734	-0.740392	-0.572600	0.181080	-0.004759	0.038695	0.054166	0.186087	-0.224424	0.116891	0.347448	0.318005	0.013503	0.613306	-0.142658	-0.463234	0.378233	0.462703	-0.124291	0.047173	-0.414378	0.118813	0.093664	-0.166646	-0.195145	0.116861	0.453927	0.330599	-0.132167	0.375256	-0.010253	-0.389702	0.329859	-0.457044	0.122650	-0.025903	0.258314	-0.484483	0.339188	0.115452	0.223783	0.251018	-0.117148	-0.039502	-0.149115	-0.008771	-0.212712	-0.183991	-0.445249	0.843020	0.067885	-0.029718	0.118861	-0.227032	0.012847	0.280865	0.103363	0.248959	-0.624244	-0.534901	-0.151168	0.516536	-0.106960	-0.285270	0.000768	0.295363	-0.302492	0.094793	-0.085187	-0.176745	-0.235023	-0.306195	0.284827	0.166447	0.083832	0.512253	-0.348128	-0.433555	-0.277238	0.319563	-0.330732	0.504369	-0.247981	0.057361	-0.285718	0.305375	0.163334	0.269170	-0.227816	0.024612	-0.401703	-0.057588	-0.244753	-0.040027	0.000851	-0.441114	-0.254902	0.344697	0.265720	-0.374749	-0.303661	-0.540975	0.128269	0.333788	0.547438	-0.525564	-0.049120	-0.469145	-0.318329	0.190587	-0.224687	-0.538761	0.443985	0.101073	
-0.121914	0.099344	-0.076521	0.193919	0.163355	0.213378	0.626448	0.250106	-0.167966	-0.276464	-0.394856	-0.305304	-0.199035	-0.323128	-0.526042	-0.213740	0.419770	-0.285989	-0.153479	-0.237039	-0.074469	-0.191893	-0.054148	-0.330623	0.042437	-0.138974	-0.229795	0.548521	-0.341594	0.446722	0.151777	-0.408595	-0.165013	0.193240	0.371315	-0.377589	0.111172	0.460062	0.339049	-0.625209	0.291327	0.265986	-0.383702	-0.349942	-0.156713	-0.763611	0.097007	-0.293037	-0.313062	0.256977	-0.145801	-0.480788	-0.498540	0.022903	0.000966	0.238319	0.415082	0.475933	-0.508698	0.118005	-0.157579	-0.533547	-0.138984	0.169314	0.560691	0.442141	1.282764	0.445613	0.060140	0.112983	0.279633	-0.509715	0.377658	0.287847	-0.214283	-0.502072	-0.254329	0.165491	-0.311016	-0.076655	-0.128308	-0.065988	-0.103079	0.471104	-0.414666	0.488486	-0.405629	-0.262935	0.059444	0.036030	-0.181522	0.635445	0.341736	0.307925	0.100529	0.317483	0.043286	0.247848	0.002293	-0.128032	0.003498	-0.338324	-0.157548	-0.434427	-0.495076	-0.017975	-0.141153	-0.403013	-0.142151	0.055375	-0.121551	0.201237	-0.232143	0.469417	0.254716	-0.341430	0.417733	0.442772	-0.224165	-0.142033	0.233383	0.408321	-0.161539	-0.158974	0.091707	-0.465104	-0.126085	-0.458762	0.384911	0.277834	0.066458	0.030795	0.274938	0.583941	0.576828	-0.252299	-0.740978	-0.151141	-0.697486	-0.056117	-0.120380	-0.330779	-0.642688	0.092286	-0.265947	0.435040	-0.509110	-0.201681	0.239245	0.383193	0.144842	-0.790010	0.140420	-0.413043	0.245583	-0.013366	-0.260311	-0.623022	-0.519526	-0.509969	0.079879	-0.320720	0.113319	0.562723	0.292391	0.080895	0.729824	0.385505	-0.417354	0.243196	-0.180109	-0.534738	0.035453	-0.076795	0.419403	0.288465	-0.417812	-0.266933	-0.322151	0.538520	0.058816	0.221975	-0.417647	0.287769	0.339872	0.471789	0.137359	-0.679559	-0.565448	0.723445	-0.286103	-0.548365	-0.592949	0.382630	0.465489	0.385560	0.501991	0.522396	0.172236	-0.224029	0.192618	0.359480	-0.217443	-0.522874	-0.200135	-0.264259	-0.401042	-0.035189	-0.423589	-0.351025	-0.585834	0.492695	-0.077574	0.139429	0.559710	-0.142830	0.120207	0.290121	-0.156128	-0.717894	0.026379	-0.044735	-0.023201	0.182548	-0.333339	-0.159899	-0.104020	-0.148975	-0.075855	0.211700	-0.145018	-0.400833	0.153643	0.665970	-0.021566	0.357536	-0.475250	0.058542	-0.343295	-0.116593	0.240525	0.595146	-0.182606	-0.579125	0.055651	-0.409111	-0.512761	0.096623	-0.453384	0.313126	0.341427	0.466081	0.418239	-0.126826	0.100373	-0.304082	0.570162	-0.013112	0.247905	0.362074	0.224025	0.600011	-0.403926	-0.194694	0.325013	0.442257	0.216555	-0.470970	0.172371	-0.085917	0.336340	0.013361	-0.043631	0.468666	0.449390	-0.000471	-0.118236	-0.522470	-0.067131	-0.505586	-0.280019	0.135325	-0.244512	0.089280	0.221310	0.340776	0.583064	-0.097363	0.291863	-0.102796	0.125239	-0.073359	-0.260406	-0.071015	0.389395	-0.548991	0.438066	0.318601	0.173429	0.403630	
-0.507717	0.360144	0.060970	0.442436	0.207869	-0.110791	-0.147560	-0.188553	0.240653	-0.416598	0.150215	-0.124237	0.242022	0.084257	0.136894	-0.172705	-0.446146	0.107978	0.358824	-0.191187	0.235556	0.036932	-0.225630	0.420500	-0.190367	0.388225	-0.423995	-0.289454	0.337049	-0.014406	0.306314	0.265164	-0.334541	0.251107	0.371858	0.424509	-0.154341	0.703901	0.265728	0.047425	0.326772	-0.087647	0.379972	-0.539977	-0.398616	-0.418254	0.903923	-0.155110	-0.619115	0.255838	0.316300	0.444875	-0.179563	0.013989	0.408921	-0.018567	0.258711	0.290585	-0.113982	0.353129	0.531972	-0.311701	0.173722	0.555672	0.375769	0.140048	0.699542	0.585938	-0.229145	0.147768	0.096553	-0.032430	-0.471308	-0.067540	0.513161	-0.290946	0.561518	0.376916	0.323054	0.406302	-0.227922	-0.167753	0.484043	0.427620	-0.429163	0.190187	-0.459837	0.466893	-0.227587	0.144382	0.101604	-0.451333	-0.170944	-0.363165	-0.395597	0.137983	-0.006288	0.386520	0.299528	0.455388	-0.062376	-0.194181	-0.076941	0.361291	0.205872	0.350812	-0.239060	0.275391	0.319309	0.350966	-0.031791	-0.719386	-0.474224	-0.043023	0.357897	-0.188389	0.192911	0.535137	-0.094800	0.320652	-0.189765	0.250535	-0.398804	-0.412418	0.312835	-0.514967	-0.914361	-0.366150	-0.320324	0.249450	-0.207147	0.554977	-0.391687	0.127565	0.309145	0.647786	-0.155206	0.559998	0.153078	0.454399	0.225666	-0.352914	0.396258	-0.322850	0.102596	0.341025	-0.091759	0.006433	0.245328	0.258936	-0.321442	-0.660012	-0.030299	-0.252040	-0.374666	-0.234208	0.230146	0.161743	0.202204	0.302298	-0.166041	-0.443402	0.069026	0.108703	-0.053982	-0.241560	-0.117730	0.497218	-0.050681	-0.423623	0.098089	-0.814893	-0.135448	0.106536	-0.304623	0.557064	-0.497544	0.213078	-0.009146	-0.156168	-0.321531	0.226714	-0.191814	-0.008891	-0.103765	0.559157	0.540296	0.289664	-0.323349	0.696919	0.448103	0.240581	0.011882	0.010049	-0.270098	-0.389128	0.141189	0.478883	0.529582	-0.103993	0.172882	0.402023	-0.261927	-0.582296	0.089595	-0.045095	-0.214163	0.267312	0.369642	-0.344382	-0.600054	-0.279024	0.084097	-0.036263	-0.207541	-0.256339	-0.249624	0.165574	0.009097	-0.079090	-0.142514	-0.350065	-0.137889	-0.736076	0.116064	0.167946	-0.573499	-0.002311	-0.581831	-0.255627	-0.315556	-0.587215	0.230015	0.117639	-0.512688	-0.239331	-0.021714	-0.165505	-0.443253	-0.210000	0.211409	-0.197480	0.166814	-0.320529	-0.343503	-0.640645	0.104872	0.757799	0.399764	-0.424898	0.662296	-0.555701	-0.288375	-0.398268	-0.089045	0.487532	0.532635	0.001264	0.468195	-0.579757	0.178950	-0.446268	-0.364398	-0.005572	0.053448	-0.549778	0.473013	-0.308409	0.007752	0.257306	0.305533	-0.302582	0.113225	-0.181904	-0.269481	0.221458	-0.013517	0.465640	-0.296718	-0.189059	0.129719	-0.334069	-0.200511	-0.122693	-0.237781	-0.069996	0.688260	-0.519064	0.455641	0.755385	-0.021067	0.025033	-0.590047	-0.300259	-0.222933	-0.020967	-0.213222	0.200729	0.333518	0.285261	
0.109474	-0.084561	0.542544	0.100511	-0.195058	-0.368550	-0.123918	0.316609	0.529560	0.208858	-0.732365	0.409422	0.625620	-0.453821	-0.269089	-0.119638	0.237382	-0.241057	-0.060294	0.246718	-0.693617	0.320368	-0.234593	-0.461458	-0.453896	-0.217858	0.472798	0.135908	-0.576614	0.049113	-0.118850	0.249540	-0.200673	-0.395733	-0.205368	-0.621301	-0.003052	0.561389	-0.506591	-0.270541	-0.136592	-0.636320	0.089354	-0.351108	0.141300	-0.144088	0.133112	-0.028172	-0.110219	-0.464789	0.185595	-0.008283	0.141714	-0.073387	0.414066	0.549928	-0.586331	0.339541	-0.135377	-0.414140	0.167903	-0.271593	0.397800	0.051008	0.357636	0.235869	0.579007	-0.098123	-0.372322	-0.046154	0.096625	-0.323450	0.207300	0.512852	0.066456	-0.372580	-0.000535	-0.482085	0.088959	0.384057	-0.295055	-0.468827	0.190088	0.720968	0.322103	0.197112	0.307801	0.477461	-0.424555	-0.229905	-0.330400	-0.763817	0.527793	-0.199268	-0.012591	0.048572	0.272320	-0.298466	0.136975	0.392999	0.289731	-0.251596	0.367153	0.322983	-0.687820	-0.083824	0.645070	-0.026054	0.120956	-0.183628	-0.265288	0.025654	-0.080433	-0.539775	0.119517	-0.132336	-0.069594	0.068733	-0.068543	0.163112	0.167149	-0.222145	0.473490	-0.184666	-0.071099	-0.464504	0.514295	-0.604081	0.085587	0.352012	0.346127	0.157733	0.487583	0.608625	-0.025571	-0.317100	-0.705811	-0.365260	-0.330663	0.015774	-0.195403	0.568131	-0.460375	0.318483	0.413518	0.432132	-0.349053	0.063177	0.002409	0.035992	-0.156035	-0.638649	0.565148	-0.174942	-0.204241	-0.322112	0.182801	-0.317726	0.068004	-0.245785	0.347297	-0.297705	0.059316	0.808067	-0.403642	0.591802	0.702291	-0.102774	0.289616	-0.176882	0.391480	-0.331328	-0.062323	-0.425075	-0.509211	-0.413290	-0.698142	-0.072721	0.326797	0.168439	0.229468	-0.120402	-0.191547	0.263651	-0.016662	0.482118	-0.318389	-0.420572	-0.192824	0.406560	-0.119531	-0.187462	-0.302173	-0.266314	-0.429089	-0.191235	0.483481	-0.157719	-0.218410	0.314434	0.210128	-0.241606	0.424192	-0.016886	0.055767	-0.404562	-0.377114	0.027534	-0.143847	-0.324995	-0.458694	-0.129282	0.084769	0.360171	0.190660	0.635442	0.237181	-0.452896	-0.109154	0.185546	0.330499	0.032135	0.592704	0.416155	0.172948	-0.572815	-0.475304	0.009228	-0.304939	0.384477	-0.412347	0.230949	-0.127200	-0.045917	0.291347	0.246425	-0.338277	0.330014	-0.120128	0.271823	0.479631	0.107020	0.189604	-0.154652	-0.554767	0.028283	-0.742260	0.362422	0.284386	0.227547	0.074047	0.420552	-0.320870	0.088176	0.154274	0.283116	0.381735	0.134016	0.024489	0.029116	-0.536148	0.136726	-0.053653	-0.028675	0.079984	0.313502	-0.185026	0.532804	-0.128286	0.517613	0.128528	-0.294558	-0.207395	0.014589	-0.030724	0.232884	-0.546221	0.577466	-0.729149	0.346729	-0.492768	0.126821	-0.095456	0.403603	-0.568331	-0.456424	0.522165	0.154323	-0.005156	0.604873	0.221199	0.234945	-0.119242	-0.008244	-0.016871	-0.225466	0.614206	0.261872	0.088761	-0.415626	
0.209105	0.302950	-0.410471	-0.296253	-0.359382	0.313647	0.129982	-0.181155	0.283738	0.093145	-0.489830	-0.271883	0.232732	0.139750	0.660025	0.290387	0.490970	0.105126	0.269927	-0.010319	0.148401	-0.129035	0.324402	-0.497262	0.130069	0.427614	-0.177064	0.177723	0.270257	0.242652	0.420610	-0.095362	-0.281822	-0.568763	0.073032	0.217629	0.514792	0.547122	0.298416	0.058277	0.146326	-0.381079	0.519144	-0.482024	-0.255388	0.274980	0.488825	-0.427118	-0.208283	-0.055968	0.249135	0.203887	0.330388	-0.198734	0.695145	0.124100	-0.252794	0.260539	0.094248	-0.276233	0.446611	0.158993	0.072162	-0.350911	0.249495	0.046084	0.495792	0.371056	-0.162285	0.056236	-0.115240	0.338867	0.423179	-0.105838	-0.117472	0.702297	-0.082921	0.460717	0.712137	-0.067827	-0.142279	0.148190	-0.165114	-0.286458	-0.315814	-0.059779	0.167968	0.058610	0.109181	-0.568863	0.202542	-0.230455	0.231039	-0.221183	0.183585	0.485402	0.070039	-0.425474	0.053047	0.273030	0.314513	0.498068	-0.082296	-0.043301	-0.236742	-0.000506	0.090350	-0.080419	-0.106828	0.269285	0.280016	-0.139628	-0.298255	0.095629	0.466489	0.039684	-0.128700	0.371456	-0.310249	-0.394124	0.004269	0.048955	0.088182	0.246001	-0.454131	-0.660726	0.138949	-0.228262	-0.164771	-0.443202	-0.421253	-0.044135	-0.312881	0.213002	-0.140355	0.119091	-0.265657	0.207431	0.196808	0.148764	-0.011700	0.295134	-0.349135	0.368719	-0.066484	0.045530	-0.144542	0.558367	0.555871	0.041373	-0.642568	0.077691	-0.435833	0.000352	-0.137025	-0.375951	0.332345	-0.500405	0.348564	-0.482056	-0.317449	0.297820	-0.079763	0.053556	0.057572	0.219225	0.448881	0.372436	-0.138254	0.139857	-0.176897	0.046555	-0.105434	-0.228345	0.219366	0.239033	-0.096766	-0.285859	0.139841	0.263089	0.092889	-0.026330	-0.310429	0.126816	-0.246182	0.381248	-0.287769	-0.397120	-0.491174	0.366620	-0.441051	-0.100095	-0.134013	0.190032	0.155795	-0.285873	0.272357	-0.100140	0.234145	0.703770	0.433498	-0.251009	0.469610	-0.347100	0.572204	0.002869	0.364401	-0.219357	0.068130	-0.222645	0.233824	0.058444	-0.163638	-0.379582	-0.461865	-0.015373	-0.341768	-0.671329	-0.013188	-0.457076	0.117887	-0.138637	0.110043	-0.130919	0.378446	-0.599806	-0.046734	0.211095	-0.204345	0.122004	-0.122552	-0.164460	0.101460	0.118520	-0.149569	-0.147235	0.556728	0.149207	0.119252	0.033556	0.475670	0.043309	0.232398	-0.427784	-0.070073	0.024716	-0.099248	-0.368540	0.471114	-0.161468	0.183388	-0.115064	-0.065705	-0.415585	0.416166	0.026782	0.056347	0.145841	-0.231194	0.178278	-0.483788	0.363341	-0.478799	0.056119	-0.341305	0.189664	0.517720	0.638920	0.765313	0.082668	-0.122694	0.536425	-0.002301	0.558308	-0.682137	0.360175	0.078869	0.339329	-0.479142	-0.014567	-0.080531	-0.405472	0.083171	-0.265249	-0.292552	0.269551	0.378125	-0.146209	-0.359085	0.499197	0.000370	-0.242432	-0.215642	-0.000774	0.590071	0.382352	0.361522	0.222230	0.214920	0.364437	
-0.400584	-0.465404	0.200451	-0.518556	-0.703550	0.267853	0.227784	0.178151	0.168462	-0.410137	0.413313	-0.327477	0.189079	0.199832	0.000861	0.123554	-0.047708	-0.382791	-0.457084	-0.023554	0.285808	0.052310	0.321852	0.029955	0.396084	0.011357	-0.134766	0.034697	-0.229987	-0.140093	-0.209422	0.325091	-0.503957	-0.255123	0.310371	-0.405896	0.215259	0.215634	0.276052	-0.441078	0.213216	0.400274	-0.072734	-0.235454	0.276064	0.031838	0.205572	-0.326353	0.120209	0.340061	0.289286	0.158796	-0.368457	0.185696	0.006549	0.609960	-0.061008	0.461725	-0.267017	0.222004	0.231816	-0.012473	-0.012330	0.174071	0.454288	-0.049179	0.053054	0.121931	0.484037	0.500897	0.429804	-0.114143	0.015133	0.719937	0.293578	-0.022137	0.281048	-0.131294	0.227225	-0.100342	-0.383678	-0.014482	0.390879	-0.243627	0.453531	-0.253537	-0.648792	-0.368040	0.429585	-0.194431	-0.255281	0.067136	-0.336919	0.049801	-0.008586	0.475588	0.587479	0.027098	-0.294605	0.665720	-0.093952	0.486185	0.030212	-0.232810	0.352910	-0.358853	0.436269	0.151085	0.171596	-0.069481	0.486748	0.212301	0.341083	0.423083	0.411987	0.048843	-0.671436	-0.593550	-0.367003	0.289863	-0.153756	-0.414184	0.061153	0.066170	0.335014	-0.584513	-0.010970	-0.044992	0.148287	0.155597	-0.179536	-0.040280	0.055636	0.511590	0.258290	0.132058	-0.404005	0.001825	-0.361503	-0.009994	0.284512	-0.301625	-0.351171	-0.165952	0.413831	0.331367	-0.137847	-0.373517	0.051650	-0.128676	-0.410208	0.397280	-0.099115	0.180576	-0.334020	-0.614114	0.286863	-0.005942	0.353142	-0.080824	-0.079376	-0.576992	-0.002548	-0.217514	-0.575370	0.529035	0.336973	0.133465	-0.405342	0.147746	-0.550069	-0.444156	0.544209	-0.068786	0.064071	0.328357	0.061288	-0.554719	0.345439	0.179895	0.029612	-0.485511	-0.546583	0.471740	0.161764	0.076815	0.249005	-0.207723	-0.064906	0.019315	0.069677	-0.429128	0.158051	-0.314970	-0.351421	0.385581	0.401926	0.308516	-0.555170	-0.142396	0.097192	-0.558835	-0.277419	-0.390256	0.167889	0.417453	-0.207069	0.168195	0.344151	-0.305157	0.166511	-0.072761	-0.312234	0.041922	-0.413306	0.392272	0.529134	-0.600269	-0.113172	0.023419	0.231355	0.431670	0.049366	-0.001775	0.378284	-0.081620	-0.036689	0.365662	-0.054180	-0.071800	0.370538	0.284830	-0.127996	-0.056984	-0.211639	-0.730590	0.539092	-0.015019	0.068696	0.180702	-0.278048	0.101337	0.451292	0.608783	-0.079419	0.337432	-0.487727	0.280606	0.724919	0.509528	0.001765	0.185701	0.121693	0.508549	-0.307198	0.046575	0.070750	-0.038030	-0.083179	-0.193621	0.161160	-0.119027	-0.040509	-0.368522	-0.205577	0.151140	-0.414449	-0.221173	0.101058	0.360540	0.097438	-0.150080	-0.242073	-0.157828	0.268654	-0.113316	-0.330035	0.025371	0.093844	-0.155188	-0.651860	-0.437484	-0.486299	0.056830	0.256801	-0.352478	-0.193931	-0.268194	-0.015245	0.062543	0.379390	-0.317761	0.104166	-0.261655	-0.081316	0.376228	0.404519	-0.033465	0.595356	-0.035803	
0.148333	-0.191736	0.467658	0.367845	-0.490346	0.180043	0.553926	0.091206	-0.232663	0.382859	0.220836	-0.383736	0.967473	0.407505	0.523416	0.374305	-0.323929	0.316099	-0.269839	0.067967	-0.168125	-0.373697	0.369719	0.416204	-0.390363	-0.425089	0.239580	-0.446018	0.210173	0.204409	0.463561	-0.350881	-0.331988	-0.197870	0.232720	-0.196451	-0.439267	0.473476	0.045060	-0.666768	0.097308	0.091306	-0.350223	0.304380	0.391083	0.529132	0.096398	0.218261	0.283941	0.416228	-0.007223	-0.483342	-0.130875	-0.421203	-0.208888	0.385088	-0.146803	0.604069	-0.157127	0.422925	0.167844	0.138304	0.317371	0.070479	-0.560967	0.703831	0.303057	-0.497693	0.208250	-0.035636	-0.480799	0.030534	-0.531130	-0.070356	-0.190269	0.241409	0.021710	0.395297	0.093310	0.077386	0.143641	0.247593	-0.396753	-0.528790	0.225984	-0.439696	0.507278	-0.601743	0.701142	-0.440453	-0.416947	-0.157687	-0.016073	0.393457	-0.283034	0.253553	0.434955	0.568353	0.166637	0.358910	0.095705	0.334410	-0.473475	-0.033497	0.459751	-0.205233	-0.169581	0.470880	0.429822	0.305388	0.528932	-0.584869	-0.200111	0.451971	-0.156558	-0.525771	-0.484447	0.122051	-0.065641	-0.512025	-0.096500	-0.242605	0.029099	0.386959	-0.035580	-0.079345	0.159211	-0.578646	0.060545	-0.400788	0.104521	0.700439	0.581160	0.075061	0.077857	0.547986	-0.404699	0.195855	0.239343	-0.671852	0.136841	0.266029	0.172866	0.411675	0.381786	0.625594	-0.718505	0.499007	-0.460501	-0.084524	0.261600	-0.111678	0.166021	-0.165954	-0.214630	-0.326605	0.305677	-0.528411	-0.208692	-0.383477	0.016058	-0.523900	-0.269058	0.123836	0.369906	0.414365	-0.510565	-0.318772	0.294231	-0.413627	-0.349067	-0.292078	0.477950	0.096510	-0.580555	0.036093	-0.522503	-0.790519	-0.148754	0.098959	0.098608	-0.482263	0.157539	-0.279951	0.048601	-0.036474	0.005879	-0.378282	-0.117565	0.073031	-0.064612	0.448359	-0.107579	-0.133252	-0.490992	0.181237	0.081613	-0.084324	-0.047108	-0.224100	-0.036541	0.244569	-0.000756	-0.144264	-0.161977	-0.029388	0.667103	0.081595	-0.099964	-0.558613	0.082260	0.454402	0.056599	0.287110	-0.465602	0.340009	-0.370942	-0.016692	-0.422201	-0.054097	0.045411	-0.409437	-0.205623	0.415081	-0.410605	0.036311	-0.139008	0.068128	0.145844	0.586875	-0.132508	-0.053267	0.077357	0.431591	0.279985	0.156174	0.585494	0.242028	-0.095990	-0.014753	0.594065	-0.147330	-0.378961	0.175924	-0.067184	0.059057	-0.350059	0.342385	0.654678	0.158944	-0.066820	-0.545832	0.298142	0.252315	-0.227141	0.464798	-0.210299	0.039297	-0.112022	-0.366204	-0.289566	0.534851	0.114112	0.392849	-0.421829	-0.622078	0.490647	-0.019547	0.194579	0.383742	0.176706	0.613961	0.270001	0.296697	-0.352780	0.670246	-0.011586	0.208109	-0.283822	-0.154725	-0.335600	-0.433694	-0.413950	0.532108	0.392001	-0.049922	0.643684	0.757119	0.266846	-0.250186	-0.251490	-0.362673	0.217310	0.020910	-0.224682	0.001938	0.157362	0.144140	0.108863	-0.297234	
0.098005	-0.778024	0.541676	-0.165787	-0.491270	-0.015464	-0.403285	-0.198071	0.612680	0.302374	-0.154226	0.415336	0.587687	0.339289	0.414377	0.234470	0.048756	0.062935	-0.049338	-0.417633	0.430728	0.292995	-0.218405	0.367025	-0.335583	-0.382546	-0.401329	0.104797	0.191597	0.451006	0.485900	0.027598	0.393462	0.322329	-0.666496	-0.359918	-0.499635	-0.007233	-0.095981	0.383557	0.464881	0.408342	0.625681	0.270298	0.298926	0.102054	-0.437499	-0.537742	0.045003	0.308071	-0.057774	-0.062553	-0.578435	-0.415096	0.008395	-0.036661	-0.000898	0.431486	0.403426	-0.074016	-0.188441	0.283211	0.377896	-0.029812	0.015469	0.562320	0.176409	0.090613	-0.461977	-0.011702	-0.066971	0.416492	-0.054469	0.109685	0.024237	-0.142672	0.735744	0.313769	0.092642	-0.052813	0.237419	0.153507	-0.664031	0.301503	0.405555	-0.082251	-0.260404	-0.739864	-0.202238	-0.283828	0.311013	0.005835	0.345524	-0.085029	0.476001	0.283323	-0.129209	-0.357918	-0.462842	-0.095891	0.462866	0.071335	-0.434804	0.189550	0.202875	0.316813	-0.311580	0.398409	0.002993	0.192870	-0.181138	-0.379131	-0.198951	-0.135170	-0.214842	-0.544916	0.141139	-0.091028	-0.065197	0.389533	0.199190	0.308716	-0.025308	-0.004425	-0.176584	-0.317777	-0.195064	-0.049679	0.055859	-0.426939	-0.040534	0.219381	-0.036964	0.415758	-0.335328	-0.095322	0.160585	-0.280048	-0.414306	-0.089469	-0.232554	-0.259102	0.244502	-0.434883	0.021115	-0.200253	-0.360451	0.022272	0.042195	0.071343	-0.142319	-0.179081	-0.201984	0.385593	0.099719	0.139877	-0.233107	0.002323	-0.424901	0.273035	0.511280	0.374335	-0.305353	0.204987	0.453225	-0.076925	0.564309	0.502308	0.206485	0.355560	0.035851	0.225324	-0.438368	-0.416971	-0.501666	0.313854	-0.392831	-0.320082	-0.511333	0.259454	-0.362453	-0.033500	-0.575893	0.055929	0.145860	0.673314	-0.187324	-0.000606	0.320292	-0.068521	-0.318706	0.486405	-0.212531	0.026965	-0.153518	-0.180345	0.606765	-0.225414	0.209887	0.138659	-0.324698	-0.500365	-0.006473	-0.405978	-0.148644	0.080848	-0.777144	0.329090	0.265333	-0.266003	-0.172627	0.433524	0.271634	0.357379	-0.123452	-0.089766	-0.010392	0.161464	0.385265	-0.133381	-0.269926	-0.614837	-0.397208	-0.050578	-0.226015	0.022714	0.285611	0.218297	0.245718	0.013446	-0.228675	0.735679	0.173809	0.279083	-0.270473	0.415162	-0.125961	-0.370712	-0.130715	0.649225	-0.196117	0.589955	0.624466	-0.181639	-0.130102	-0.098888	-0.625909	-0.606717	-0.169288	0.704131	-0.074431	-0.119528	-0.405497	0.173951	0.200310	0.266472	-0.493520	0.038521	-0.045995	0.133604	0.169670	0.223121	0.178332	-0.229815	-0.718912	0.498119	-0.462058	-0.203733	0.408911	0.235026	-0.302089	-0.453986	0.067674	-0.578962	-0.309415	-0.307022	-0.235029	-0.199456	-0.522602	0.146884	-0.147231	0.029731	-0.565009	-0.037326	-0.129848	0.365498	-0.054020	0.097541	-0.333554	-0.023847	-0.266362	0.493696	0.331300	0.474384	-0.368180	0.344094	0.422020	-0.117328	-0.140479	0.069811	
0.732406	-0.736749	0.023382	-0.232302	-0.232247	0.558010	-0.089911	0.346995	0.007044	0.032038	0.107337	0.197783	-0.200767	0.197560	-0.252766	0.139739	0.513325	-0.494374	0.311044	0.130567	0.598634	0.394187	0.290914	0.078201	0.304917	0.367953	0.432592	-0.019155	-0.471610	0.375460	0.749369	-0.314904	0.627910	-0.437419	-0.217823	-0.408941	-0.072581	0.469576	-0.303392	-0.022624	-0.146685	0.095615	0.018041	0.182003	-0.007425	0.024706	-0.359017	-0.014993	0.281850	0.295646	0.349765	0.348836	-0.362145	-0.491016	0.060485	-0.007008	-0.286455	0.018767	0.192111	-0.334162	0.476125	0.443998	-0.315558	0.215918	0.333765	0.343579	0.377018	-0.247003	-0.213778	-0.483580	0.265246	0.095660	0.430710	-0.151501	-0.253962	0.665769	0.554696	-0.088953	0.547622	-0.155569	-0.161398	-0.026889	-0.618964	0.254943	0.095507	0.160235	-0.245606	-0.085851	0.310534	-0.320354	0.191500	0.201386	-0.117769	0.330843	-0.048056	0.074126	0.145667	-0.107312	0.130327	0.825652	-0.091287	0.201584	-0.124006	0.461725	0.107439	0.424820	0.469076	-0.415915	-0.226761	0.381600	0.031971	-0.479552	-0.374732	0.487381	-0.248676	0.255675	-0.078883	0.096596	-0.179752	-0.085770	0.362379	-0.280951	0.384971	-0.345746	-0.173552	-0.237223	0.311085	0.124914	0.069718	-0.105138	-0.029258	0.548686	-0.062837	-0.569813	0.450916	-0.360063	-0.589852	0.119705	-0.625686	-0.265026	0.836772	0.386046	0.375960	0.426237	0.316265	0.709906	0.089581	-0.059584	-0.252904	-0.067874	0.411502	0.055947	-0.083376	0.341120	-0.211027	0.517906	-0.383780	-0.220482	0.067156	-0.048784	-0.489529	-0.156210	0.099691	0.049684	-0.139249	-0.152735	-0.291381	0.379340	-0.452505	0.213215	-0.778467	0.282660	0.102992	0.289815	-0.079112	0.075095	0.027169	-0.301717	0.310143	-0.144755	0.296283	-0.005842	-0.001545	-0.235288	0.092235	-0.400517	0.200495	-0.644892	-0.318134	-0.473779	-0.196234	-0.051533	-0.302770	0.032755	0.312259	-0.342415	-0.305808	-0.330717	0.206042	-0.248782	0.202992	0.410759	-0.160791	-0.349608	0.006324	0.207737	0.383349	0.183600	-0.554954	0.066341	0.321045	0.303574	0.296769	0.024482	-0.235235	0.442391	-0.034218	-0.009689	0.081251	0.206996	0.508182	-0.284482	-0.455493	-0.383854	-0.368047	0.249357	-0.009100	0.108184	0.273578	0.023865	-0.132528	0.608158	-0.376731	0.374739	0.645795	-0.007492	-0.064100	0.137757	0.042406	-0.231060	0.381954	0.088117	-0.114239	0.459666	-0.239252	0.247464	0.393014	0.424615	0.134976	0.194856	0.088694	-0.349146	0.211854	0.132914	0.014209	-0.555124	0.044180	0.051154	-0.257242	0.291541	-0.583346	0.588279	-0.015516	-0.005886	-0.729407	-0.332036	0.457723	0.180772	0.288937	-0.300000	0.188196	0.067326	-0.319216	0.524834	-0.086235	0.707249	0.375938	-0.039968	0.189802	0.127422	0.404532	0.079007	0.194478	0.144635	-0.230750	0.014522	0.461786	0.555532	-0.367932	-0.015980	-0.008465	-0.187226	-0.140861	0.441606	0.122398	0.498619	-0.085189	0.105142	-0.252000	0.407581	
0.447440	-0.917846	-0.023477	0.147795	-0.680867	0.511996	0.050119	-0.074566	0.017886	0.214496	-0.022369	-0.596386	0.714354	-0.037178	0.167344	-0.032663	0.562895	-0.442668	-0.503584	0.412839	-0.138966	0.257241	-0.070482	-0.508273	0.222594	0.301969	-0.339738	0.213470	0.398249	0.188961	0.369602	0.306314	0.145639	-0.710298	-0.141737	-0.085919	0.251759	0.014507	-0.311836	-0.390620	0.308576	-0.094603	-0.086957	0.280594	0.302436	0.240107	0.044914	-0.115219	-0.217708	0.453693	0.097197	-0.058851	-0.342221	0.513445	0.308070	-0.250469	-0.090188	0.122247	0.020420	0.156890	-0.307021	-0.202620	0.493709	0.400808	-0.226113	0.094495	-0.160036	-0.220341	-0.245065	-0.399126	0.033438	-0.599043	-0.030689	0.473627	-0.038846	-0.021608	0.145822	-0.062919	-0.515460	0.134242	0.042683	0.218285	-0.475592	0.446515	0.131639	0.188155	-0.486181	0.248451	0.369175	0.405457	0.051001	0.418968	-0.452196	-0.338521	-0.301436	0.331877	0.366006	-0.028546	0.082096	-0.061865	0.241808	-0.117033	-0.153559	-0.156635	-0.408784	-0.531200	0.308187	0.089338	0.115883	0.576412	-0.239458	-0.633129	0.093599	-0.088851	-0.558335	0.181781	-0.318570	-0.225435	0.161513	-0.500127	-0.291119	-0.500279	0.440080	-0.276169	0.232913	-0.044860	0.372900	-0.399058	0.202640	0.129941	-0.032933	0.362151	-0.259705	0.024251	-0.380199	-0.395152	-0.577659	0.444471	-0.021667	0.147386	0.798274	0.325563	0.163546	-0.338726	-0.228926	0.629856	-0.356886	0.321497	-0.373072	0.456323	0.365486	-0.098869	-0.876840	0.363319	-0.010087	0.069395	-0.372347	-0.165815	0.040646	0.160160	-0.400038	0.028214	0.320751	-0.036074	-0.365848	-0.465622	-0.337468	0.195683	0.207693	-0.291528	0.337171	0.101453	0.162494	0.285265	0.279093	0.019726	-0.037161	-0.417667	-0.482018	0.199011	0.608514	0.292259	-0.241563	-0.433430	0.439365	0.500078	0.180450	-0.927965	-0.442820	-0.350068	-0.308572	0.101965	-0.244427	-0.392106	-0.129904	0.195756	-0.144050	0.583083	0.294111	-0.580153	-0.286013	0.296873	0.351960	-0.789672	0.021698	0.104442	-0.247756	0.329893	0.313571	-0.103842	-0.193093	0.583389	0.158177	0.376908	0.153698	-0.169493	-0.192950	0.010954	0.019694	-0.200774	0.184464	-0.133226	-0.108664	-0.393111	-0.133561	-0.396518	0.457092	0.816332	-0.373561	0.114742	-0.526574	-0.069434	0.054868	0.821870	-0.215912	-0.397912	0.464271	-0.197033	-0.133540	0.216739	-0.477829	0.645289	0.316921	0.506458	-0.063382	0.022300	-0.037881	0.074917	-0.297014	-0.260995	0.196140	0.661720	0.396786	-0.386764	-0.307547	0.068744	-0.231273	0.048033	0.151217	-0.219839	-0.242285	0.593413	-0.141094	0.540624	0.146422	0.127060	-0.461165	0.137163	-0.405375	0.098320	-0.256051	-0.475644	0.163235	0.328010	0.489990	0.369978	-0.198009	0.370687	0.152232	-0.152403	-0.366845	-0.050184	-0.161693	0.528834	0.159792	0.054639	0.181086	0.741444	-0.033892	-0.226644	-0.557368	0.213115	0.371347	0.384732	0.291059	0.020628	0.330166	0.445757	-0.189618	0.288319	
0.345477	-0.582823	0.429336	0.530307	-0.218359	0.609398	0.196065	0.500373	0.139127	0.065970	0.193298	-0.079781	0.499306	-0.114132	0.034133	-0.086916	0.830785	0.220376	-0.012051	-0.400614	0.464188	0.197423	-0.162619	0.052079	-0.072489	0.429070	-0.131144	0.432281	0.126442	-0.172351	0.342965	-0.069977	0.293551	-0.657338	-0.573396	0.146249	0.486958	0.733912	0.444097	-0.197964	-0.013689	-0.047025	-0.033895	0.071863	0.339168	0.204326	0.092797	-0.301149	-0.072868	-0.579134	0.131018	-0.201679	-0.108750	-0.087592	0.405996	0.145761	0.058144	-0.145297	-0.534258	-0.211138	0.228981	0.228119	-0.347600	-0.180908	0.058921	-0.023561	-0.439943	0.082975	-0.547274	0.345653	-0.518312	-0.133434	-0.158756	-0.078850	0.139702	0.417815	0.504673	-0.347571	-0.074262	0.176571	0.152222	0.067443	-0.826569	-0.387616	-0.103013	-0.480008	0.020819	0.223552	0.225025	0.136788	0.344546	0.355870	0.053357	-0.605386	-0.494790	0.121506	-0.058170	-0.485949	-0.635116	0.141830	0.463570	-0.300873	0.138686	-0.199115	-0.375016	0.034541	0.214001	0.129526	0.412026	-0.289764	0.289873	-0.595865	0.490014	0.448058	-0.237384	-0.465810	0.397913	0.465434	0.122277	-0.385474	-0.173380	0.107744	-0.235991	-0.231438	0.504012	-0.441515	0.433101	0.325858	-0.329155	0.127529	-0.371042	-0.117852	-0.214495	-0.843383	-0.264658	-0.130162	-0.207887	-0.413710	-0.406271	-0.339100	0.421427	0.285352	0.155959	-0.383236	0.080149	0.682392	-0.376280	0.266172	0.232567	0.515922	0.390131	-0.187829	-0.453833	0.420441	-0.061598	-0.177627	0.596396	-0.399534	-0.366208	-0.655585	-0.358508	0.005514	-0.201830	-0.238631	-0.108745	-0.293919	-0.299298	-0.229878	0.209324	0.235462	-0.209113	0.462172	-0.062836	0.272004	0.447547	-0.251380	-0.203894	-0.752546	-0.291547	-0.031252	0.657386	0.025817	0.196670	-0.220550	0.334485	0.840931	0.843643	-0.446898	-0.336999	-0.680212	0.358203	-0.156792	-0.195339	0.044135	-0.057533	-0.065427	-0.228830	0.153270	-0.569883	0.208550	0.213566	0.108117	0.498330	-0.463748	-0.744212	-0.000896	0.279650	0.293026	0.055106	-0.259332	0.538850	0.304169	-0.118308	0.267283	-0.545985	-0.251095	0.077924	0.438706	0.259505	-0.133279	-0.387536	-0.339178	0.009793	0.223027	-0.695145	-0.778798	0.313628	-0.004307	-0.646914	0.332383	-0.548719	0.630127	0.707997	0.648435	0.403967	0.429787	0.189254	-0.265152	0.072972	-0.427030	0.440309	0.274862	0.267262	-0.067010	0.539800	0.861713	-0.359874	-0.253747	0.554292	0.782985	0.021425	0.444282	-0.150685	-0.285530	0.072679	-0.290880	0.005861	0.072561	0.258484	0.219870	-0.303989	0.735607	-0.494562	-0.061635	-0.244955	0.209556	-0.119059	0.127425	-0.356056	0.472592	-0.270374	-0.251256	-0.360186	0.471873	-0.171995	-0.104242	0.787966	0.154331	-0.049633	0.320122	0.316337	-0.222499	-0.034707	0.364107	0.148491	-0.284847	0.115459	-0.037552	-0.379864	0.895168	0.144386	-0.304598	0.164069	0.453248	0.277757	0.172564	0.589065	0.779495	0.704035	-0.299333	
0.606223	-0.271358	-0.326239	0.068151	0.273719	0.056668	-0.451953	0.109032	0.638648	0.158437	0.248778	-0.051762	0.270374	-0.157582	-0.293349	-0.499854	-0.095601	-0.267521	-0.185591	-0.302428	-0.385305	0.760927	0.304943	0.353236	0.394791	0.081249	0.061046	0.221225	-0.085690	0.562731	0.345489	-0.252756	0.548998	-0.149359	-0.493197	-0.115166	-0.671741	0.119087	-0.077731	0.278350	0.297035	0.511168	0.149068	0.326893	0.734210	-0.078745	0.040602	-0.345112	0.109418	0.267506	0.066232	0.300475	0.041714	-0.480357	0.000444	0.229770	0.595962	0.161508	-0.611230	0.280550	0.152834	0.614814	0.141269	0.313261	-0.006384	0.646541	-0.329652	0.064075	-0.347664	-0.374292	-0.296209	0.255211	-0.150469	0.549542	-0.320782	-0.198826	0.550216	0.084631	0.121758	0.043406	0.175533	-0.246094	-0.455750	-0.329611	0.245259	0.069243	0.406074	-0.011577	0.436100	-0.362637	0.774104	-0.004135	0.272609	0.007668	-0.502454	0.122344	-0.004347	-0.328791	0.111786	0.348819	0.366443	-0.637117	-0.005083	-0.299505	0.316018	0.254427	-0.302633	0.307110	0.237304	0.290399	0.028550	-0.411078	0.760279	-0.312622	0.040111	-0.304340	-0.375965	0.093755	0.352258	0.266475	0.285447	0.061560	-0.224321	0.230519	0.081655	0.069356	0.396324	0.657321	0.325707	0.063398	-0.169174	0.216951	0.267969	-0.422235	0.130139	0.132047	0.256121	0.407685	-0.258728	-0.038508	0.729081	-0.385603	0.135095	-0.159130	0.021679	-0.136162	0.557703	0.405603	0.616232	0.347306	0.102794	0.365014	-0.454569	-0.170312	-0.149347	-0.654373	0.131886	-0.324202	0.335207	-0.030569	-0.419957	-0.027921	-0.523884	0.396599	-0.091837	0.159245	-0.442920	0.493097	0.248909	0.032211	-0.375554	0.201220	-0.281555	0.304510	-0.552687	-0.146785	-0.650004	0.342159	-0.258619	-0.071478	0.463186	0.126203	0.162411	-0.292571	-0.292310	0.316423	0.093562	-0.096295	0.270088	-0.233065	-0.465203	0.543863	0.499560	-0.068864	0.004124	0.131238	0.090459	0.527792	-0.413504	-0.237874	-0.242115	-0.107758	0.373697	-0.310319	-0.507613	0.412931	-0.251563	0.259720	0.370246	-0.520270	0.099374	0.152954	-0.259629	0.360452	0.070318	-0.195413	0.424849	-0.150297	0.784843	-0.058002	0.237604	-0.316535	-0.274676	0.338413	-0.185041	-0.387300	-0.092122	-0.311321	0.702872	-0.066796	-0.104622	0.087396	0.379832	-0.089303	-0.114935	0.376013	0.450662	-0.524085	-0.388780	0.444534	-0.000451	0.729897	-0.279030	0.683377	0.371879	-0.340360	0.222335	-0.273684	-0.017803	0.312512	0.310977	0.910851	0.791380	-0.488993	-0.085820	0.132103	-0.399194	-0.033708	0.310613	-0.393106	-0.472526	0.005909	-0.492666	0.446291	-0.496917	-0.514272	0.629640	0.140792	-0.213818	-0.240796	0.417137	0.155382	0.024133	-0.354080	0.126781	0.317693	-0.054222	-0.086715	-0.480976	-0.152453	0.835678	0.480079	-0.083478	0.609858	-0.378781	-0.150225	0.306680	-0.119574	0.497810	0.339030	-0.330617	-0.534216	0.032278	0.082547	0.337284	-0.541566	1.158366	0.598885	0.414965	0.160728	
-0.276149	-0.087655	-0.332509	-0.087803	0.230715	0.138613	-0.517864	0.467518	0.411302	-0.184118	0.192682	0.432020	-0.450086	-0.017347	0.562863	-0.205322	0.133061	0.389314	-0.193582	0.073357	0.445479	0.290027	0.052178	0.335576	0.035808	-0.108175	-0.039762	0.002558	-0.125678	-0.090384	0.213149	0.155137	-0.114260	-0.455471	0.434635	-0.424802	0.224798	-0.472301	0.460928	0.240956	-0.222634	0.135363	0.296604	-0.032705	0.437793	0.230982	0.094450	-0.212799	-0.197342	-0.059492	-0.152445	0.476495	-0.220084	-0.495248	0.425834	0.444561	0.179793	-0.052790	-0.640610	0.282823	0.224541	0.199952	-0.084501	-0.442728	0.421917	-0.050276	-0.322519	0.229402	0.040307	0.197242	0.053446	0.189019	-0.426619	-0.402488	0.827901	-0.345660	0.185281	-0.548975	-0.052151	0.067300	-0.455981	-0.333573	0.005734	0.007213	-0.152035	-0.259198	-0.286874	0.135741	0.128192	-0.306125	0.351033	-0.049424	0.402957	0.587704	-0.433007	0.311698	-0.147656	-0.155329	0.254864	0.218809	-0.548226	0.335822	-0.068224	-0.054322	0.526526	-0.087363	0.282603	0.167477	0.204636	0.177996	0.410237	0.490947	0.155706	-0.149803	-0.446476	0.718804	0.145055	-0.407668	0.474095	-0.233428	-0.239530	-0.092474	0.078050	0.107170	-0.066414	0.494200	-0.445993	0.200018	0.313343	0.524239	-0.020886	-0.353782	0.100636	0.424029	0.349027	0.280181	-0.506222	0.091008	0.581359	0.261728	-0.540289	0.352806	0.047641	0.412367	-0.367088	0.039937	0.622158	0.375322	0.547947	0.191153	-0.906321	-0.283407	-0.287764	0.118948	-0.032605	0.196042	0.167873	0.189397	-0.150859	0.014758	0.202404	0.410802	-0.038309	-0.141438	-0.161857	-0.270326	0.665831	-0.106964	0.552387	0.340186	-0.290448	-0.362027	0.127952	0.400502	0.723852	0.492054	-0.224804	0.855551	0.270943	-0.164536	-0.171461	-0.023043	-0.297022	0.411083	-0.698372	-0.493076	-0.561756	-0.347208	0.332294	-0.155627	-0.090884	0.012865	-0.302927	-0.414399	0.737713	-0.147680	-0.271213	0.280568	0.599924	-0.265239	0.197609	-0.429730	-0.469063	-0.457138	0.225063	-0.182983	0.503160	-0.264227	-0.164799	-0.059942	0.034889	0.238492	-0.528495	0.287284	-0.447884	-0.339450	0.195581	0.004473	0.288140	0.298489	0.251953	-0.370138	-0.402922	-0.702942	-0.232913	-0.176331	0.226999	-0.196678	0.813891	-0.173276	0.131218	-0.096418	-0.053434	0.502656	0.291352	-0.379305	-0.341528	-0.187716	-0.076574	0.076242	0.183038	-0.218061	0.756336	0.656122	-0.050351	-0.195650	-0.687224	-0.471545	0.136373	-0.028566	0.260944	-0.039063	0.349481	0.439537	0.055998	0.134718	0.458029	-0.278565	0.560665	0.418720	0.053572	-0.040451	-0.454728	-0.482643	-0.192183	0.799921	-0.262206	0.063124	-0.057600	0.422807	0.165455	-0.355057	0.038032	0.218306	-0.515744	0.218319	0.151098	-0.279889	0.188577	0.155023	0.142524	-0.117040	-0.363973	-0.170920	-0.344533	0.299583	0.719155	-0.699612	0.514758	0.279913	0.398410	-0.143248	-0.548216	0.448967	0.032612	-0.317138	0.133690	0.478897	0.422039	0.426068	
0.191340	-0.273972	-0.404513	0.273691	0.326918	-0.171995	-0.015991	0.319167	-0.126457	-0.029690	-0.149129	-0.522330	0.181702	-0.222216	-0.197151	0.282307	-0.209916	-0.145222	0.124747	0.754508	0.535847	-0.115513	-0.002681	0.440328	0.303816	-0.472635	-0.562444	-0.081944	0.521694	0.440459	-0.208841	0.207495	0.426125	-0.051459	-0.149390	0.317959	0.217498	-0.296521	-0.019104	0.372089	-0.060400	0.252815	0.498199	-0.280843	-0.316264	0.213882	0.592311	-0.519723	0.211601	-0.208380	-0.501751	-0.199045	-0.670288	0.006540	-0.291898	-0.072001	-0.015620	-0.265572	0.267627	0.096822	0.109880	0.234858	-0.015180	-0.237592	-0.306867	0.393348	0.127267	0.106509	-0.129315	0.074515	0.291518	0.281967	-0.208401	0.295077	0.581524	0.003689	0.662696	-0.189328	-0.065223	-0.024176	0.084155	-0.003000	0.090390	-0.293122	-0.272858	0.360211	0.803861	0.201534	0.275827	0.060807	0.028869	0.092970	0.003103	0.084749	0.301306	0.295411	0.109635	-0.247642	0.099272	0.161786	-0.467025	-0.445426	0.005307	-0.182586	0.377477	-0.089523	-0.548241	0.161410	-0.070978	0.082756	-0.111341	0.050075	-0.112081	0.040003	-0.516237	0.373129	-0.088461	-0.702763	-0.194237	-0.152074	0.135609	-0.069599	-0.008263	-0.239562	-0.277702	0.389400	-0.455778	0.151083	0.103466	0.320666	-0.390234	0.556136	0.307965	0.184997	-0.030080	0.267837	0.380604	0.001027	-0.220769	-0.444804	-0.295602	0.039234	0.108171	0.077153	-0.599603	0.180339	-0.145860	0.165671	0.247717	-0.030009	-0.034284	0.109359	0.521669	-0.173344	0.046155	-0.221966	0.453172	-0.395220	0.401481	-0.157263	0.172784	-0.298750	0.106878	0.082649	0.212796	0.492595	-0.083001	0.118454	-0.133140	-0.095272	-0.085931	0.206381	0.426211	-0.010304	0.031529	0.669389	-0.196496	0.245296	0.248245	-0.441441	0.257330	-0.463530	-0.123719	0.549944	-0.404288	-0.184410	-0.624286	0.112234	-0.144855	0.325001	0.006681	-0.280903	0.584820	0.434163	0.167310	0.073285	0.264220	0.346965	0.000486	0.185644	-0.220592	0.293241	-0.453993	-0.535864	-0.077066	0.164619	0.488608	0.229320	-0.280605	-0.397924	0.168363	-0.649521	-0.186703	-0.089478	0.181092	0.076677	0.182229	0.375343	0.296809	0.465783	0.282115	-0.537438	-0.550580	0.395562	-0.304409	-0.073243	0.242401	0.384634	0.428185	0.039278	-0.164069	0.170170	-0.197213	0.343062	0.319427	0.189103	-0.128049	-0.078012	0.156612	0.242320	0.285307	-0.588664	0.108573	-0.139488	-0.310264	0.074727	-0.090741	0.116452	-0.513774	-0.436388	0.209548	0.165366	0.055564	0.070932	0.011416	-0.234981	-0.070158	0.372988	-0.174518	0.492953	-0.252596	-0.012479	-0.377205	0.225138	-0.345929	-0.139852	0.203608	0.105018	0.197648	-0.165205	0.168977	0.184392	-0.332145	0.566857	0.306991	-0.037485	-0.154445	0.030930	0.527559	-0.255702	0.341961	0.196325	-0.367541	-0.375171	-0.630948	0.415037	0.535928	-0.037235	-0.044546	0.413672	0.226158	-0.010546	-0.239127	0.390083	0.124461	-0.014297	-0.369796	-0.148272	0.523676	0.586366	
0.021977	0.031185	0.252901	-0.097225	-0.148896	0.310752	0.204916	0.144608	-0.089239	0.515499	0.263980	-0.293930	0.053370	0.193900	0.010239	0.203708	0.077444	-0.136911	-0.384580	0.561933	0.335255	0.010645	0.117259	-0.321081	0.237662	-0.347071	0.086445	0.041996	0.158241	0.006254	-0.064014	-0.243736	0.354181	-0.279017	0.051730	-0.113651	0.393413	-0.013570	0.274749	-0.590344	-0.008784	0.293073	-0.153482	-0.341620	-0.143551	0.469167	0.282544	0.177212	0.467758	0.166307	-0.118259	0.159860	-0.249724	-0.286034	0.455551	0.453439	0.149628	-0.240570	-0.185318	-0.264864	0.219567	0.287470	0.075347	-0.184269	0.311010	-0.620336	0.411443	0.023656	0.469491	-0.191855	0.368299	-0.078932	0.063521	-0.276391	-0.193278	-0.184050	0.483983	0.022989	-0.584383	0.349720	0.404042	0.177983	-0.216214	-0.327140	0.424733	-0.312483	-0.209911	0.012976	-0.013826	-0.189255	0.521805	0.606584	-0.322591	-0.444420	-0.182410	-0.381447	-0.063742	-0.328223	0.417885	0.401425	-0.035957	-0.180040	-0.392926	-0.371018	-0.022585	-0.133509	-0.003871	-0.067063	-0.271243	0.319421	-0.249783	0.424933	-0.240692	-0.344919	-0.481502	-0.032118	0.037911	-0.502490	0.515727	0.432948	0.050035	0.125844	0.242307	0.260318	0.442112	-0.257269	0.371584	-0.530360	-0.424671	0.368257	0.351176	0.256783	-0.099571	0.403088	-0.391608	0.368479	-0.348262	0.157331	-0.332815	-0.177461	-0.117936	-0.189613	-0.299927	0.282450	0.070777	-0.335999	0.144500	0.628094	0.121664	-0.006360	0.019697	-0.471411	-0.396686	0.161523	0.142291	0.468118	0.412505	0.421084	0.644843	0.553387	0.146832	0.452038	0.357964	0.587843	0.106084	0.275797	0.341252	0.285919	0.145856	0.228198	-0.481320	-0.634454	-0.512273	-0.051891	-0.248487	0.221516	0.340674	0.134325	0.342355	-0.291110	0.256744	-0.128245	-0.403210	0.500402	0.154962	-0.417919	0.236403	-0.139607	0.293616	0.275202	-0.105347	0.103391	0.166641	-0.213038	0.203600	-0.131283	-0.633719	-0.176814	-0.123584	0.130284	-0.410971	-0.052223	0.091164	-0.474246	0.261981	0.399164	0.228094	0.338534	0.112765	-0.519410	0.424790	-0.387223	0.019873	-0.142007	-0.764373	-0.159499	-0.250804	0.318829	0.576187	-0.609286	0.225290	-0.252830	0.028826	0.007548	0.499791	-0.586815	0.424776	0.253750	0.038342	-0.345185	-0.302411	-0.106654	0.090376	-0.200657	0.122277	-0.095941	0.600287	-0.849142	-0.186973	0.162072	-0.518610	0.228853	0.318399	0.149170	0.462553	0.223996	-0.736376	0.452077	-0.237321	0.411343	0.479427	0.230531	0.199539	0.006671	-0.151924	-0.385485	0.145422	-0.444258	0.539006	0.721837	-0.643625	-0.255053	-0.409869	0.147399	-0.115378	0.278859	-0.488278	0.051164	0.049879	-0.299983	0.205646	0.125560	0.530903	-0.465446	0.026840	0.302019	0.180568	-0.075265	0.329135	0.327329	-0.003470	0.311349	0.402154	-0.522225	-0.424292	-0.218203	0.366382	0.547879	-0.434603	-0.128437	0.715061	-0.514318	-0.175189	-0.275114	0.179080	0.218521	0.619341	0.358827	-0.325190	0.343551	
-0.458192	0.319611	0.199345	0.299381	0.112959	-0.136350	0.096133	-0.196205	0.391261	0.179582	-0.402415	-0.215917	-0.254639	0.289195	-0.090269	-0.023593	0.259108	0.374948	-0.065225	0.627239	0.304405	-0.047229	-0.422755	-0.325910	0.575393	0.262015	0.383462	0.470461	0.272556	0.604622	0.049384	0.205542	0.169657	-0.452016	0.069480	0.036694	-0.246964	0.051387	0.183017	0.262972	-0.463518	0.326337	-0.210218	-0.112798	0.041709	0.129473	0.611851	-0.296111	-0.332972	0.042362	-0.299376	0.574362	-0.655799	-0.458551	-0.217568	0.464500	-0.322128	-0.169208	0.187009	-0.514472	-0.408896	-0.414092	0.554662	-0.045129	-0.430135	0.029725	-0.187750	-0.147382	-0.056955	0.146691	-0.294799	-0.144100	-0.284788	-0.155021	0.102076	0.387559	0.608312	-0.044048	-0.450059	-0.184688	-0.468439	-0.239396	-0.383835	-0.490116	0.064532	-0.153292	0.738436	0.369679	0.045125	-0.075084	0.576233	0.036582	0.157295	0.082149	-0.416652	0.129834	-0.033013	-0.030731	0.339509	0.093489	-0.421784	0.345316	0.127662	-0.113440	-0.219385	-0.189294	-0.213951	-0.139048	0.496721	-0.128756	0.123022	0.406125	0.038912	-0.374416	-0.482050	0.024322	0.235219	-0.445629	-0.235593	-0.277901	0.257174	-0.684088	-0.131315	-0.166475	0.300188	0.218788	-0.391276	0.271621	0.331964	0.452132	-0.088594	0.472126	0.452397	-0.237710	-0.218259	-0.125880	-0.292396	0.060333	-0.043684	-0.321248	0.286475	0.376070	-0.234258	0.276875	-0.399219	-0.402739	0.659382	0.492466	-0.073944	-0.099978	0.281525	-0.455623	-0.315828	-0.144139	-0.488611	0.519880	0.511707	0.062478	0.553613	0.374908	-0.048576	-0.239004	0.498891	0.172728	-0.240268	-0.439362	0.102411	0.152632	0.458385	-0.579059	0.505575	-0.082107	0.385285	-0.313756	-0.015101	-0.498734	-0.064797	-0.071320	0.765505	0.329204	-0.145471	0.450233	0.505212	0.216822	-0.418228	-0.172380	-0.018040	-0.346578	0.296887	-0.130727	-0.504600	-0.173642	0.105577	0.240514	0.357851	0.460327	0.356199	0.048616	0.359769	0.059261	-0.153456	0.126077	-0.411785	-0.395724	0.181953	0.179753	-0.099910	-0.053788	0.386946	-0.441425	-0.268325	-0.407625	-0.263886	-0.122714	0.133667	-0.059036	0.275454	-0.311788	0.334629	-0.022933	0.148177	-0.069457	0.205310	-0.144184	0.040167	0.049835	-0.392855	-0.054801	0.324400	0.330400	0.225327	-0.036235	-0.069342	0.669788	0.227248	-0.127316	0.134806	0.076721	0.387162	-0.047948	-0.644614	0.293408	0.352681	-0.255087	-0.243727	-0.217562	-0.182233	0.002873	-0.116503	-0.264687	-0.281531	0.278891	0.538294	0.219963	-0.449923	-0.176916	0.017948	-0.360272	0.392289	-0.162880	0.207581	0.073483	-0.130325	-0.067865	0.241371	-0.458995	0.359898	-0.365190	0.108147	0.010097	-0.147260	0.118365	-0.121159	0.202900	0.320318	-0.049612	0.530632	-0.358907	-0.678106	-0.118874	0.279553	-0.174942	-0.210568	-0.047385	-0.625811	0.139600	0.939844	0.337302	-0.042842	0.274774	-0.300303	-0.317473	-0.166762	-0.009230	0.410521	0.239582	0.122695	0.172092	0.448371	-0.068407	
-0.373493	-0.011432	-0.207874	-0.100503	0.313977	-0.148170	-0.709976	0.387021	0.047506	-0.337639	-0.351833	-0.272905	0.023294	-0.167207	0.350597	-0.037675	0.301231	0.387738	-0.254443	0.033120	-0.048321	-0.240850	0.307183	0.319388	0.644826	0.101020	0.277889	0.115740	0.108563	0.307075	0.338398	0.194632	0.616289	0.631784	-0.161625	0.470027	-0.451622	-0.159971	0.120090	-0.166717	0.168610	0.651264	0.389942	-0.405384	-0.132590	0.127849	0.157614	-0.407357	-0.131121	0.381177	-0.144350	0.299975	-0.383829	-0.502900	0.272433	-0.232460	0.486157	0.307481	0.096503	0.106722	-0.252749	-0.022890	-0.018853	-0.596264	-0.008908	-0.090943	0.567370	0.119984	-0.033698	0.032979	-0.162265	0.363816	-0.472461	0.338953	0.059685	0.165629	0.134722	-0.434487	0.329683	0.467495	-0.342520	-0.435120	0.257644	-0.025693	-0.223909	0.057144	0.395981	-0.234962	-0.353130	-0.291205	0.402404	-0.241474	0.518357	-0.523926	-0.271932	-0.005577	0.412620	-0.092765	0.462855	0.514869	0.329490	-0.550848	0.070342	-0.407383	0.253874	-0.221162	0.502044	0.253829	0.228590	0.104820	-0.068507	0.414990	0.101600	-0.461475	-0.143933	-0.369152	0.144328	-0.262079	-0.020699	0.308614	0.222409	-0.568186	0.226273	0.258776	-0.204795	-0.308173	-0.305361	0.309299	-0.159347	-0.356857	0.306831	-0.197337	-0.114970	-0.054098	-0.135904	-0.268620	0.006649	-0.198565	0.098710	-0.244778	0.261679	0.479791	-0.256791	0.153417	0.403681	0.094259	0.492929	-0.083289	0.540794	-0.147175	0.460799	0.173404	-0.334678	0.268589	-0.347491	0.028205	0.267357	0.089348	-0.094338	-0.048395	0.205281	-0.328461	0.046148	0.710125	-0.072478	0.127110	-0.387428	-0.378064	-0.160084	-0.004257	-0.090720	-0.728753	0.208150	0.215450	0.546059	-0.119452	-0.193617	0.193482	0.629935	-0.193838	0.151441	0.213592	0.382512	0.289491	-0.154532	-0.152187	-0.400405	-0.190870	0.290923	0.014360	-0.071089	0.229189	-0.057652	0.235169	0.363151	-0.465084	-0.125134	0.356022	-0.122934	0.215570	-0.243866	0.147428	-0.034004	0.294212	-0.328448	0.093854	-0.136844	0.185924	0.780425	-0.744905	0.451485	-0.096432	0.326008	0.585877	-0.374214	-0.183287	-0.051799	-0.383558	0.216988	-0.394695	0.264853	0.069188	0.199601	-0.082873	0.398528	-0.274645	-0.243322	-0.156231	0.429791	0.125690	0.164192	-0.068384	-0.288107	0.004759	-0.047030	0.169711	0.407543	-0.504539	0.019703	0.472028	-0.300546	-0.326654	0.153745	-0.537027	-0.269349	-0.136837	-0.276627	-0.147596	0.243728	0.363043	0.006092	-0.227255	0.309994	-0.356335	0.185528	-0.201674	-0.032684	0.328737	0.381490	-0.008055	-0.237202	-0.243302	0.138162	0.137298	0.494000	0.426499	-0.134424	0.276143	-0.470897	-0.005810	-0.025827	-0.127546	0.226543	0.197297	0.031473	0.199028	-0.345252	0.064125	-0.709011	0.413098	0.121896	0.017230	-0.144111	-0.283229	-0.037097	0.732543	0.882828	-0.249641	0.162853	0.110744	0.247890	-0.600802	0.400564	-0.045377	0.336608	0.226622	-0.220372	-0.526557	-0.252863	-0.093845	
0.026825	0.423236	0.517086	-0.282055	-0.029463	0.163985	-0.685760	0.109233	-0.196498	-0.557391	0.096569	0.399573	0.173909	0.374067	-0.086034	-0.483145	0.262867	-0.129048	-0.057192	0.280678	0.141759	-0.143567	0.156243	0.191981	0.391451	-0.091414	0.017968	0.552741	0.323331	0.685922	-0.082596	-0.283202	0.534921	-0.238108	-0.006055	-0.124318	0.298943	0.043727	-0.411922	0.058373	0.169325	0.413816	0.261875	-0.196658	0.184767	-0.388909	-0.130216	-0.218875	-0.222289	-0.438031	0.467724	-0.571864	-0.337457	0.033047	0.216139	-0.405310	-0.074852	0.127845	-0.495702	-0.366198	-0.258529	-0.100829	-0.054603	-0.446473	0.225236	0.212214	0.149772	-0.030407	0.284795	0.034971	-0.278152	-0.367064	-0.639817	0.483492	-0.417833	0.231958	0.439474	0.019622	-0.281084	-0.303101	0.118296	-0.419695	-0.392696	-0.576785	0.294254	0.477085	-0.098237	-0.314578	-0.181693	-0.229452	-0.266884	0.098857	0.253192	-0.107217	-0.038191	-0.111632	0.020025	-0.083688	0.111855	0.538243	0.309109	0.137553	0.467991	0.362992	0.121758	-0.373030	0.270111	0.245149	0.415576	0.225502	0.404658	0.111741	0.225594	0.341515	0.238277	0.138468	0.364663	-0.506929	0.456431	0.709562	-0.078765	0.334924	0.026627	-0.193227	0.058402	-0.324573	0.213138	0.268949	-0.135202	-0.203025	0.362924	-0.180988	-0.360777	0.229565	-0.546682	0.268430	0.206692	0.287637	-0.218008	0.134039	-0.363208	0.338720	0.088350	-0.308955	0.304371	-0.388580	-0.323424	0.032875	-0.159162	0.480952	-0.098484	0.239903	0.243367	0.514278	-0.866698	-0.026752	-0.181335	0.099365	-0.042639	0.215879	0.394742	-0.488279	0.320545	0.766358	0.144105	0.092580	0.076731	-0.022705	0.038212	0.277727	-0.331232	0.143648	0.333510	0.357012	-0.021776	-0.176206	0.484476	0.052220	0.703918	-0.163567	-0.356887	-0.064038	-0.347772	0.352362	-0.475426	-0.244561	-0.404668	-0.165852	0.183255	-0.091357	0.137085	0.173087	-0.178849	-0.365171	0.278485	-0.315877	0.235822	-0.063372	0.445498	-0.177504	-0.727880	-0.251497	-0.643308	0.159910	0.328316	0.074146	0.458672	0.438868	0.548167	-0.175391	-0.149873	0.132882	0.386542	0.056572	0.015730	0.455885	0.308171	0.029987	-0.183387	-0.081720	-0.127816	-0.000809	-0.468109	0.314775	0.389372	0.152365	0.462737	0.065324	0.425972	0.403104	0.066872	0.589197	-0.512453	0.340348	0.355111	0.623091	-0.411525	-0.270786	0.838236	0.226252	-0.340882	-0.190493	0.340117	0.473290	0.330256	0.345564	0.323800	-0.258544	0.174882	0.540960	0.243566	0.465380	0.283025	0.028329	0.373681	-0.093843	-0.208462	-0.054872	-0.272984	-0.371741	-0.117865	0.290351	-0.240530	-0.142020	0.091633	0.372543	0.155962	0.049852	-0.444125	-0.001533	-0.094769	-0.254950	0.023639	0.167610	-0.371499	-0.129985	0.329380	-0.560867	-0.293835	0.002757	-0.464404	-0.324610	-0.160241	0.139335	0.275101	-0.184564	0.178534	-0.260138	0.058831	-0.220727	-0.067624	-0.800440	-0.630789	0.090668	-0.014408	0.114332	-0.171099	0.251727	-0.456370	-0.046522	
-0.322022	0.242570	0.501427	0.445841	-0.475185	0.555727	-0.661499	0.176455	-0.341308	0.339387	-0.377960	-0.289500	-0.282345	-0.232299	0.491745	0.333224	-0.021356	-0.332463	-0.366218	-0.286876	-0.320937	0.167028	-0.436838	-0.176465	-0.082651	-0.055999	-0.509011	0.119034	0.122537	0.044942	-0.472860	0.279418	0.420918	0.331327	0.189415	0.274849	0.430976	0.216574	0.104539	-0.026382	0.130383	0.287537	0.543766	0.567116	-0.289804	0.370345	0.054679	-0.049806	0.356619	0.302248	0.006356	-0.353961	-0.078722	0.013619	0.235500	0.361280	-0.196182	0.609085	0.000340	0.300123	-0.380188	0.014052	0.021630	0.270390	-0.054381	0.334803	0.271183	-0.306973	0.573922	-0.366736	0.644739	0.095133	-0.142070	0.497896	-0.444063	0.247822	0.364601	-0.003763	0.093516	0.034471	0.175447	0.441161	0.196058	-0.288444	0.256705	0.024966	-0.166697	0.289000	-0.142171	0.276818	0.051346	-0.178563	-0.128091	0.476441	-0.708446	0.253041	0.589011	0.655934	0.440380	0.197812	0.514433	0.307142	-0.322874	0.230018	0.134891	-0.219262	0.216414	0.195555	-0.261052	-0.530962	0.693773	0.218920	-0.536110	0.501636	-0.488834	0.040563	-0.076572	-0.239699	0.172206	0.281624	-0.135278	-0.499282	0.449017	0.160255	-0.194829	-0.530668	0.160871	-0.494130	0.386047	-0.070995	0.492530	0.323800	-0.087062	0.430049	-0.035869	0.523878	-0.438750	-0.100192	-0.110736	-0.281134	-0.405619	-0.042648	-0.277275	-0.413163	-0.303064	-0.573516	0.583934	0.080199	0.118706	0.092615	0.394416	-0.416689	0.031090	0.384257	-0.005006	0.381760	0.592126	0.036407	0.424038	0.269742	0.362542	0.097950	0.172981	0.058359	-0.083180	-0.601990	-0.337515	-0.056807	-0.197896	0.083489	0.244460	-0.254778	0.631755	-0.229407	0.382093	-0.230431	-0.256527	0.295412	0.384599	0.362581	-0.158254	0.248024	-0.418424	0.330006	-0.202188	0.385627	-0.139166	-0.124099	-0.343207	-0.208070	-0.416881	-0.336630	-0.016602	-0.027932	0.127744	-0.036590	0.126187	0.454743	-0.217012	0.552087	-0.342653	-0.263563	-0.190866	0.031442	-0.388978	-0.252945	0.058638	0.002356	0.672104	-0.682286	-0.111851	-0.491185	0.075994	-0.167643	0.089902	0.419402	-0.026073	-0.384108	0.121943	-0.117057	0.103475	-0.344637	0.479567	-0.011742	-0.384065	-0.376272	0.361036	0.402503	-0.345196	-0.381612	-0.003576	0.192948	-0.058977	-0.288475	0.681235	-0.128364	-0.412222	-0.373835	0.710160	-0.391501	-0.216402	-0.192392	-0.065724	0.503558	0.172358	0.305415	0.368275	0.165970	-0.288876	0.004860	-0.173191	0.034762	0.412958	-0.452337	0.718252	0.051361	-0.067815	0.255224	0.005953	-0.005121	0.427613	0.253029	-0.502532	-0.430900	0.564922	0.478394	0.345238	-0.341007	-0.463455	-0.053254	-0.161142	0.167532	0.253680	-0.147036	-0.031950	-0.485039	0.036542	0.003195	0.213548	-0.121518	0.193365	-0.321554	0.295299	-0.201788	-0.302618	0.538680	-0.013803	0.341213	0.025953	-0.105967	-0.055654	-0.327312	-0.418032	0.032656	0.080374	-0.148516	-0.212311	-0.378915	-0.339528	0.050713	
